{"EPOCH": 1, "_runtime": 205, "_timestamp": 1642254046, "_step": 6, "parameters/conv1.weight": {"_type": "histogram", "values": [12.0, 12.0, 12.0, 13.0, 23.0, 31.0, 33.0, 39.0, 44.0, 37.0, 41.0, 38.0, 41.0, 37.0, 41.0, 36.0, 43.0, 44.0, 47.0, 30.0, 39.0, 26.0, 42.0, 42.0, 42.0, 41.0, 49.0, 48.0, 45.0, 33.0, 39.0, 50.0, 32.0, 60.0, 40.0, 47.0, 42.0, 31.0, 43.0, 50.0, 40.0, 38.0, 41.0, 39.0, 44.0, 45.0, 46.0, 33.0, 37.0, 48.0, 36.0, 39.0, 47.0, 39.0, 41.0, 42.0, 36.0, 43.0, 36.0, 27.0, 23.0, 29.0, 35.0, 21.0], "bins": [-0.13292931020259857, -0.12900947034358978, -0.125089630484581, -0.1211697906255722, -0.11724995076656342, -0.11333011090755463, -0.10941027849912643, -0.10549043864011765, -0.10157059878110886, -0.09765075892210007, -0.09373091906309128, -0.08981107920408249, -0.0858912467956543, -0.08197140693664551, -0.07805156707763672, -0.07413172721862793, -0.07021188735961914, -0.06629204750061035, -0.06237220764160156, -0.05845237150788307, -0.05453253164887428, -0.050612691789865494, -0.046692855656147, -0.042773015797138214, -0.038853175938129425, -0.034933336079120636, -0.031013498082756996, -0.027093660086393356, -0.023173820227384567, -0.019253980368375778, -0.015334142372012138, -0.011414304375648499, -0.0074944570660591125, -0.003574618138372898, 0.00034522078931331635, 0.004265059716999531, 0.008184898644685745, 0.012104738503694534, 0.016024576500058174, 0.019944414496421814, 0.023864254355430603, 0.027784094214439392, 0.03170393407344818, 0.03562377020716667, 0.03954361006617546, 0.04346344992518425, 0.04738328605890274, 0.05130312591791153, 0.05522296577692032, 0.05914280563592911, 0.0630626454949379, 0.06698248535394669, 0.07090231776237488, 0.07482215762138367, 0.07874199748039246, 0.08266183733940125, 0.08658167719841003, 0.09050151705741882, 0.09442135691642761, 0.0983411967754364, 0.10226103663444519, 0.10618087649345398, 0.11010070890188217, 0.11402054876089096, 0.11794038861989975]}, "parameters/conv1.bias": {"_type": "histogram", "values": [1.0, 1.0, 0.0, 1.0, 1.0, 0.0, 0.0, 2.0, 0.0, 0.0, 0.0, 0.0, 1.0, 1.0, 1.0, 1.0, 1.0, 0.0, 1.0, 0.0, 0.0, 0.0, 1.0, 0.0, 0.0, 0.0, 1.0, 0.0, 0.0, 0.0, 1.0, 0.0, 0.0, 0.0, 0.0, 0.0, 1.0, 1.0, 0.0, 2.0, 1.0, 0.0, 1.0, 0.0, 0.0, 2.0, 0.0, 0.0, 0.0, 1.0, 0.0, 0.0, 1.0, 0.0, 1.0, 1.0, 0.0, 0.0, 1.0, 0.0, 1.0, 0.0, 1.0, 2.0], "bins": [-0.12401430308818817, -0.12045467644929886, -0.11689505726099014, -0.11333543062210083, -0.10977581143379211, -0.1062161847949028, -0.10265655815601349, -0.09909693896770477, -0.09553731977939606, -0.09197769314050674, -0.08841807395219803, -0.08485844731330872, -0.081298828125, -0.07773920148611069, -0.07417957484722137, -0.07061995565891266, -0.06706032902002335, -0.06350070238113403, -0.05994108319282532, -0.056381456553936005, -0.05282183736562729, -0.049262210726737976, -0.04570258781313896, -0.04214296489953995, -0.038583338260650635, -0.03502371534705162, -0.031464092433452606, -0.027904467657208443, -0.02434484474360943, -0.020785221830010414, -0.01722559705376625, -0.013665974140167236, -0.01010635495185852, -0.006546731572598219, -0.0029871081933379173, 0.0005725156515836716, 0.004132138565182686, 0.0076917614787817, 0.011251386255025864, 0.014811009168624878, 0.018370628356933594, 0.021930251270532608, 0.025489874184131622, 0.029049498960375786, 0.03260912001132965, 0.036168746650218964, 0.03972836956381798, 0.04328799247741699, 0.046847619116306305, 0.05040724202990532, 0.053966864943504333, 0.057526491582393646, 0.06108611077070236, 0.06464573740959167, 0.06820535659790039, 0.0717649832367897, 0.07532460987567902, 0.07888423651456833, 0.08244385570287704, 0.08600348234176636, 0.08956310153007507, 0.09312272816896439, 0.0966823548078537, 0.10024197399616241, 0.10380159318447113]}, "parameters/conv2.weight": {"_type": "histogram", "values": [230.0, 397.0, 466.0, 462.0, 436.0, 481.0, 547.0, 503.0, 576.0, 539.0, 615.0, 734.0, 1048.0, 1050.0, 1172.0, 1094.0, 1062.0, 1104.0, 1126.0, 1177.0, 1177.0, 1201.0, 1200.0, 1219.0, 1171.0, 1254.0, 1201.0, 1243.0, 1260.0, 1201.0, 1269.0, 1268.0, 1172.0, 1218.0, 1197.0, 1201.0, 1183.0, 1210.0, 1213.0, 1175.0, 1279.0, 1149.0, 1028.0, 810.0, 823.0, 780.0, 772.0, 727.0, 676.0, 687.0, 652.0, 657.0, 625.0, 560.0, 162.0, 130.0, 118.0, 119.0, 98.0, 82.0, 107.0, 80.0, 26.0, 1.0], "bins": [-0.05275217071175575, -0.051073990762233734, -0.049395814538002014, -0.047717638313770294, -0.046039458364248276, -0.04436127841472626, -0.04268310219049454, -0.04100492596626282, -0.0393267460167408, -0.03764856606721878, -0.03597038984298706, -0.03429221361875534, -0.03261403366923332, -0.030935855582356453, -0.029257677495479584, -0.027579499408602715, -0.025901321321725845, -0.024223143234848976, -0.022544965147972107, -0.020866787061095238, -0.01918860897421837, -0.0175104308873415, -0.01583225280046463, -0.014154074713587761, -0.012475896626710892, -0.010797718539834023, -0.009119540452957153, -0.007441362366080284, -0.005763184279203415, -0.004085006192326546, -0.0024068281054496765, -0.0007286500185728073, 0.0009495317935943604, 0.0026277098804712296, 0.004305887967348099, 0.005984066054224968, 0.007662244141101837, 0.009340422227978706, 0.011018600314855576, 0.012696778401732445, 0.014374956488609314, 0.016053134575486183, 0.017731312662363052, 0.01940949074923992, 0.02108766883611679, 0.02276584692299366, 0.02444402500987053, 0.0261222030967474, 0.027800381183624268, 0.029478559270501137, 0.031156737357378006, 0.032834917306900024, 0.034513093531131744, 0.036191269755363464, 0.03786944970488548, 0.0395476296544075, 0.04122580587863922, 0.04290398210287094, 0.04458216205239296, 0.04626034200191498, 0.0479385182261467, 0.04961669445037842, 0.051294874399900436, 0.052973054349422455, 0.054651230573654175]}, "parameters/conv2.bias": {"_type": "histogram", "values": [3.0, 0.0, 0.0, 0.0, 0.0, 0.0, 0.0, 1.0, 0.0, 1.0, 0.0, 1.0, 1.0, 0.0, 0.0, 0.0, 0.0, 2.0, 1.0, 2.0, 2.0, 3.0, 0.0, 0.0, 0.0, 2.0, 0.0, 3.0, 0.0, 0.0, 2.0, 0.0, 3.0, 3.0, 2.0, 3.0, 3.0, 1.0, 1.0, 1.0, 2.0, 0.0, 0.0, 2.0, 2.0, 2.0, 2.0, 1.0, 2.0, 0.0, 0.0, 0.0, 1.0, 0.0, 0.0, 0.0, 1.0, 1.0, 0.0, 2.0, 2.0, 1.0, 1.0, 1.0], "bins": [-0.0458967462182045, -0.04459945857524872, -0.04330216720700264, -0.04200487956404686, -0.04070758819580078, -0.039410300552845, -0.03811301290988922, -0.03681572154164314, -0.03551843389868736, -0.03422114625573158, -0.032923854887485504, -0.031626567244529724, -0.030329277738928795, -0.029031988233327866, -0.027734698727726936, -0.026437409222126007, -0.025140119716525078, -0.02384283021092415, -0.02254554070532322, -0.02124825119972229, -0.01995096355676651, -0.01865367405116558, -0.01735638454556465, -0.01605909690260887, -0.014761805534362793, -0.013464516028761864, -0.012167227454483509, -0.01086993794888258, -0.009572649374604225, -0.008275359869003296, -0.006978070363402367, -0.005680781789124012, -0.004383493214845657, -0.0030862041749060154, -0.0017889149021357298, -0.0004916256293654442, 0.0008056634105741978, 0.0021029524505138397, 0.003400241956114769, 0.004697530530393124, 0.005994819104671478, 0.00729210814461112, 0.008589397184550762, 0.009886686690151691, 0.011183975264430046, 0.012481264770030975, 0.013778554275631905, 0.01507584284991026, 0.016373133286833763, 0.017670422792434692, 0.01896771229803562, 0.02026500180363655, 0.02156228944659233, 0.02285957895219326, 0.02415686845779419, 0.02545415610074997, 0.026751447468996048, 0.028048736974596977, 0.029346026480197906, 0.030643314123153687, 0.031940605491399765, 0.033237893134355545, 0.034535184502601624, 0.035832472145557404, 0.037129759788513184]}, "parameters/conv3.weight": {"_type": "histogram", "values": [541.0, 1341.0, 1435.0, 1494.0, 1530.0, 1449.0, 1550.0, 1617.0, 1675.0, 1736.0, 1805.0, 1810.0, 1872.0, 2860.0, 3293.0, 4074.0, 4286.0, 4215.0, 4341.0, 4266.0, 4370.0, 4267.0, 4407.0, 4303.0, 4433.0, 4524.0, 5298.0, 5248.0, 5460.0, 5395.0, 5438.0, 5519.0, 5410.0, 5393.0, 5379.0, 5398.0, 5371.0, 5319.0, 4936.0, 4139.0, 3959.0, 3904.0, 3717.0, 3899.0, 3813.0, 3733.0, 3657.0, 3739.0, 3594.0, 3488.0, 3543.0, 2548.0, 2182.0, 1383.0, 1129.0, 1130.0, 1132.0, 1094.0, 1074.0, 1084.0, 985.0, 1017.0, 953.0, 846.0], "bins": [-0.04243402183055878, -0.04111945256590843, -0.03980487957596779, -0.038490310311317444, -0.0371757373213768, -0.035861168056726456, -0.03454659879207611, -0.03323202580213547, -0.03191745653748512, -0.03060288541018963, -0.029288314282894135, -0.02797374501824379, -0.026659173890948296, -0.0253446027636528, -0.024030033499002457, -0.022715462371706963, -0.02140089124441147, -0.020086320117115974, -0.01877174898982048, -0.017457179725170135, -0.01614260859787464, -0.014828037470579147, -0.013513467274606228, -0.012198897078633308, -0.010884325951337814, -0.00956975482404232, -0.0082551846280694, -0.006940613966435194, -0.005626043304800987, -0.0043114726431667805, -0.0029969019815325737, -0.0016823317855596542, -0.0003677643835544586, 0.0009468062780797482, 0.002261376939713955, 0.0035759476013481617, 0.0048905182629823685, 0.006205088924616575, 0.007519659586250782, 0.008834229782223701, 0.010148800909519196, 0.01146337203681469, 0.012777942232787609, 0.014092512428760529, 0.015407083556056023, 0.016721654683351517, 0.01803622394800186, 0.019350795075297356, 0.02066536620259285, 0.021979937329888344, 0.023294508457183838, 0.024609077721834183, 0.025923648849129677, 0.02723821997642517, 0.028552789241075516, 0.02986736036837101, 0.031181931495666504, 0.03249650076031685, 0.03381107375025749, 0.03512564301490784, 0.03644021600484848, 0.037754785269498825, 0.03906935453414917, 0.04038392752408981, 0.04169849678874016]}, "parameters/conv3.bias": {"_type": "histogram", "values": [1.0, 1.0, 2.0, 1.0, 1.0, 1.0, 1.0, 3.0, 1.0, 2.0, 0.0, 1.0, 3.0, 2.0, 0.0, 3.0, 1.0, 3.0, 2.0, 2.0, 0.0, 4.0, 1.0, 2.0, 3.0, 5.0, 2.0, 3.0, 2.0, 0.0, 3.0, 4.0, 3.0, 6.0, 1.0, 6.0, 2.0, 6.0, 1.0, 4.0, 1.0, 5.0, 2.0, 1.0, 1.0, 3.0, 2.0, 1.0, 1.0, 3.0, 0.0, 3.0, 3.0, 1.0, 4.0, 0.0, 2.0, 3.0, 2.0, 0.0, 0.0, 0.0, 0.0, 1.0], "bins": [-0.04016665369272232, -0.03902818635106087, -0.037889719009399414, -0.03675125539302826, -0.035612788051366806, -0.03447432070970535, -0.0333358533680439, -0.032197386026382446, -0.031058920547366142, -0.02992045320570469, -0.028781987726688385, -0.027643520385026932, -0.02650505304336548, -0.025366587564349174, -0.02422812022268772, -0.023089654743671417, -0.021951187402009964, -0.02081272006034851, -0.019674254581332207, -0.018535787239670753, -0.01739732176065445, -0.016258854418992996, -0.015120387077331543, -0.013981920666992664, -0.012843454256653786, -0.011704987846314907, -0.010566521435976028, -0.009428054094314575, -0.008289587683975697, -0.007151121273636818, -0.006012654397636652, -0.004874187521636486, -0.0037357211112976074, -0.002597254468128085, -0.0014587878249585629, -0.00032032118178904057, 0.0008181454613804817, 0.0019566118717193604, 0.0030950787477195263, 0.004233545623719692, 0.005372012034058571, 0.0065104784443974495, 0.007648945320397615, 0.008787412196397781, 0.00992587860673666, 0.011064345017075539, 0.012202812358736992, 0.01334127876907587, 0.01447974517941475, 0.015618211589753628, 0.016756678000092506, 0.01789514534175396, 0.019033610820770264, 0.020172078162431717, 0.02131054550409317, 0.022449012845754623, 0.023587478324770927, 0.02472594566643238, 0.025864411145448685, 0.027002878487110138, 0.02814134582877159, 0.029279811307787895, 0.03041827864944935, 0.03155674412846565, 0.032695211470127106]}, "parameters/conv4.weight": {"_type": "histogram", "values": [1900.0, 5890.0, 6269.0, 6502.0, 6690.0, 6668.0, 6949.0, 6995.0, 6955.0, 7871.0, 8139.0, 8082.0, 8121.0, 8152.0, 8369.0, 8494.0, 15830.0, 16633.0, 18961.0, 20601.0, 20531.0, 20481.0, 20653.0, 21096.0, 21211.0, 21291.0, 21330.0, 21287.0, 21377.0, 21426.0, 21745.0, 23827.0, 24875.0, 21006.0, 18965.0, 18601.0, 18524.0, 18115.0, 18634.0, 18111.0, 17925.0, 17808.0, 17166.0, 16853.0, 17089.0, 16953.0, 16557.0, 16713.0, 13806.0, 8941.0, 8498.0, 4816.0, 4788.0, 4762.0, 4666.0, 4440.0, 4029.0, 4009.0, 3974.0, 3907.0, 3814.0, 3808.0, 3504.0, 3217.0], "bins": [-0.035116858780384064, -0.034031033515930176, -0.03294520825147629, -0.0318593829870224, -0.03077355958521366, -0.029687734320759773, -0.028601910918951035, -0.027516085654497147, -0.02643026039004326, -0.02534443512558937, -0.024258609861135483, -0.023172786459326744, -0.022086961194872856, -0.021001135930418968, -0.01991531252861023, -0.01882948726415634, -0.017743661999702454, -0.016657836735248566, -0.015572012402117252, -0.014486188068985939, -0.013400362804532051, -0.012314537540078163, -0.01122871320694685, -0.010142888873815536, -0.009057063609361649, -0.00797123834490776, -0.006885414011776447, -0.005799589212983847, -0.004713764414191246, -0.0036279396153986454, -0.0025421148166060448, -0.0014562900178134441, -0.00037046894431114197, 0.0007153558544814587, 0.0018011806532740593, 0.00288700545206666, 0.0039728302508592606, 0.005058655049651861, 0.006144479848444462, 0.0072303046472370625, 0.008316129446029663, 0.009401954710483551, 0.010487779043614864, 0.011573603376746178, 0.012659428641200066, 0.013745253905653954, 0.014831078238785267, 0.01591690257191658, 0.017002727836370468, 0.018088553100824356, 0.019174378365278244, 0.020260201767086983, 0.02134602703154087, 0.02243185229599476, 0.023517675697803497, 0.024603500962257385, 0.025689326226711273, 0.02677515149116516, 0.02786097675561905, 0.028946800157427788, 0.030032625421881676, 0.031118450686335564, 0.0322042740881443, 0.03329009935259819, 0.03437592461705208]}, "parameters/conv4.bias": {"_type": "histogram", "values": [2.0, 0.0, 4.0, 2.0, 2.0, 1.0, 1.0, 1.0, 3.0, 3.0, 4.0, 3.0, 2.0, 3.0, 2.0, 2.0, 2.0, 4.0, 5.0, 2.0, 8.0, 10.0, 7.0, 10.0, 5.0, 7.0, 8.0, 6.0, 7.0, 8.0, 12.0, 8.0, 6.0, 9.0, 7.0, 9.0, 3.0, 5.0, 7.0, 4.0, 4.0, 7.0, 5.0, 3.0, 2.0, 3.0, 3.0, 4.0, 2.0, 8.0, 4.0, 4.0, 4.0, 2.0, 4.0, 2.0, 0.0, 0.0, 0.0, 0.0, 0.0, 0.0, 0.0, 1.0], "bins": [-0.03379041329026222, -0.0328136682510376, -0.031836919486522675, -0.03086017444729805, -0.029883427545428276, -0.028906680643558502, -0.027929935604333878, -0.026953188702464104, -0.02597644180059433, -0.024999694898724556, -0.024022947996854782, -0.023046202957630157, -0.022069456055760384, -0.02109270915389061, -0.020115964114665985, -0.01913921721279621, -0.018162470310926437, -0.017185723409056664, -0.01620897650718689, -0.015232231467962265, -0.014255484566092491, -0.013278737664222717, -0.012301991693675518, -0.011325245723128319, -0.010348498821258545, -0.009371751919388771, -0.008395005948841572, -0.007418259512633085, -0.006441513076424599, -0.005464766640216112, -0.004488020204007626, -0.003511273767799139, -0.0025345291942358017, -0.0015577827580273151, -0.0005810363218188286, 0.000395710114389658, 0.0013724565505981445, 0.002349202986806631, 0.0033259494230151176, 0.004302695859223604, 0.005279442295432091, 0.006256188731640577, 0.007232935167849064, 0.008209681138396263, 0.009186428040266037, 0.01016317494213581, 0.01113992091268301, 0.01211666688323021, 0.013093413785099983, 0.014070160686969757, 0.015046906657516956, 0.016023652628064156, 0.01700039952993393, 0.017977146431803703, 0.018953893333673477, 0.019930638372898102, 0.020907385274767876, 0.02188413217663765, 0.022860877215862274, 0.023837624117732048, 0.024814371019601822, 0.025791117921471596, 0.02676786482334137, 0.027744609862565994, 0.028721356764435768]}, "parameters/fc1.weight": {"_type": "histogram", "values": [4.0, 14.0, 8901.0, 29293.0, 30629.0, 31549.0, 32089.0, 32455.0, 32847.0, 32860.0, 33263.0, 33243.0, 36949.0, 38934.0, 38702.0, 39678.0, 40019.0, 47393.0, 51809.0, 54511.0, 75668.0, 76318.0, 84047.0, 90869.0, 90690.0, 91142.0, 91195.0, 88623.0, 72283.0, 64351.0, 64469.0, 63723.0, 64082.0, 64410.0, 63890.0, 63742.0, 68500.0, 85973.0, 87041.0, 86916.0, 86641.0, 87132.0, 83338.0, 75141.0, 74131.0, 57135.0, 50850.0, 47555.0, 35954.0, 35768.0, 35577.0, 35159.0, 34406.0, 30845.0, 30091.0, 30095.0, 30173.0, 29745.0, 29464.0, 28942.0, 28850.0, 28014.0, 11903.0, 17.0], "bins": [-0.03216540068387985, -0.031178362667560577, -0.030191324651241302, -0.02920428477227688, -0.028217246755957603, -0.02723020873963833, -0.026243168860673904, -0.02525613084435463, -0.024269092828035355, -0.02328205481171608, -0.022295016795396805, -0.02130797691643238, -0.020320938900113106, -0.01933390088379383, -0.018346861004829407, -0.017359822988510132, -0.016372784972190857, -0.015385746955871582, -0.014398708008229733, -0.013411669060587883, -0.012424631044268608, -0.011437593027949333, -0.010450554080307484, -0.009463515132665634, -0.00847647711634636, -0.007489438634365797, -0.006502400152385235, -0.005515361670404673, -0.00452832318842411, -0.003541284706443548, -0.002554246224462986, -0.0015672077424824238, -0.00058017298579216, 0.0004068654961884022, 0.0013939039781689644, 0.0023809424601495266, 0.003367980942130089, 0.004355019424110651, 0.005342057906091213, 0.0063290963880717754, 0.007316134870052338, 0.008303172886371613, 0.009290211834013462, 0.010277250781655312, 0.011264288797974586, 0.012251326814293861, 0.013238365761935711, 0.01422540470957756, 0.015212442725896835, 0.01619948074221611, 0.017186518758535385, 0.01817355863749981, 0.019160596653819084, 0.02014763467013836, 0.021134674549102783, 0.022121712565422058, 0.023108750581741333, 0.024095788598060608, 0.025082826614379883, 0.026069866493344307, 0.027056904509663582, 0.028043942525982857, 0.02903098240494728, 0.030018020421266556, 0.03100505843758583]}, "parameters/fc1.bias": {"_type": "histogram", "values": [2.0, 3.0, 1.0, 2.0, 5.0, 1.0, 5.0, 2.0, 2.0, 2.0, 4.0, 7.0, 2.0, 9.0, 8.0, 12.0, 11.0, 14.0, 21.0, 15.0, 15.0, 14.0, 12.0, 19.0, 7.0, 11.0, 12.0, 5.0, 8.0, 5.0, 7.0, 8.0, 6.0, 4.0, 5.0, 12.0, 7.0, 11.0, 11.0, 14.0, 15.0, 21.0, 21.0, 18.0, 14.0, 13.0, 11.0, 11.0, 7.0, 15.0, 4.0, 1.0, 5.0, 3.0, 3.0, 6.0, 2.0, 5.0, 0.0, 0.0, 1.0, 1.0, 0.0, 2.0], "bins": [-0.03140367940068245, -0.030418027192354202, -0.029432374984025955, -0.028446724638342857, -0.02746107243001461, -0.026475420221686363, -0.025489769876003265, -0.02450411766767502, -0.02351846545934677, -0.022532813251018524, -0.021547161042690277, -0.02056151069700718, -0.019575858488678932, -0.018590206280350685, -0.017604555934667587, -0.01661890372633934, -0.015633251518011093, -0.014647599309682846, -0.013661948032677174, -0.012676296755671501, -0.011690644547343254, -0.010704992339015007, -0.009719341062009335, -0.008733689785003662, -0.007748037576675415, -0.006762385834008455, -0.0057767340913414955, -0.004791082348674536, -0.003805430606007576, -0.0028197788633406162, -0.0018341271206736565, -0.0008484753780066967, 0.00013717636466026306, 0.0011228281073272228, 0.0021084798499941826, 0.0030941315926611423, 0.004079783335328102, 0.005065435077995062, 0.006051086820662022, 0.007036738563328981, 0.008022390305995941, 0.009008042514324188, 0.00999369379132986, 0.010979345068335533, 0.01196499727666378, 0.012950649484992027, 0.0139363007619977, 0.014921952039003372, 0.01590760424733162, 0.016893256455659866, 0.017878908663988113, 0.01886455900967121, 0.01985021121799946, 0.020835863426327705, 0.021821513772010803, 0.02280716598033905, 0.023792818188667297, 0.024778470396995544, 0.02576412260532379, 0.02674977295100689, 0.027735425159335136, 0.028721077367663383, 0.02970672771334648, 0.03069237992167473, 0.031678032130002975]}, "parameters/fc2.weight": {"_type": "histogram", "values": [477.0, 492.0, 497.0, 507.0, 534.0, 480.0, 513.0, 766.0, 1117.0, 1145.0, 1465.0, 1651.0, 1620.0, 1609.0, 1617.0, 1605.0, 1601.0, 1648.0, 2080.0, 2246.0, 2157.0, 2194.0, 2312.0, 2218.0, 2196.0, 2186.0, 2133.0, 2208.0, 2166.0, 2221.0, 2126.0, 2217.0, 2166.0, 2274.0, 2173.0, 2210.0, 2258.0, 2126.0, 2201.0, 2220.0, 2153.0, 2205.0, 2296.0, 2228.0, 2205.0, 2199.0, 1705.0, 1633.0, 1640.0, 1670.0, 1673.0, 1580.0, 1567.0, 1460.0, 1064.0, 1040.0, 676.0, 475.0, 468.0, 484.0, 487.0, 487.0, 502.0, 471.0], "bins": [-0.06216070055961609, -0.06021836772561073, -0.058276038616895676, -0.05633370578289032, -0.05439137667417526, -0.05244904384016991, -0.05050671100616455, -0.04856438189744949, -0.046622052788734436, -0.04467971995472908, -0.04273739084601402, -0.04079505801200867, -0.03885272890329361, -0.036910396069288254, -0.0349680632352829, -0.03302573412656784, -0.031083401292562485, -0.029141070321202278, -0.02719873934984207, -0.025256406515836716, -0.02331407740712166, -0.021371744573116302, -0.019429413601756096, -0.01748708263039589, -0.015544749796390533, -0.013602418825030327, -0.01166008785367012, -0.009717755950987339, -0.007775424979627132, -0.005833094008266926, -0.0038907621055841446, -0.001948431134223938, -6.102025508880615e-06, 0.0019362291786819696, 0.00387856038287282, 0.005820891819894314, 0.00776322279125452, 0.009705553762614727, 0.011647885665297508, 0.013590216636657715, 0.015532545745372772, 0.01747487671673298, 0.019417207688093185, 0.02135954052209854, 0.0233018696308136, 0.025244202464818954, 0.02718653343617916, 0.029128864407539368, 0.031071197241544724, 0.03301353007555008, 0.03495585918426514, 0.03689819201827049, 0.03884052112698555, 0.040782853960990906, 0.04272518306970596, 0.04466751590371132, 0.046609848737716675, 0.04855218157172203, 0.05049451068043709, 0.052436843514442444, 0.0543791726231575, 0.05632150545716286, 0.05826383829116821, 0.06020616739988327, 0.06214849650859833]}, "parameters/fc2.bias": {"_type": "histogram", "values": [1.0, 2.0, 2.0, 2.0, 2.0, 4.0, 6.0, 4.0, 1.0, 1.0, 3.0, 0.0, 4.0, 6.0, 3.0, 4.0, 6.0, 4.0, 2.0, 7.0, 2.0, 8.0, 6.0, 3.0, 4.0, 6.0, 3.0, 4.0, 5.0, 3.0, 5.0, 3.0, 3.0, 3.0, 4.0, 3.0, 4.0, 5.0, 3.0, 3.0, 3.0, 3.0, 6.0, 2.0, 1.0, 5.0, 4.0, 4.0, 4.0, 3.0, 1.0, 1.0, 5.0, 1.0, 3.0, 0.0, 0.0, 1.0, 2.0, 0.0, 2.0, 4.0, 0.0, 1.0], "bins": [-0.05296291410923004, -0.05129555985331535, -0.04962820187211037, -0.04796084761619568, -0.04629348963499069, -0.044626135379076004, -0.042958781123161316, -0.04129142314195633, -0.03962406516075134, -0.037956710904836655, -0.03628935292363167, -0.03462199866771698, -0.03295464068651199, -0.031287286430597305, -0.029619930312037468, -0.02795257419347763, -0.026285219937562943, -0.024617863819003105, -0.022950507700443268, -0.02128315344452858, -0.019615795463323593, -0.017948441207408905, -0.016281085088849068, -0.01461372897028923, -0.012946374714374542, -0.011279018595814705, -0.009611662477254868, -0.007944307290017605, -0.0062769511714577675, -0.00460959505289793, -0.0029422398656606674, -0.00127488374710083, 0.0003924742341041565, 0.00205983011983335, 0.003727186005562544, 0.005394541658461094, 0.007061897777020931, 0.008729253895580769, 0.010396609082818031, 0.012063965201377869, 0.013731323182582855, 0.015398679301142693, 0.01706603541970253, 0.018733389675617218, 0.020400747656822205, 0.022068101912736893, 0.02373545803129673, 0.025402814149856567, 0.027070168405771255, 0.028737524524331093, 0.03040488064289093, 0.03207223489880562, 0.033739592880010605, 0.03540694713592529, 0.03707430511713028, 0.03874165937304497, 0.040409013628959656, 0.042076367884874344, 0.04374372586607933, 0.04541108012199402, 0.047078438103199005, 0.04874579235911369, 0.05041314661502838, 0.05208050459623337, 0.053747862577438354]}, "parameters/fc3.weight": {"_type": "histogram", "values": [1.0, 0.0, 3.0, 6.0, 3.0, 4.0, 5.0, 2.0, 3.0, 7.0, 5.0, 6.0, 2.0, 8.0, 4.0, 5.0, 13.0, 7.0, 8.0, 5.0, 5.0, 8.0, 7.0, 12.0, 8.0, 8.0, 7.0, 12.0, 4.0, 12.0, 9.0, 8.0, 8.0, 10.0, 6.0, 7.0, 2.0, 5.0, 8.0, 15.0, 2.0, 9.0, 15.0, 5.0, 7.0, 10.0, 10.0, 10.0, 15.0, 9.0, 7.0, 6.0, 8.0, 7.0, 4.0, 5.0, 2.0, 6.0, 1.0, 2.0, 0.0, 1.0, 0.0, 1.0], "bins": [-0.08007863909006119, -0.07745185494422913, -0.07482507824897766, -0.0721982941031456, -0.06957150995731354, -0.06694473326206207, -0.06431794911623001, -0.06169116869568825, -0.059064388275146484, -0.05643760785460472, -0.05381082743406296, -0.051184043288230896, -0.04855726286768913, -0.04593048244714737, -0.04330369830131531, -0.040676917880773544, -0.03805013746023178, -0.03542335703969002, -0.032796576619148254, -0.030169792473316193, -0.02754301205277443, -0.024916231632232666, -0.022289449349045753, -0.01966266706585884, -0.017035886645317078, -0.01440910529345274, -0.011782323941588402, -0.009155542589724064, -0.006528761237859726, -0.003901979885995388, -0.0012751985341310501, 0.0013515837490558624, 0.003978364169597626, 0.006605145521461964, 0.009231926873326302, 0.01185870822519064, 0.014485489577054977, 0.01711226999759674, 0.019739052280783653, 0.022365834563970566, 0.02499261498451233, 0.027619395405054092, 0.030246177688241005, 0.03287295997142792, 0.03549974039196968, 0.038126520812511444, 0.040753304958343506, 0.04338008537888527, 0.04600686579942703, 0.048633646219968796, 0.05126042664051056, 0.05388721078634262, 0.056513991206884384, 0.05914077162742615, 0.06176755577325821, 0.06439433991909027, 0.06702111661434174, 0.0696479007601738, 0.07227467745542526, 0.07490146160125732, 0.07752823829650879, 0.08015502244234085, 0.08278180658817291, 0.08540858328342438, 0.08803536742925644]}, "parameters/fc3.bias": {"_type": "histogram", "values": [1.0, 0.0, 0.0, 0.0, 0.0, 0.0, 0.0, 0.0, 0.0, 0.0, 0.0, 0.0, 0.0, 0.0, 0.0, 0.0, 0.0, 0.0, 0.0, 0.0, 0.0, 0.0, 0.0, 0.0, 0.0, 0.0, 0.0, 0.0, 0.0, 0.0, 0.0, 0.0, 0.0, 0.0, 0.0, 0.0, 0.0, 0.0, 0.0, 0.0, 0.0, 0.0, 0.0, 0.0, 0.0, 0.0, 0.0, 0.0, 0.0, 0.0, 0.0, 0.0, 0.0, 0.0, 0.0, 0.0, 0.0, 0.0, 0.0, 0.0, 0.0, 0.0, 0.0, 1.0], "bins": [-0.034675199538469315, -0.03390323370695114, -0.03313127160072327, -0.03235930576920509, -0.03158733993768692, -0.030815377831459045, -0.030043411999940872, -0.029271448031067848, -0.028499484062194824, -0.0277275200933218, -0.026955556124448776, -0.026183590292930603, -0.02541162632405758, -0.024639662355184555, -0.023867696523666382, -0.023095732554793358, -0.022323768585920334, -0.02155180461704731, -0.020779840648174286, -0.020007874816656113, -0.01923591084778309, -0.018463946878910065, -0.01769198104739189, -0.016920017078518867, -0.016148053109645844, -0.01537608914077282, -0.014604124240577221, -0.013832159340381622, -0.013060195371508598, -0.012288231402635574, -0.011516266502439976, -0.010744301602244377, -0.009972337633371353, -0.00920037366449833, -0.00842840876430273, -0.007656444329768419, -0.006884479895234108, -0.006112515460699797, -0.005340551026165485, -0.004568586591631174, -0.003796622157096863, -0.0030246577225625515, -0.00225269328802824, -0.001480728853493929, -0.0007087644189596176, 6.320001557469368e-05, 0.000835164450109005, 0.0016071288846433163, 0.0023790933191776276, 0.003151057753711939, 0.00392302218824625, 0.0046949866227805614, 0.005466951057314873, 0.006238915491849184, 0.007010879926383495, 0.007782844360917807, 0.008554808795452118, 0.009326772764325142, 0.01009873766452074, 0.010870702564716339, 0.011642666533589363, 0.012414630502462387, 0.013186595402657986, 0.013958560302853584, 0.014730524271726608]}, "gradients/fc3.bias": {"_type": "histogram", "values": [1.0, 0.0, 0.0, 0.0, 0.0, 0.0, 0.0, 0.0, 0.0, 0.0, 0.0, 0.0, 0.0, 0.0, 0.0, 0.0, 0.0, 0.0, 0.0, 0.0, 0.0, 0.0, 0.0, 0.0, 0.0, 0.0, 0.0, 0.0, 0.0, 0.0, 0.0, 0.0, 0.0, 0.0, 0.0, 0.0, 0.0, 0.0, 0.0, 0.0, 0.0, 0.0, 0.0, 0.0, 0.0, 0.0, 0.0, 0.0, 0.0, 0.0, 0.0, 0.0, 0.0, 0.0, 0.0, 0.0, 0.0, 0.0, 0.0, 0.0, 0.0, 0.0, 0.0, 1.0], "bins": [-0.765625, -0.74169921875, -0.7177734375, -0.69384765625, -0.669921875, -0.64599609375, -0.6220703125, -0.59814453125, -0.57421875, -0.55029296875, -0.5263671875, -0.50244140625, -0.478515625, -0.45458984375, -0.4306640625, -0.40673828125, -0.3828125, -0.35888671875, -0.3349609375, -0.31103515625, -0.287109375, -0.26318359375, -0.2392578125, -0.21533203125, -0.19140625, -0.16748046875, -0.1435546875, -0.11962890625, -0.095703125, -0.07177734375, -0.0478515625, -0.02392578125, 0.0, 0.02392578125, 0.0478515625, 0.07177734375, 0.095703125, 0.11962890625, 0.1435546875, 0.16748046875, 0.19140625, 0.21533203125, 0.2392578125, 0.26318359375, 0.287109375, 0.31103515625, 0.3349609375, 0.35888671875, 0.3828125, 0.40673828125, 0.4306640625, 0.45458984375, 0.478515625, 0.50244140625, 0.5263671875, 0.55029296875, 0.57421875, 0.59814453125, 0.6220703125, 0.64599609375, 0.669921875, 0.69384765625, 0.7177734375, 0.74169921875, 0.765625]}, "gradients/fc3.weight": {"_type": "histogram", "values": [4.0, 7.0, 10.0, 22.0, 30.0, 28.0, 20.0, 17.0, 11.0, 19.0, 7.0, 8.0, 7.0, 4.0, 2.0, 2.0, 1.0, 1.0, 0.0, 0.0, 0.0, 0.0, 0.0, 0.0, 0.0, 0.0, 0.0, 0.0, 0.0, 0.0, 0.0, 0.0, 0.0, 0.0, 0.0, 0.0, 0.0, 0.0, 0.0, 0.0, 0.0, 0.0, 0.0, 0.0, 0.0, 0.0, 1.0, 1.0, 2.0, 2.0, 4.0, 7.0, 8.0, 7.0, 19.0, 11.0, 17.0, 20.0, 28.0, 30.0, 22.0, 10.0, 7.0, 4.0], "bins": [-37.11215591430664, -35.95240020751953, -34.79264450073242, -33.63289260864258, -32.47313690185547, -31.31338119506836, -30.15362548828125, -28.993871688842773, -27.834117889404297, -26.674362182617188, -25.51460838317871, -24.3548526763916, -23.195098876953125, -22.035343170166016, -20.875587463378906, -19.71583366394043, -18.55607795715332, -17.39632225036621, -16.236568450927734, -15.076812744140625, -13.917058944702148, -12.757303237915039, -11.597548484802246, -10.437793731689453, -9.278038024902344, -8.11828327178955, -6.958528518676758, -5.798773288726807, -4.639018535614014, -3.4792637825012207, -2.3195085525512695, -1.1597537994384766, 0.0, 1.1597548723220825, 2.319509744644165, 3.479264736175537, 4.63901948928833, 5.798774242401123, 6.958529472351074, 8.118284225463867, 9.278038024902344, 10.437792778015137, 11.59754753112793, 12.757303237915039, 13.917057037353516, 15.076812744140625, 16.236568450927734, 17.39632225036621, 18.55607795715332, 19.71583366394043, 20.875587463378906, 22.035343170166016, 23.195096969604492, 24.3548526763916, 25.514606475830078, 26.674362182617188, 27.834117889404297, 28.993873596191406, 30.153627395629883, 31.313383102416992, 32.47313690185547, 33.63289260864258, 34.79264831542969, 35.95240020751953, 37.11215591430664]}, "gradients/fc2.bias": {"_type": "histogram", "values": [1.0, 0.0, 0.0, 0.0, 2.0, 1.0, 2.0, 0.0, 0.0, 0.0, 0.0, 2.0, 2.0, 0.0, 1.0, 2.0, 1.0, 4.0, 5.0, 3.0, 3.0, 3.0, 0.0, 4.0, 6.0, 4.0, 6.0, 2.0, 8.0, 4.0, 10.0, 5.0, 7.0, 8.0, 4.0, 5.0, 11.0, 5.0, 5.0, 11.0, 8.0, 5.0, 8.0, 7.0, 6.0, 3.0, 2.0, 2.0, 3.0, 1.0, 3.0, 3.0, 1.0, 1.0, 2.0, 1.0, 0.0, 0.0, 1.0, 1.0, 1.0, 2.0, 0.0, 2.0], "bins": [-0.10824823379516602, -0.10502443462610245, -0.10180062800645828, -0.09857682883739471, -0.09535302966833115, -0.09212923049926758, -0.08890542387962341, -0.08568162471055984, -0.08245782554149628, -0.07923402637243271, -0.07601021975278854, -0.07278642058372498, -0.06956262141466141, -0.06633882224559784, -0.06311501562595367, -0.059891216456890106, -0.05666740983724594, -0.053443606942892075, -0.050219807773828506, -0.04699600487947464, -0.04377220571041107, -0.040548402816057205, -0.03732459992170334, -0.03410080075263977, -0.030876994132995605, -0.027653193101286888, -0.02442939206957817, -0.021205589175224304, -0.017981788143515587, -0.01475798711180687, -0.011534184217453003, -0.008310383185744286, -0.005086585879325867, -0.001862784381955862, 0.0013610171154141426, 0.004584819078445435, 0.007808620110154152, 0.01103242114186287, 0.014256224036216736, 0.017480025067925453, 0.020703822374343872, 0.02392762340605259, 0.027151424437761307, 0.030375227332115173, 0.03359902650117874, 0.03682282939553261, 0.040046632289886475, 0.04327043145895004, 0.04649423807859421, 0.049718040972948074, 0.05294184014201164, 0.05616564303636551, 0.05938944220542908, 0.06261324882507324, 0.06583704799413681, 0.06906084716320038, 0.07228465378284454, 0.07550845295190811, 0.07873225957155228, 0.08195605874061584, 0.08517985790967941, 0.08840365707874298, 0.09162746369838715, 0.09485126286745071, 0.09807506203651428]}, "gradients/fc2.weight": {"_type": "histogram", "values": [7.0, 14.0, 38.0, 55.0, 71.0, 152.0, 226.0, 276.0, 277.0, 237.0, 204.0, 232.0, 423.0, 599.0, 652.0, 806.0, 926.0, 1001.0, 1286.0, 1313.0, 1629.0, 1789.0, 2592.0, 3031.0, 2638.0, 4328.0, 4295.0, 4837.0, 4921.0, 5290.0, 4245.0, 5082.0, 4344.0, 4974.0, 5005.0, 4708.0, 4239.0, 3625.0, 2518.0, 3061.0, 2326.0, 1697.0, 1538.0, 1383.0, 1218.0, 949.0, 905.0, 753.0, 636.0, 545.0, 388.0, 190.0, 230.0, 241.0, 285.0, 254.0, 201.0, 148.0, 73.0, 37.0, 34.0, 12.0, 9.0, 2.0], "bins": [-1.037527322769165, -1.0044680833816528, -0.9714089035987854, -0.938349723815918, -0.9052905440330505, -0.8722313642501831, -0.8391721248626709, -0.8061129450798035, -0.773053765296936, -0.7399945855140686, -0.7069353461265564, -0.673876166343689, -0.6408169865608215, -0.6077578067779541, -0.5746985673904419, -0.5416393876075745, -0.5085801482200623, -0.47552093863487244, -0.442461758852005, -0.4094025492668152, -0.37634336948394775, -0.34328415989875793, -0.3102249503135681, -0.2771657705307007, -0.24410653114318848, -0.21104733645915985, -0.17798814177513123, -0.1449289321899414, -0.11186973750591278, -0.07881054282188416, -0.045751333236694336, -0.01269213855266571, 0.020367026329040527, 0.05342622473835945, 0.08648542314767838, 0.1195446252822876, 0.15260381996631622, 0.18566301465034485, 0.21872222423553467, 0.2517814040184021, 0.28484058380126953, 0.31789979338645935, 0.3509589731693268, 0.3840181827545166, 0.41707736253738403, 0.45013657212257385, 0.48319578170776367, 0.5162549614906311, 0.5493142008781433, 0.5823733806610107, 0.615432620048523, 0.6484917998313904, 0.6815509796142578, 0.71461021900177, 0.7476693987846375, 0.7807285785675049, 0.8137878179550171, 0.8468469977378845, 0.8799062371253967, 0.9129654169082642, 0.9460245966911316, 0.979083776473999, 1.0121430158615112, 1.0452022552490234, 1.078261375427246]}, "gradients/fc1.bias": {"_type": "histogram", "values": [1.0, 1.0, 1.0, 9.0, 12.0, 19.0, 15.0, 18.0, 11.0, 11.0, 12.0, 8.0, 3.0, 3.0, 1.0, 3.0, 3.0, 1.0, 0.0, 0.0, 1.0, 3.0, 2.0, 5.0, 6.0, 10.0, 20.0, 11.0, 14.0, 16.0, 21.0, 16.0, 9.0, 16.0, 15.0, 13.0, 16.0, 18.0, 15.0, 10.0, 9.0, 3.0, 2.0, 5.0, 2.0, 1.0, 0.0, 2.0, 1.0, 0.0, 1.0, 0.0, 1.0, 1.0, 2.0, 12.0, 14.0, 19.0, 12.0, 14.0, 11.0, 8.0, 5.0, 6.0], "bins": [-0.10962271690368652, -0.10633037239313126, -0.10303802788257599, -0.09974569082260132, -0.09645334631204605, -0.09316100180149078, -0.08986866474151611, -0.08657632023096085, -0.08328397572040558, -0.07999163120985031, -0.07669928669929504, -0.07340694963932037, -0.0701146051287651, -0.06682226061820984, -0.06352992355823517, -0.0602375790476799, -0.056945234537124634, -0.053652890026569366, -0.0503605492413044, -0.04706820845603943, -0.04377586394548416, -0.040483519434928894, -0.037191178649663925, -0.033898837864398956, -0.03060649335384369, -0.02731415070593357, -0.024021808058023453, -0.020729465410113335, -0.017437122762203217, -0.014144780114293098, -0.01085243746638298, -0.007560094818472862, -0.004267759621143341, -0.000975416973233223, 0.002316925674676895, 0.005609268322587013, 0.008901610970497131, 0.01219395361840725, 0.015486296266317368, 0.018778638914227486, 0.022070981562137604, 0.025363324210047722, 0.02865566685795784, 0.03194800764322281, 0.035240352153778076, 0.038532696664333344, 0.04182503744959831, 0.04511737823486328, 0.04840972274541855, 0.051702067255973816, 0.054994408041238785, 0.058286748826503754, 0.06157909333705902, 0.06487143784761429, 0.06816378235816956, 0.07145611941814423, 0.0747484639286995, 0.07804080843925476, 0.08133314549922943, 0.0846254900097847, 0.08791783452033997, 0.09121017903089523, 0.0945025235414505, 0.09779486060142517, 0.10108720511198044]}, "gradients/fc1.weight": {"_type": "histogram", "values": [1.0, 7.0, 2.0, 20.0, 68.0, 99.0, 164.0, 236.0, 321.0, 395.0, 390.0, 415.0, 320.0, 290.0, 250.0, 408.0, 877.0, 2052.0, 3837.0, 5825.0, 7091.0, 6665.0, 4835.0, 2779.0, 1548.0, 983.0, 797.0, 1548.0, 2902.0, 6857.0, 8578.0, 19004.0, 94649.0, 2924540.0, 45567.0, 11693.0, 5725.0, 2633.0, 1806.0, 935.0, 576.0, 509.0, 1155.0, 3457.0, 5900.0, 6554.0, 5488.0, 3541.0, 1935.0, 813.0, 324.0, 213.0, 269.0, 329.0, 400.0, 366.0, 327.0, 257.0, 204.0, 118.0, 78.0, 35.0, 34.0, 6.0], "bins": [-0.7665629386901855, -0.7435404658317566, -0.7205179929733276, -0.6974954605102539, -0.674472987651825, -0.651450514793396, -0.6284279823303223, -0.6054055094718933, -0.5823830366134644, -0.5593605637550354, -0.5363380908966064, -0.5133155584335327, -0.49029308557510376, -0.4672706127166748, -0.44424811005592346, -0.4212256073951721, -0.39820313453674316, -0.3751806616783142, -0.35215815901756287, -0.3291356563568115, -0.30611318349838257, -0.2830907106399536, -0.26006820797920227, -0.23704572021961212, -0.21402323246002197, -0.19100074470043182, -0.16797825694084167, -0.14495576918125153, -0.12193328142166138, -0.09891079366207123, -0.07588830590248108, -0.05286581814289093, -0.02984333038330078, -0.006820842623710632, 0.016201645135879517, 0.039224132895469666, 0.062246620655059814, 0.08526910841464996, 0.10829159617424011, 0.13131408393383026, 0.1543365716934204, 0.17735905945301056, 0.2003815472126007, 0.22340403497219086, 0.246426522731781, 0.26944899559020996, 0.2924714982509613, 0.31549400091171265, 0.3385164737701416, 0.36153894662857056, 0.3845614492893219, 0.40758395195007324, 0.4306064248085022, 0.45362889766693115, 0.4766514003276825, 0.49967390298843384, 0.5226963758468628, 0.5457188487052917, 0.5687413215637207, 0.5917638540267944, 0.6147863268852234, 0.6378087997436523, 0.6608313322067261, 0.683853805065155, 0.706876277923584]}, "gradients/conv4.weight": {"_type": "histogram", "values": [776600.0, 8370.0, 6342.0, 2875.0, 2622.0, 2225.0, 2746.0, 2076.0, 3045.0, 2515.0, 1336.0, 1066.0, 450.0, 968.0, 1234.0, 2139.0, 616.0, 24.0, 1.0, 0.0, 5.0, 170.0, 69.0, 65.0, 42.0, 38.0, 11.0, 25.0, 0.0, 0.0, 6.0, 16.0, 25.0, 161.0, 79.0, 35.0, 88.0, 64.0, 48.0, 144.0, 253.0, 5.0, 1.0, 0.0, 0.0, 0.0, 0.0, 5.0, 10.0, 7.0, 11.0, 8.0, 16.0, 18.0, 13.0, 22.0, 30.0, 33.0, 21.0, 21.0, 24.0, 100.0, 190.0, 71.0], "bins": [-0.2681673765182495, 0.1608830988407135, 0.5899335741996765, 1.018984079360962, 1.4480345249176025, 1.8770850896835327, 2.306135654449463, 2.7351861000061035, 3.164236545562744, 3.5932869911193848, 4.022337436676025, 4.451387882232666, 4.880438327789307, 5.3094892501831055, 5.738539695739746, 6.167590141296387, 6.596640110015869, 7.02569055557251, 7.45474100112915, 7.883791446685791, 8.31284236907959, 8.74189281463623, 9.170943260192871, 9.599993705749512, 10.029044151306152, 10.458094596862793, 10.887145042419434, 11.316195487976074, 11.745245933532715, 12.174296379089355, 12.603346824645996, 13.032397270202637, 13.461447715759277, 13.890498161315918, 14.319548606872559, 14.7485990524292, 15.17764949798584, 15.60669994354248, 16.035751342773438, 16.464801788330078, 16.89385223388672, 17.32290267944336, 17.751953125, 18.18100357055664, 18.61005401611328, 19.039104461669922, 19.468154907226562, 19.897205352783203, 20.326255798339844, 20.755306243896484, 21.184356689453125, 21.613407135009766, 22.042457580566406, 22.471508026123047, 22.900558471679688, 23.329608917236328, 23.75865936279297, 24.18770980834961, 24.61676025390625, 25.04581069946289, 25.47486114501953, 25.903911590576172, 26.332962036132812, 26.762012481689453, 27.191062927246094]}, "gradients/conv4.bias": {"_type": "histogram", "values": [203.0, 2.0, 1.0, 0.0, 1.0, 1.0, 2.0, 2.0, 0.0, 1.0, 0.0, 0.0, 0.0, 0.0, 0.0, 2.0, 0.0, 0.0, 0.0, 0.0, 0.0, 0.0, 1.0, 1.0, 0.0, 0.0, 1.0, 1.0, 0.0, 0.0, 0.0, 1.0, 0.0, 5.0, 3.0, 0.0, 1.0, 2.0, 1.0, 0.0, 0.0, 0.0, 0.0, 0.0, 0.0, 0.0, 0.0, 1.0, 0.0, 0.0, 0.0, 1.0, 1.0, 0.0, 0.0, 1.0, 1.0, 2.0, 0.0, 1.0, 0.0, 1.0, 3.0, 12.0], "bins": [-0.07640613615512848, 0.05681721866130829, 0.19004057347774506, 0.323263943195343, 0.4564872980117798, 0.5897106528282166, 0.7229340076446533, 0.8561573624610901, 0.9893807172775269, 1.1226041316986084, 1.2558274269104004, 1.3890507221221924, 1.522274136543274, 1.6554975509643555, 1.7887208461761475, 1.9219441413879395, 2.0551674365997314, 2.1883907318115234, 2.3216142654418945, 2.4548375606536865, 2.5880608558654785, 2.7212841510772705, 2.8545074462890625, 2.9877309799194336, 3.1209542751312256, 3.2541775703430176, 3.3874011039733887, 3.5206243991851807, 3.6538476943969727, 3.7870709896087646, 3.9202942848205566, 4.053517818450928, 4.186740875244141, 4.319964408874512, 4.453187465667725, 4.586410999298096, 4.719634056091309, 4.85285758972168, 4.986081123352051, 5.119304180145264, 5.252527713775635, 5.385751247406006, 5.518974304199219, 5.65219783782959, 5.785421371459961, 5.918644428253174, 6.051867961883545, 6.185091018676758, 6.318314552307129, 6.4515380859375, 6.584761142730713, 6.717984676361084, 6.851207733154297, 6.984431266784668, 7.117654800415039, 7.250877857208252, 7.384101390838623, 7.517324924468994, 7.650547981262207, 7.783771514892578, 7.916995048522949, 8.05021858215332, 8.183441162109375, 8.316664695739746, 8.449888229370117]}, "gradients/conv3.weight": {"_type": "histogram", "values": [25.0, 0.0, 0.0, 25.0, 25.0, 75.0, 25.0, 25.0, 4.0, 121.0, 150.0, 25.0, 111.0, 146.0, 27.0, 87.0, 4.0, 75.0, 150.0, 121.0, 27.0, 27.0, 25.0, 54.0, 216.0, 505.0, 178488.0, 1509.0, 1244.0, 1492.0, 1436.0, 2702.0, 1715.0, 1048.0, 1009.0, 1679.0, 1719.0, 2701.0, 1025.0, 1138.0, 1308.0, 727.0, 344.0, 444.0, 349.0, 163.0, 133.0, 59.0, 43.0, 8.0, 66.0, 2.0, 23.0, 29.0, 26.0, 40.0, 6.0, 0.0, 17.0, 8.0, 0.0, 0.0, 6.0, 19.0], "bins": [-29.261585235595703, -28.13968849182129, -27.017791748046875, -25.89589500427246, -24.773998260498047, -23.652103424072266, -22.53020668029785, -21.408309936523438, -20.286413192749023, -19.16451644897461, -18.042619705200195, -16.92072296142578, -15.798827171325684, -14.67693042755127, -13.555034637451172, -12.433137893676758, -11.311241149902344, -10.18934440612793, -9.067447662353516, -7.945551872253418, -6.823655128479004, -5.70175838470459, -4.579862117767334, -3.457965850830078, -2.336069107055664, -1.214172601699829, -0.09227609634399414, 1.0296204090118408, 2.151516914367676, 3.27341365814209, 4.395309925079346, 5.517206192016602, 6.639102935791016, 7.76099967956543, 8.882896423339844, 10.004792213439941, 11.126688957214355, 12.24858570098877, 13.370481491088867, 14.492378234863281, 15.614274978637695, 16.73617172241211, 17.858068466186523, 18.979965209960938, 20.10186004638672, 21.223758697509766, 22.345653533935547, 23.46755027770996, 24.589447021484375, 25.71134376525879, 26.833240509033203, 27.955137252807617, 29.07703399658203, 30.198928833007812, 31.320825576782227, 32.44272232055664, 33.56462097167969, 34.68651580810547, 35.808414459228516, 36.9303092956543, 38.052207946777344, 39.174102783203125, 40.29600143432617, 41.41789627075195, 42.539791107177734]}, "gradients/conv3.bias": {"_type": "histogram", "values": [1.0, 0.0, 0.0, 0.0, 1.0, 0.0, 0.0, 0.0, 0.0, 0.0, 0.0, 0.0, 0.0, 0.0, 0.0, 0.0, 0.0, 0.0, 0.0, 0.0, 0.0, 0.0, 0.0, 0.0, 1.0, 88.0, 2.0, 0.0, 0.0, 1.0, 0.0, 2.0, 0.0, 0.0, 1.0, 0.0, 0.0, 0.0, 1.0, 1.0, 2.0, 1.0, 4.0, 11.0, 4.0, 3.0, 2.0, 1.0, 0.0, 0.0, 0.0, 0.0, 0.0, 0.0, 0.0, 0.0, 0.0, 0.0, 0.0, 0.0, 0.0, 0.0, 0.0, 1.0], "bins": [-35.29866027832031, -33.91615295410156, -32.53364944458008, -31.15114402770996, -29.768638610839844, -28.386133193969727, -27.00362777709961, -25.621122360229492, -24.238616943359375, -22.856111526489258, -21.47360610961914, -20.091100692749023, -18.708595275878906, -17.32608985900879, -15.943584442138672, -14.561079025268555, -13.178573608398438, -11.79606819152832, -10.413562774658203, -9.031057357788086, -7.648551940917969, -6.266046524047852, -4.883541107177734, -3.501035690307617, -2.1185302734375, -0.7360248565673828, 0.6464805603027344, 2.0289859771728516, 3.4114913940429688, 4.793996810913086, 6.176502227783203, 7.55900764465332, 8.941516876220703, 10.32402229309082, 11.706527709960938, 13.089033126831055, 14.471538543701172, 15.854043960571289, 17.236549377441406, 18.619054794311523, 20.00156021118164, 21.384065628051758, 22.766571044921875, 24.149076461791992, 25.53158187866211, 26.914087295532227, 28.296592712402344, 29.67909812927246, 31.061603546142578, 32.44410705566406, 33.82661437988281, 35.20912170410156, 36.59162521362305, 37.97412872314453, 39.35663604736328, 40.73914337158203, 42.121646881103516, 43.504150390625, 44.88665771484375, 46.2691650390625, 47.651668548583984, 49.03417205810547, 50.41667938232422, 51.79918670654297, 53.18169021606445]}, "gradients/conv2.weight": {"_type": "histogram", "values": [25.0, 0.0, 7.0, 18.0, 0.0, 25.0, 0.0, 8.0, 17.0, 0.0, 0.0, 0.0, 25.0, 0.0, 25.0, 25.0, 7.0, 18.0, 0.0, 25.0, 0.0, 55.0, 64.0, 56.0, 25.0, 25.0, 46.0, 76.0, 28.0, 27.0, 48.0, 63.0, 101.0, 138.0, 148.0, 100.0, 177.0, 185.0, 346.0, 329.0, 444.0, 287.0, 729.0, 40445.0, 2596.0, 812.0, 425.0, 559.0, 450.0, 567.0, 393.0, 326.0, 56.0, 176.0, 201.0, 65.0, 82.0, 55.0, 78.0, 23.0, 74.0, 70.0, 0.0, 25.0], "bins": [-155.69598388671875, -152.10821533203125, -148.52044677734375, -144.9326934814453, -141.3449249267578, -137.7571563720703, -134.1693878173828, -130.5816192626953, -126.99385833740234, -123.40608978271484, -119.81832885742188, -116.23056030273438, -112.64279174804688, -109.0550308227539, -105.4672622680664, -101.87950134277344, -98.29173278808594, -94.70396423339844, -91.11620330810547, -87.52843475341797, -83.940673828125, -80.3529052734375, -76.76513671875, -73.1773681640625, -69.58960723876953, -66.00183868408203, -62.41407775878906, -58.82630920410156, -55.23854446411133, -51.650779724121094, -48.063011169433594, -44.47524642944336, -40.887481689453125, -37.29971694946289, -33.711952209472656, -30.124183654785156, -26.536418914794922, -22.948654174804688, -19.36088752746582, -15.773120880126953, -12.185356140136719, -8.597590446472168, -5.009824752807617, -1.4220590591430664, 2.1657066345214844, 5.753471374511719, 9.341238021850586, 12.929004669189453, 16.516769409179688, 20.104534149169922, 23.69230079650879, 27.280067443847656, 30.86783218383789, 34.455596923828125, 38.043365478515625, 41.63113021850586, 45.218894958496094, 48.80665969848633, 52.39442443847656, 55.98219299316406, 59.5699577331543, 63.15772247314453, 66.74549102783203, 70.333251953125, 73.9210205078125]}, "gradients/conv2.bias": {"_type": "histogram", "values": [1.0, 0.0, 1.0, 0.0, 0.0, 0.0, 0.0, 0.0, 0.0, 0.0, 0.0, 0.0, 0.0, 0.0, 0.0, 0.0, 0.0, 0.0, 0.0, 0.0, 1.0, 0.0, 1.0, 0.0, 0.0, 0.0, 0.0, 0.0, 0.0, 0.0, 0.0, 0.0, 1.0, 2.0, 1.0, 0.0, 0.0, 1.0, 0.0, 0.0, 0.0, 0.0, 0.0, 37.0, 0.0, 2.0, 2.0, 0.0, 0.0, 0.0, 2.0, 1.0, 2.0, 0.0, 0.0, 2.0, 0.0, 0.0, 0.0, 1.0, 3.0, 2.0, 0.0, 1.0], "bins": [-169.10400390625, -165.26004028320312, -161.4160919189453, -157.57212829589844, -153.72816467285156, -149.8842010498047, -146.04025268554688, -142.1962890625, -138.35232543945312, -134.50836181640625, -130.66441345214844, -126.82044982910156, -122.97648620605469, -119.13253021240234, -115.28857421875, -111.44461059570312, -107.60065460205078, -103.75669860839844, -99.91273498535156, -96.06877899169922, -92.22481536865234, -88.380859375, -84.53689575195312, -80.69293975830078, -76.84898376464844, -73.0050277709961, -69.16106414794922, -65.31710815429688, -61.47314453125, -57.629188537597656, -53.78522872924805, -49.94126892089844, -46.09729766845703, -42.25333786010742, -38.40937805175781, -34.56542205810547, -30.721460342407227, -26.877500534057617, -23.03354263305664, -19.18958282470703, -15.345619201660156, -11.501659393310547, -7.657700538635254, -3.813741683959961, 0.030218124389648438, 3.874177932739258, 7.718135833740234, 11.562095642089844, 15.406051635742188, 19.250011444091797, 23.093971252441406, 26.937929153442383, 30.781888961791992, 34.62584686279297, 38.46980667114258, 42.31376647949219, 46.1577262878418, 50.001686096191406, 53.845645904541016, 57.689605712890625, 61.53356170654297, 65.37752532958984, 69.22148132324219, 73.06544494628906, 76.9094009399414]}, "gradients/conv1.weight": {"_type": "histogram", "values": [25.0, 0.0, 0.0, 2.0, 23.0, 0.0, 0.0, 0.0, 25.0, 0.0, 0.0, 20.0, 55.0, 25.0, 0.0, 9.0, 18.0, 48.0, 0.0, 50.0, 75.0, 1075.0, 35.0, 215.0, 50.0, 28.0, 28.0, 91.0, 28.0, 40.0, 10.0, 75.0, 0.0, 16.0, 9.0, 28.0, 23.0, 24.0, 13.0, 12.0, 25.0, 0.0, 12.0, 13.0, 0.0, 28.0, 27.0, 19.0, 1.0, 0.0, 0.0, 0.0, 0.0, 0.0, 0.0, 0.0, 0.0, 25.0, 0.0, 25.0, 0.0, 0.0, 23.0, 27.0], "bins": [-39.837852478027344, -37.964630126953125, -36.09140396118164, -34.21818161010742, -32.34495544433594, -30.47173309326172, -28.598508834838867, -26.725284576416016, -24.852060317993164, -22.978836059570312, -21.10561180114746, -19.23238754272461, -17.35916519165039, -15.485939979553223, -13.612716674804688, -11.739492416381836, -9.866268157958984, -7.993043899536133, -6.1198201179504395, -4.246596336364746, -2.3733720779418945, -0.500147819519043, 1.3730754852294922, 3.2462997436523438, 5.1195220947265625, 6.992746353149414, 8.865970611572266, 10.7391939163208, 12.612418174743652, 14.485642433166504, 16.35886573791504, 18.23208999633789, 20.105316162109375, 21.978540420532227, 23.851764678955078, 25.724987030029297, 27.59821319580078, 29.471435546875, 31.34465980529785, 33.2178840637207, 35.09111022949219, 36.964332580566406, 38.83755874633789, 40.71078109741211, 42.584007263183594, 44.45722961425781, 46.33045196533203, 48.203678131103516, 50.076900482177734, 51.95012283325195, 53.82334899902344, 55.696571350097656, 57.56979751586914, 59.44301986694336, 61.316246032714844, 63.18946838378906, 65.06269073486328, 66.9359130859375, 68.80913543701172, 70.68236541748047, 72.55558776855469, 74.4288101196289, 76.30203247070312, 78.17526245117188, 80.0484848022461]}, "gradients/conv1.bias": {"_type": "histogram", "values": [1.0, 0.0, 0.0, 1.0, 0.0, 0.0, 0.0, 0.0, 0.0, 0.0, 0.0, 0.0, 1.0, 1.0, 0.0, 0.0, 0.0, 0.0, 0.0, 0.0, 1.0, 14.0, 1.0, 1.0, 1.0, 1.0, 0.0, 1.0, 1.0, 0.0, 0.0, 2.0, 0.0, 0.0, 0.0, 0.0, 0.0, 0.0, 0.0, 0.0, 1.0, 0.0, 0.0, 0.0, 0.0, 0.0, 0.0, 0.0, 0.0, 0.0, 0.0, 0.0, 0.0, 0.0, 0.0, 0.0, 0.0, 1.0, 0.0, 1.0, 0.0, 1.0, 0.0, 1.0], "bins": [-44.068119049072266, -41.99364471435547, -39.91917419433594, -37.844703674316406, -35.77022933959961, -33.69575500488281, -31.62128448486328, -29.546812057495117, -27.472339630126953, -25.39786720275879, -23.323394775390625, -21.24892234802246, -19.174449920654297, -17.099977493286133, -15.025505065917969, -12.951032638549805, -10.87656021118164, -8.802087783813477, -6.7276153564453125, -4.653142929077148, -2.5786705017089844, -0.5041980743408203, 1.5702743530273438, 3.644746780395508, 5.719219207763672, 7.793691635131836, 9.8681640625, 11.942636489868164, 14.017108917236328, 16.091581344604492, 18.166053771972656, 20.24052619934082, 22.31499481201172, 24.389467239379883, 26.463939666748047, 28.53841209411621, 30.612884521484375, 32.687355041503906, 34.7618293762207, 36.8363037109375, 38.91077423095703, 40.98524475097656, 43.05971908569336, 45.134193420410156, 47.20866394042969, 49.28313446044922, 51.357608795166016, 53.43208312988281, 55.506553649902344, 57.581024169921875, 59.65549850463867, 61.72997283935547, 63.804443359375, 65.87891387939453, 67.95338439941406, 70.02786254882812, 72.10233306884766, 74.17680358886719, 76.25128173828125, 78.32575225830078, 80.40022277832031, 82.47469329833984, 84.54916381835938, 86.62364196777344, 88.69811248779297]}, "train_acc": 0.05598320503848846, "train_loss": 8220.394522726536}