{"parameters/fc1.weight": {"_type": "histogram", "values": [2.0, 0.0, 1.0, 1.0, 0.0, 0.0, 2.0, 2.0, 2.0, 2.0, 3.0, 0.0, 1.0, 5.0, 4.0, 1.0, 3.0, 5.0, 4.0, 3.0, 3.0, 1.0, 7.0, 1.0, 6.0, 12.0, 10.0, 10.0, 4.0, 14.0, 9.0, 13.0, 137.0, 7.0, 13.0, 7.0, 6.0, 16.0, 9.0, 7.0, 6.0, 8.0, 7.0, 10.0, 1.0, 9.0, 6.0, 8.0, 4.0, 5.0, 6.0, 3.0, 2.0, 1.0, 1.0, 0.0, 0.0, 1.0, 1.0, 0.0, 1.0, 1.0, 1.0, 1.0], "bins": [-0.7670201659202576, -0.7430911064147949, -0.7191620469093323, -0.6952329874038696, -0.671303927898407, -0.6473748683929443, -0.6234458684921265, -0.599516749382019, -0.5755877494812012, -0.5516586899757385, -0.5277296304702759, -0.5038005709648132, -0.4798715114593506, -0.45594245195388794, -0.4320134222507477, -0.40808436274528503, -0.3841552734375, -0.36022621393203735, -0.3362971544265747, -0.31236809492111206, -0.2884390354156494, -0.26450997591018677, -0.2405809462070465, -0.21665188670158386, -0.1927228569984436, -0.16879379749298096, -0.1448647379875183, -0.12093569338321686, -0.09700663387775421, -0.07307757437229156, -0.04914852976799011, -0.025219470262527466, -0.0012903809547424316, 0.022638674825429916, 0.046567730605602264, 0.07049678266048431, 0.09442584216594696, 0.1183549016714096, 0.14228394627571106, 0.1662130057811737, 0.19014209508895874, 0.2140711545944214, 0.23800021409988403, 0.2619292736053467, 0.2858583331108093, 0.309787392616272, 0.33371642231941223, 0.3576454818248749, 0.38157451152801514, 0.4055035710334778, 0.42943263053894043, 0.4533616900444031, 0.4772907495498657, 0.5012198090553284, 0.525148868560791, 0.5490778684616089, 0.5730069875717163, 0.596936047077179, 0.6208651065826416, 0.6447941660881042, 0.6687232255935669, 0.6926522850990295, 0.7165813446044922, 0.7405103445053101, 0.7644394040107727]}, "parameters/fc1.bias": {"_type": "histogram", "values": [1.0, 0.0, 0.0, 0.0, 0.0, 0.0, 0.0, 0.0, 0.0, 0.0, 0.0, 0.0, 0.0, 0.0, 0.0, 0.0, 0.0, 0.0, 0.0, 0.0, 0.0, 3.0, 0.0, 0.0, 0.0, 0.0, 0.0, 1.0, 1.0, 0.0, 0.0, 0.0, 1.0, 0.0, 0.0, 0.0, 1.0, 0.0, 0.0, 1.0, 0.0, 0.0, 0.0, 0.0, 0.0, 0.0, 1.0, 0.0, 0.0, 0.0, 0.0, 0.0, 0.0, 0.0, 0.0, 0.0, 0.0, 1.0, 0.0, 0.0, 0.0, 0.0, 0.0, 5.0], "bins": [-0.9472420811653137, -0.9324414134025574, -0.917640745639801, -0.9028401374816895, -0.8880394697189331, -0.8732388019561768, -0.8584381341934204, -0.8436374664306641, -0.8288367986679077, -0.8140361309051514, -0.799235463142395, -0.7844347953796387, -0.7696341872215271, -0.7548335194587708, -0.7400328516960144, -0.7252321839332581, -0.7104315757751465, -0.6956309080123901, -0.6808302402496338, -0.6660295724868774, -0.6512289643287659, -0.6364282965660095, -0.6216276288032532, -0.6068269610404968, -0.5920262932777405, -0.5772256255149841, -0.5624249577522278, -0.5476243495941162, -0.5328236818313599, -0.5180230140686035, -0.5032223463058472, -0.4884216785430908, -0.47362104058265686, -0.4588203728199005, -0.44401973485946655, -0.4292190670967102, -0.41441839933395386, -0.3996177613735199, -0.38481709361076355, -0.3700164556503296, -0.35521578788757324, -0.3404151201248169, -0.32561448216438293, -0.3108138144016266, -0.29601314663887024, -0.2812125086784363, -0.26641184091567993, -0.2516111731529236, -0.23681052029132843, -0.22200986742973328, -0.20720919966697693, -0.19240854680538177, -0.17760789394378662, -0.16280722618103027, -0.14800657331943512, -0.13320592045783997, -0.11840526014566422, -0.10360459983348846, -0.08880394697189331, -0.07400328665971756, -0.05920263007283211, -0.044401973485946655, -0.029601313173770905, -0.01480066031217575, 4.448140582946755e-17]}, "parameters/b1.weight": {"_type": "histogram", "values": [5.0, 0.0, 0.0, 0.0, 0.0, 0.0, 0.0, 0.0, 0.0, 0.0, 0.0, 0.0, 0.0, 0.0, 0.0, 0.0, 0.0, 0.0, 0.0, 0.0, 1.0, 0.0, 0.0, 1.0, 1.0, 0.0, 1.0, 0.0, 0.0, 0.0, 1.0, 1.0, 0.0, 1.0, 0.0, 0.0, 0.0, 0.0, 1.0, 1.0, 0.0, 0.0, 0.0, 0.0, 0.0, 0.0, 0.0, 1.0, 0.0, 0.0, 0.0, 0.0, 0.0, 0.0, 0.0, 0.0, 0.0, 0.0, 0.0, 0.0, 0.0, 0.0, 0.0, 1.0], "bins": [-3.1385245266193196e-25, 0.014104396104812622, 0.028208792209625244, 0.042313188314437866, 0.05641758441925049, 0.07052198052406311, 0.08462637662887573, 0.09873077273368835, 0.11283516883850098, 0.1269395649433136, 0.14104396104812622, 0.15514835715293884, 0.16925275325775146, 0.1833571493625641, 0.1974615454673767, 0.21156594157218933, 0.22567033767700195, 0.23977473378181458, 0.2538791298866272, 0.2679835259914398, 0.28208792209625244, 0.29619231820106506, 0.3102967143058777, 0.3244011104106903, 0.33850550651550293, 0.35260990262031555, 0.3667142987251282, 0.3808186948299408, 0.3949230909347534, 0.40902748703956604, 0.42313188314437866, 0.4372362792491913, 0.4513406753540039, 0.46544507145881653, 0.47954946756362915, 0.4936538636684418, 0.5077582597732544, 0.5218626260757446, 0.5359670519828796, 0.5500714778900146, 0.5641758441925049, 0.5782802104949951, 0.5923846364021301, 0.6064890623092651, 0.6205934286117554, 0.6346977949142456, 0.6488022208213806, 0.6629066467285156, 0.6770110130310059, 0.6911153793334961, 0.7052198052406311, 0.7193242311477661, 0.7334285974502563, 0.7475329637527466, 0.7616373896598816, 0.7757418155670166, 0.7898461818695068, 0.8039505481719971, 0.8180549740791321, 0.8321593999862671, 0.8462637662887573, 0.8603681325912476, 0.8744725584983826, 0.8885769844055176, 0.9026813507080078]}, "parameters/b1.bias": {"_type": "histogram", "values": [1.0, 0.0, 0.0, 0.0, 0.0, 0.0, 0.0, 0.0, 0.0, 0.0, 0.0, 5.0, 0.0, 0.0, 1.0, 1.0, 0.0, 0.0, 0.0, 0.0, 0.0, 0.0, 0.0, 0.0, 1.0, 0.0, 0.0, 0.0, 1.0, 0.0, 0.0, 0.0, 0.0, 1.0, 0.0, 0.0, 0.0, 0.0, 0.0, 0.0, 0.0, 1.0, 1.0, 0.0, 0.0, 0.0, 0.0, 1.0, 0.0, 0.0, 1.0, 0.0, 0.0, 0.0, 0.0, 0.0, 0.0, 0.0, 0.0, 0.0, 0.0, 0.0, 0.0, 1.0], "bins": [-0.07356604188680649, -0.06743128597736359, -0.061296526342630386, -0.055161770433187485, -0.049027010798454285, -0.04289225488901138, -0.03675749897956848, -0.03062273934483528, -0.02448798343539238, -0.01835322566330433, -0.012218468822538853, -0.0060837119817733765, 5.104579031467438e-05, 0.006185803562402725, 0.012320559471845627, 0.018455319106578827, 0.02459007501602173, 0.03072483278810978, 0.03685959056019783, 0.04299434646964073, 0.04912910610437393, 0.055263862013816833, 0.061398617923259735, 0.06753337383270264, 0.07366812974214554, 0.07980288565158844, 0.08593764156103134, 0.09207239747047424, 0.09820716083049774, 0.10434191673994064, 0.11047667264938354, 0.11661143600940704, 0.12274618446826935, 0.12888094782829285, 0.13501569628715515, 0.14115045964717865, 0.14728520810604095, 0.15341997146606445, 0.15955471992492676, 0.16568948328495026, 0.17182424664497375, 0.17795901000499725, 0.18409375846385956, 0.19022852182388306, 0.19636327028274536, 0.20249803364276886, 0.20863279700279236, 0.21476754546165466, 0.22090229392051697, 0.22703705728054047, 0.23317180573940277, 0.23930656909942627, 0.24544131755828857, 0.2515760660171509, 0.25771084427833557, 0.2638455927371979, 0.26998037099838257, 0.2761151194572449, 0.28224989771842957, 0.28838464617729187, 0.2945193946361542, 0.30065417289733887, 0.30678892135620117, 0.3129236698150635, 0.3190584182739258]}, "parameters/fc2.weight": {"_type": "histogram", "values": [1.0, 0.0, 0.0, 0.0, 0.0, 0.0, 0.0, 0.0, 0.0, 0.0, 1.0, 0.0, 0.0, 1.0, 1.0, 0.0, 0.0, 1.0, 0.0, 0.0, 1.0, 0.0, 0.0, 1.0, 1.0, 0.0, 0.0, 1.0, 0.0, 1.0, 0.0, 0.0, 0.0, 0.0, 0.0, 1.0, 1.0, 1.0, 0.0, 0.0, 1.0, 1.0, 2.0, 2.0, 5.0, 88.0, 2.0, 2.0, 4.0, 3.0, 1.0, 0.0, 0.0, 1.0, 0.0, 0.0, 0.0, 0.0, 1.0, 0.0, 0.0, 0.0, 0.0, 2.0], "bins": [-0.9445725679397583, -0.9238905310630798, -0.9032084941864014, -0.8825265169143677, -0.8618444800376892, -0.8411624431610107, -0.8204804062843323, -0.7997983694076538, -0.7791163921356201, -0.7584343552589417, -0.7377523183822632, -0.7170703411102295, -0.696388304233551, -0.6757062673568726, -0.6550242304801941, -0.6343421936035156, -0.6136602163314819, -0.5929781794548035, -0.572296142578125, -0.5516141653060913, -0.5309321284294128, -0.5102500915527344, -0.4895680546760559, -0.46888604760169983, -0.448203980922699, -0.4275219440460205, -0.40683993697166443, -0.38615790009498596, -0.3654758930206299, -0.3447938561439514, -0.32411181926727295, -0.30342981219291687, -0.2827477753162384, -0.26206573843955994, -0.24138373136520386, -0.2207016944885254, -0.2000196874141693, -0.17933765053749084, -0.15865562856197357, -0.1379736065864563, -0.11729159951210022, -0.09660957753658295, -0.07592755556106567, -0.055245526134967804, -0.03456350415945053, -0.013881482183933258, 0.006800547242164612, 0.027482569217681885, 0.04816460609436035, 0.06884662806987762, 0.0895286500453949, 0.11021067947149277, 0.13089269399642944, 0.1515747308731079, 0.17225675284862518, 0.19293877482414246, 0.21362079679965973, 0.234302818775177, 0.25498485565185547, 0.27566686272621155, 0.29634889960289, 0.3170309066772461, 0.33771294355392456, 0.358394980430603, 0.3790769875049591]}, "parameters/fc2.bias": {"_type": "histogram", "values": [1.0, 0.0, 0.0, 0.0, 0.0, 0.0, 0.0, 0.0, 0.0, 0.0, 0.0, 0.0, 0.0, 0.0, 0.0, 0.0, 0.0, 0.0, 0.0, 0.0, 0.0, 0.0, 0.0, 0.0, 0.0, 0.0, 0.0, 0.0, 0.0, 0.0, 0.0, 0.0, 0.0, 0.0, 0.0, 0.0, 0.0, 0.0, 0.0, 1.0, 0.0, 0.0, 0.0, 0.0, 0.0, 0.0, 0.0, 0.0, 0.0, 0.0, 0.0, 0.0, 0.0, 0.0, 0.0, 0.0, 0.0, 0.0, 0.0, 0.0, 0.0, 0.0, 5.0, 1.0], "bins": [-0.4269008934497833, -0.42008304595947266, -0.4132652282714844, -0.4064473807811737, -0.39962953329086304, -0.39281168580055237, -0.3859938681125641, -0.3791760206222534, -0.37235817313194275, -0.3655403256416321, -0.3587225079536438, -0.35190466046333313, -0.34508681297302246, -0.3382689654827118, -0.3314511477947235, -0.32463330030441284, -0.31781548261642456, -0.3109976351261139, -0.3041798174381256, -0.29736196994781494, -0.2905441224575043, -0.2837262749671936, -0.2769084572792053, -0.27009060978889465, -0.263272762298584, -0.2564549148082733, -0.24963708221912384, -0.24281924962997437, -0.2360014021396637, -0.22918356955051422, -0.22236573696136475, -0.21554788947105408, -0.2087300419807434, -0.20191220939159393, -0.19509436190128326, -0.1882765293121338, -0.18145868182182312, -0.17464084923267365, -0.16782301664352417, -0.1610051691532135, -0.15418732166290283, -0.14736948907375336, -0.1405516415834427, -0.1337338089942932, -0.12691596150398254, -0.12009812891483307, -0.113280288875103, -0.10646244883537292, -0.09964460879564285, -0.09282676875591278, -0.08600892871618271, -0.07919108867645264, -0.07237325608730316, -0.06555540859699249, -0.05873757600784302, -0.051919735968112946, -0.04510189965367317, -0.0382840596139431, -0.031466223299503326, -0.024648383259773254, -0.017830543220043182, -0.01101270318031311, -0.004194866865873337, 0.0026229731738567352, 0.009440814144909382]}, "parameters/b2.weight": {"_type": "histogram", "values": [4.0, 0.0, 0.0, 0.0, 1.0, 0.0, 0.0, 0.0, 0.0, 0.0, 0.0, 1.0, 0.0, 0.0, 0.0, 0.0, 0.0, 0.0, 0.0, 0.0, 0.0, 0.0, 0.0, 0.0, 0.0, 0.0, 0.0, 0.0, 0.0, 0.0, 0.0, 0.0, 0.0, 0.0, 0.0, 0.0, 0.0, 0.0, 0.0, 0.0, 0.0, 0.0, 0.0, 0.0, 0.0, 0.0, 0.0, 0.0, 1.0, 0.0, 0.0, 0.0, 0.0, 0.0, 0.0, 0.0, 0.0, 0.0, 0.0, 0.0, 0.0, 0.0, 0.0, 1.0], "bins": [6.069724298222945e-41, 0.015531577169895172, 0.031063154339790344, 0.046594731509685516, 0.06212630867958069, 0.07765788584947586, 0.09318946301937103, 0.1087210401892662, 0.12425261735916138, 0.13978418707847595, 0.15531577169895172, 0.1708473563194275, 0.18637892603874207, 0.20191049575805664, 0.2174420803785324, 0.23297366499900818, 0.24850523471832275, 0.26403680443763733, 0.2795683741569519, 0.29509997367858887, 0.31063154339790344, 0.326163113117218, 0.341694712638855, 0.35722628235816956, 0.37275785207748413, 0.3882894217967987, 0.4038209915161133, 0.41935259103775024, 0.4348841607570648, 0.4504157304763794, 0.46594732999801636, 0.48147889971733093, 0.4970104694366455, 0.5125420689582825, 0.5280736088752747, 0.5436052083969116, 0.5591367483139038, 0.5746683478355408, 0.5901999473571777, 0.6057314872741699, 0.6212630867958069, 0.6367946863174438, 0.652326226234436, 0.667857825756073, 0.68338942527771, 0.6989209651947021, 0.7144525647163391, 0.7299841046333313, 0.7455157041549683, 0.7610473036766052, 0.7765788435935974, 0.7921104431152344, 0.8076419830322266, 0.8231735825538635, 0.8387051820755005, 0.8542367219924927, 0.8697683215141296, 0.8852999210357666, 0.9008314609527588, 0.9163630604743958, 0.9318946599960327, 0.9474261999130249, 0.9629577994346619, 0.978489339351654, 0.994020938873291]}, "parameters/b2.bias": {"_type": "histogram", "values": [1.0, 0.0, 0.0, 0.0, 0.0, 0.0, 0.0, 0.0, 0.0, 0.0, 0.0, 0.0, 0.0, 0.0, 0.0, 0.0, 0.0, 0.0, 0.0, 0.0, 0.0, 0.0, 0.0, 0.0, 0.0, 0.0, 0.0, 0.0, 0.0, 1.0, 0.0, 0.0, 0.0, 4.0, 0.0, 0.0, 0.0, 0.0, 0.0, 0.0, 1.0, 0.0, 0.0, 0.0, 0.0, 0.0, 0.0, 0.0, 0.0, 0.0, 0.0, 0.0, 0.0, 0.0, 0.0, 0.0, 0.0, 0.0, 0.0, 0.0, 0.0, 0.0, 0.0, 1.0], "bins": [-0.37699583172798157, -0.36575210094451904, -0.3545083999633789, -0.3432646691799164, -0.33202093839645386, -0.3207772374153137, -0.3095335066318512, -0.29828977584838867, -0.28704607486724854, -0.275802344083786, -0.2645586431026459, -0.25331491231918335, -0.24207118153572083, -0.2308274656534195, -0.21958374977111816, -0.20834001898765564, -0.19709628820419312, -0.18585257232189178, -0.17460884153842926, -0.16336512565612793, -0.1521213948726654, -0.14087767899036407, -0.12963396310806274, -0.11839023977518082, -0.10714653134346008, -0.09590280801057816, -0.08465908467769623, -0.0734153687953949, -0.06217164546251297, -0.05092792212963104, -0.03968420624732971, -0.028440482914447784, -0.017196744680404663, -0.005953023210167885, 0.005290698260068893, 0.016534417867660522, 0.02777814120054245, 0.03902186453342438, 0.05026558041572571, 0.061509303748607635, 0.07275304198265076, 0.08399676531553268, 0.09524048864841461, 0.10648420453071594, 0.11772792786359787, 0.1289716511964798, 0.14021536707878113, 0.15145909786224365, 0.1627027988433838, 0.17394651472568512, 0.18519024550914764, 0.19643396139144897, 0.2076776921749115, 0.21892140805721283, 0.23016512393951416, 0.24140885472297668, 0.2526525855064392, 0.26389631628990173, 0.27514001727104187, 0.2863837480545044, 0.2976274788379669, 0.30887120962142944, 0.3201149106025696, 0.3313586413860321, 0.34260234236717224]}, "parameters/fc3.weight": {"_type": "histogram", "values": [1.0, 0.0, 0.0, 0.0, 0.0, 0.0, 0.0, 0.0, 0.0, 0.0, 0.0, 0.0, 0.0, 0.0, 0.0, 0.0, 0.0, 1.0, 0.0, 0.0, 0.0, 0.0, 0.0, 1.0, 0.0, 2.0, 24.0, 1.0, 0.0, 0.0, 0.0, 0.0, 0.0, 0.0, 0.0, 1.0, 0.0, 0.0, 0.0, 0.0, 0.0, 0.0, 0.0, 0.0, 0.0, 0.0, 0.0, 0.0, 0.0, 0.0, 0.0, 0.0, 0.0, 0.0, 0.0, 0.0, 0.0, 0.0, 0.0, 0.0, 0.0, 0.0, 0.0, 1.0], "bins": [-0.7249099016189575, -0.6978751420974731, -0.6708403825759888, -0.6438055634498596, -0.6167708039283752, -0.5897360444068909, -0.5627012848854065, -0.5356664657592773, -0.508631706237793, -0.4815969467163086, -0.45456215739250183, -0.42752739787101746, -0.4004926085472107, -0.3734578490257263, -0.34642308950424194, -0.3193883001804352, -0.2923535406589508, -0.26531878113746643, -0.23828399181365967, -0.2112492322921753, -0.18421444296836853, -0.15717968344688416, -0.1301449090242386, -0.10311013460159302, -0.07607537508010864, -0.049040600657463074, -0.022005829960107803, 0.005028940737247467, 0.032063715159893036, 0.05909848213195801, 0.08613325655460358, 0.11316803097724915, 0.1402028203010559, 0.16723759472370148, 0.19427236914634705, 0.22130712866783142, 0.24834191799163818, 0.27537667751312256, 0.30241143703460693, 0.3294462263584137, 0.35648101568222046, 0.38351577520370483, 0.4105505645275116, 0.43758532404899597, 0.46462011337280273, 0.4916548728942871, 0.5186896324157715, 0.5457243919372559, 0.5727591514587402, 0.5997939109802246, 0.626828670501709, 0.6538634896278381, 0.6808982491493225, 0.7079330086708069, 0.7349677681922913, 0.7620025873184204, 0.7890373468399048, 0.8160721063613892, 0.8431068658828735, 0.8701416850090027, 0.8971764445304871, 0.9242112040519714, 0.9512459635734558, 0.978280782699585, 1.0053155422210693]}, "parameters/fc3.bias": {"_type": "histogram", "values": [1.0, 0.0, 0.0, 0.0, 0.0, 0.0, 0.0, 0.0, 0.0, 0.0, 0.0, 0.0, 0.0, 0.0, 0.0, 0.0, 0.0, 0.0, 0.0, 0.0, 0.0, 0.0, 0.0, 0.0, 0.0, 0.0, 0.0, 0.0, 0.0, 0.0, 0.0, 0.0, 0.0, 0.0, 0.0, 0.0, 0.0, 0.0, 0.0, 0.0, 0.0, 0.0, 0.0, 0.0, 0.0, 0.0, 0.0, 0.0, 0.0, 0.0, 0.0, 0.0, 0.0, 0.0, 0.0, 0.0, 0.0, 0.0, 0.0, 0.0, 0.0, 0.0, 1.0, 2.0], "bins": [-0.4640715420246124, -0.45682042837142944, -0.44956931471824646, -0.4423182010650635, -0.4350670576095581, -0.4278159439563751, -0.42056483030319214, -0.41331371665000916, -0.40606260299682617, -0.3988114893436432, -0.3915603756904602, -0.3843092620372772, -0.37705811858177185, -0.36980700492858887, -0.3625558912754059, -0.3553047776222229, -0.3480536639690399, -0.34080255031585693, -0.33355143666267395, -0.32630032300949097, -0.3190491795539856, -0.3117980659008026, -0.30454695224761963, -0.29729583859443665, -0.29004472494125366, -0.2827936112880707, -0.2755424976348877, -0.2682913839817047, -0.26104024052619934, -0.25378912687301636, -0.24653801321983337, -0.2392868995666504, -0.2320357710123062, -0.22478465735912323, -0.21753352880477905, -0.21028241515159607, -0.20303130149841309, -0.1957801878452301, -0.18852905929088593, -0.18127794563770294, -0.17402683198451996, -0.16677571833133698, -0.1595245897769928, -0.15227347612380981, -0.14502236247062683, -0.13777124881744385, -0.13052012026309967, -0.12326900660991669, -0.1160178855061531, -0.10876676440238953, -0.10151565074920654, -0.09426452964544296, -0.08701341599225998, -0.0797622948884964, -0.07251118123531342, -0.06526006013154984, -0.05800894275307655, -0.05075782537460327, -0.04350670799612999, -0.03625559061765671, -0.029004471376538277, -0.021753352135419846, -0.014502234756946564, -0.007251117378473282, 2.993847345093921e-21]}, "parameters/b3.weight": {"_type": "histogram", "values": [2.0, 0.0, 0.0, 0.0, 0.0, 0.0, 0.0, 0.0, 0.0, 0.0, 0.0, 0.0, 0.0, 0.0, 0.0, 0.0, 0.0, 0.0, 0.0, 0.0, 0.0, 1.0, 0.0, 0.0, 0.0, 0.0, 0.0, 0.0, 0.0, 0.0, 0.0, 0.0, 0.0, 0.0, 0.0, 0.0, 0.0, 0.0, 0.0, 0.0, 0.0, 0.0, 0.0, 0.0, 0.0, 0.0, 0.0, 0.0, 0.0, 0.0, 0.0, 0.0, 0.0, 0.0, 0.0, 0.0, 0.0, 0.0, 0.0, 0.0, 0.0, 0.0, 0.0, 1.0], "bins": [2.0566586719799683e-23, 0.010667231865227222, 0.021334463730454445, 0.03200169652700424, 0.04266892746090889, 0.05333615839481354, 0.06400339305400848, 0.07467062026262283, 0.08533785492181778, 0.09600508958101273, 0.10667231678962708, 0.11733955144882202, 0.12800678610801697, 0.13867402076721191, 0.14934125542640686, 0.1600084751844406, 0.17067570984363556, 0.1813429445028305, 0.19201017916202545, 0.2026773989200592, 0.21334463357925415, 0.2240118682384491, 0.23467910289764404, 0.245346337556839, 0.25601357221603394, 0.2666808068752289, 0.27734804153442383, 0.2880152761936188, 0.2986825108528137, 0.3093497157096863, 0.3200169801712036, 0.33068418502807617, 0.3413514196872711, 0.35201865434646606, 0.362685889005661, 0.37335312366485596, 0.3840203583240509, 0.39468759298324585, 0.4053547978401184, 0.41602203249931335, 0.4266892671585083, 0.43735650181770325, 0.4480237364768982, 0.45869097113609314, 0.4693582057952881, 0.48002541065216064, 0.490692675113678, 0.5013598799705505, 0.5120271444320679, 0.5226943492889404, 0.5333616137504578, 0.5440288186073303, 0.5546960830688477, 0.5653632879257202, 0.5760305523872375, 0.5866977572441101, 0.5973649621009827, 0.6080321669578552, 0.6186994314193726, 0.6293666362762451, 0.6400339007377625, 0.650701105594635, 0.6613683700561523, 0.6720355749130249, 0.6827028393745422]}, "parameters/b3.bias": {"_type": "histogram", "values": [1.0, 0.0, 0.0, 0.0, 0.0, 0.0, 0.0, 0.0, 0.0, 0.0, 0.0, 0.0, 0.0, 0.0, 0.0, 0.0, 0.0, 0.0, 0.0, 0.0, 0.0, 0.0, 0.0, 0.0, 0.0, 0.0, 0.0, 0.0, 0.0, 0.0, 0.0, 0.0, 0.0, 0.0, 0.0, 0.0, 0.0, 1.0, 0.0, 0.0, 0.0, 0.0, 0.0, 0.0, 0.0, 0.0, 0.0, 0.0, 0.0, 0.0, 0.0, 0.0, 0.0, 0.0, 0.0, 0.0, 0.0, 0.0, 0.0, 0.0, 0.0, 0.0, 0.0, 2.0], "bins": [-0.24663111567497253, -0.2427774965763092, -0.23892389237880707, -0.23507027328014374, -0.2312166690826416, -0.22736304998397827, -0.22350944578647614, -0.2196558266878128, -0.21580222249031067, -0.21194860339164734, -0.2080949991941452, -0.20424138009548187, -0.20038777589797974, -0.1965341567993164, -0.19268055260181427, -0.18882693350315094, -0.1849733293056488, -0.18111971020698547, -0.17726610600948334, -0.17341248691082, -0.16955888271331787, -0.16570526361465454, -0.1618516594171524, -0.15799804031848907, -0.15414442121982574, -0.15029080212116241, -0.14643719792366028, -0.14258357882499695, -0.1387299746274948, -0.13487635552883148, -0.13102275133132935, -0.12716913223266602, -0.12331552803516388, -0.11946191638708115, -0.11560830473899841, -0.11175469309091568, -0.10790108144283295, -0.10404746979475021, -0.10019385814666748, -0.09634023904800415, -0.09248663485050201, -0.08863302320241928, -0.08477941155433655, -0.08092579990625381, -0.07707218825817108, -0.07321857661008835, -0.06936496496200562, -0.06551134586334229, -0.06165773794054985, -0.05780412629246712, -0.053950514644384384, -0.05009689927101135, -0.04624328762292862, -0.042389675974845886, -0.03853606432676315, -0.03468245267868042, -0.030828839167952538, -0.026975227519869804, -0.023121614009141922, -0.01926800236105919, -0.015414390712976456, -0.011560779064893723, -0.00770716555416584, -0.003853553906083107, 5.684509929437809e-08]}, "parameters/fc4.weight": {"_type": "histogram", "values": [1.0, 0.0, 0.0, 0.0, 0.0, 0.0, 0.0, 0.0, 0.0, 0.0, 0.0, 0.0, 0.0, 0.0, 0.0, 0.0, 0.0, 0.0, 0.0, 0.0, 0.0, 0.0, 0.0, 0.0, 0.0, 0.0, 0.0, 0.0, 0.0, 0.0, 0.0, 0.0, 0.0, 0.0, 0.0, 0.0, 0.0, 0.0, 0.0, 0.0, 0.0, 0.0, 0.0, 0.0, 0.0, 0.0, 0.0, 0.0, 0.0, 0.0, 0.0, 1.0, 0.0, 0.0, 0.0, 0.0, 0.0, 0.0, 0.0, 0.0, 0.0, 0.0, 0.0, 2.0], "bins": [-0.5616306066513062, -0.5528551340103149, -0.5440796613693237, -0.5353041887283325, -0.5265287160873413, -0.5177531838417053, -0.5089777112007141, -0.5002022385597229, -0.4914267659187317, -0.4826512932777405, -0.47387582063674927, -0.46510031819343567, -0.45632484555244446, -0.44754937291145325, -0.43877390027046204, -0.42999839782714844, -0.4212229251861572, -0.412447452545166, -0.4036719799041748, -0.3948964774608612, -0.38612100481987, -0.3773455321788788, -0.3685700595378876, -0.359794557094574, -0.35101911425590515, -0.34224364161491394, -0.33346816897392273, -0.32469266653060913, -0.3159171938896179, -0.3071417212486267, -0.2983662486076355, -0.2895907759666443, -0.2808152735233307, -0.2720398008823395, -0.26326432824134827, -0.25448882579803467, -0.24571335315704346, -0.23693788051605225, -0.22816240787506104, -0.21938692033290863, -0.21061143279075623, -0.20183596014976501, -0.1930604726076126, -0.1842849999666214, -0.175509512424469, -0.16673403978347778, -0.15795856714248657, -0.14918307960033417, -0.14040760695934296, -0.13163213431835175, -0.12285664677619934, -0.11408117413520813, -0.10530568659305573, -0.09653021395206451, -0.0877547338604927, -0.0789792537689209, -0.07020378112792969, -0.06142830103635788, -0.05265282094478607, -0.04387734457850456, -0.035101864486932755, -0.026326384395360947, -0.017550908029079437, -0.00877542793750763, 5.469542330160948e-08]}, "parameters/fc4.bias": {"_type": "histogram", "values": [0.0, 0.0, 0.0, 0.0, 0.0, 0.0, 0.0, 0.0, 0.0, 0.0, 0.0, 0.0, 0.0, 0.0, 0.0, 0.0, 0.0, 0.0, 0.0, 0.0, 0.0, 0.0, 0.0, 0.0, 0.0, 0.0, 0.0, 0.0, 0.0, 0.0, 0.0, 0.0, 1.0, 0.0, 0.0, 0.0, 0.0, 0.0, 0.0, 0.0, 0.0, 0.0, 0.0, 0.0, 0.0, 0.0, 0.0, 0.0, 0.0, 0.0, 0.0, 0.0, 0.0, 0.0, 0.0, 0.0, 0.0, 0.0, 0.0, 0.0, 0.0, 0.0, 0.0, 0.0], "bins": [0.6740209460258484, 0.6740209460258484, 0.6740209460258484, 0.6740209460258484, 0.6740209460258484, 0.6740209460258484, 0.6740209460258484, 0.6740209460258484, 0.6740209460258484, 0.6740209460258484, 0.6740209460258484, 0.6740209460258484, 0.6740209460258484, 0.6740209460258484, 0.6740209460258484, 0.6740209460258484, 0.6740209460258484, 0.6740209460258484, 0.6740209460258484, 0.6740209460258484, 0.6740209460258484, 0.6740209460258484, 0.6740209460258484, 0.6740209460258484, 0.6740209460258484, 0.6740209460258484, 0.6740209460258484, 0.6740209460258484, 0.6740209460258484, 0.6740209460258484, 0.6740209460258484, 0.6740209460258484, 0.6740209460258484, 0.6740209460258484, 0.6740209460258484, 0.6740209460258484, 0.6740209460258484, 0.6740209460258484, 0.6740209460258484, 0.6740209460258484, 0.6740209460258484, 0.6740209460258484, 0.6740209460258484, 0.6740209460258484, 0.6740209460258484, 0.6740209460258484, 0.6740209460258484, 0.6740209460258484, 0.6740209460258484, 0.6740209460258484, 0.6740209460258484, 0.6740209460258484, 0.6740209460258484, 0.6740209460258484, 0.6740209460258484, 0.6740209460258484, 0.6740209460258484, 0.6740209460258484, 0.6740209460258484, 0.6740209460258484, 0.6740209460258484, 0.6740209460258484, 0.6740209460258484, 0.6740209460258484, 0.6740209460258484]}, "gradients/fc4.bias": {"_type": "histogram", "values": [0.0, 0.0, 0.0, 0.0, 0.0, 0.0, 0.0, 0.0, 0.0, 0.0, 0.0, 0.0, 0.0, 0.0, 0.0, 0.0, 0.0, 0.0, 0.0, 0.0, 0.0, 0.0, 0.0, 0.0, 0.0, 0.0, 0.0, 0.0, 0.0, 0.0, 0.0, 0.0, 1.0, 0.0, 0.0, 0.0, 0.0, 0.0, 0.0, 0.0, 0.0, 0.0, 0.0, 0.0, 0.0, 0.0, 0.0, 0.0, 0.0, 0.0, 0.0, 0.0, 0.0, 0.0, 0.0, 0.0, 0.0, 0.0, 0.0, 0.0, 0.0, 0.0, 0.0, 0.0], "bins": [0.09192154556512833, 0.09192154556512833, 0.09192154556512833, 0.09192154556512833, 0.09192154556512833, 0.09192154556512833, 0.09192154556512833, 0.09192154556512833, 0.09192154556512833, 0.09192154556512833, 0.09192154556512833, 0.09192154556512833, 0.09192154556512833, 0.09192154556512833, 0.09192154556512833, 0.09192154556512833, 0.09192154556512833, 0.09192154556512833, 0.09192154556512833, 0.09192154556512833, 0.09192154556512833, 0.09192154556512833, 0.09192154556512833, 0.09192154556512833, 0.09192154556512833, 0.09192154556512833, 0.09192154556512833, 0.09192154556512833, 0.09192154556512833, 0.09192154556512833, 0.09192154556512833, 0.09192154556512833, 0.09192154556512833, 0.09192154556512833, 0.09192154556512833, 0.09192154556512833, 0.09192154556512833, 0.09192154556512833, 0.09192154556512833, 0.09192154556512833, 0.09192154556512833, 0.09192154556512833, 0.09192154556512833, 0.09192154556512833, 0.09192154556512833, 0.09192154556512833, 0.09192154556512833, 0.09192154556512833, 0.09192154556512833, 0.09192154556512833, 0.09192154556512833, 0.09192154556512833, 0.09192154556512833, 0.09192154556512833, 0.09192154556512833, 0.09192154556512833, 0.09192154556512833, 0.09192154556512833, 0.09192154556512833, 0.09192154556512833, 0.09192154556512833, 0.09192154556512833, 0.09192154556512833, 0.09192154556512833, 0.09192154556512833]}, "gradients/fc4.weight": {"_type": "histogram", "values": [1.0, 0.0, 0.0, 0.0, 0.0, 0.0, 0.0, 0.0, 0.0, 0.0, 0.0, 0.0, 0.0, 0.0, 0.0, 0.0, 0.0, 0.0, 0.0, 0.0, 0.0, 0.0, 0.0, 0.0, 0.0, 0.0, 0.0, 0.0, 0.0, 0.0, 0.0, 0.0, 0.0, 0.0, 0.0, 0.0, 0.0, 0.0, 0.0, 0.0, 0.0, 0.0, 0.0, 2.0, 0.0, 0.0, 0.0, 0.0, 0.0, 0.0, 0.0, 0.0, 0.0, 0.0, 0.0, 0.0, 0.0, 0.0, 0.0, 0.0, 0.0, 0.0, 0.0, 1.0], "bins": [-0.04543827474117279, -0.04438341036438942, -0.04332854598760605, -0.042273685336112976, -0.041218820959329605, -0.040163956582546234, -0.03910909593105316, -0.03805423155426979, -0.03699936717748642, -0.03594450280070305, -0.03488963842391968, -0.033834777772426605, -0.032779913395643234, -0.03172504901885986, -0.03067018650472164, -0.02961532399058342, -0.02856045961380005, -0.027505595237016678, -0.026450732722878456, -0.025395870208740234, -0.024341005831956863, -0.023286141455173492, -0.02223127894103527, -0.02117641642689705, -0.020121552050113678, -0.019066687673330307, -0.018011825159192085, -0.016956962645053864, -0.015902098268270493, -0.014847234822809696, -0.0137923713773489, -0.012737507931888103, -0.011682644486427307, -0.01062778104096651, -0.009572917595505714, -0.008518054150044918, -0.007463190704584122, -0.006408327259123325, -0.005353463813662529, -0.004298600368201733, -0.0032437369227409363, -0.00218887347728014, -0.0011340100318193436, -7.914658635854721e-05, 0.0009757168591022491, 0.0020305803045630455, 0.003085443750023842, 0.004140307195484638, 0.005195170640945435, 0.006250034086406231, 0.007304897531867027, 0.008359760977327824, 0.00941462442278862, 0.010469487868249416, 0.011524351313710213, 0.012579214759171009, 0.013634078204631805, 0.014688941650092602, 0.015743805095553398, 0.01679866760969162, 0.01785353198647499, 0.018908396363258362, 0.019963258877396584, 0.021018121391534805, 0.022072985768318176]}, "gradients/b3.weight": {"_type": "histogram", "values": [1.0, 0.0, 0.0, 0.0, 0.0, 0.0, 0.0, 0.0, 0.0, 0.0, 0.0, 0.0, 0.0, 0.0, 0.0, 0.0, 0.0, 0.0, 0.0, 0.0, 0.0, 0.0, 0.0, 0.0, 0.0, 0.0, 0.0, 0.0, 0.0, 0.0, 0.0, 0.0, 0.0, 0.0, 0.0, 0.0, 0.0, 0.0, 0.0, 0.0, 0.0, 0.0, 2.0, 0.0, 0.0, 0.0, 0.0, 0.0, 0.0, 0.0, 0.0, 0.0, 0.0, 0.0, 0.0, 0.0, 0.0, 0.0, 0.0, 0.0, 0.0, 0.0, 0.0, 1.0], "bins": [-0.035859301686286926, -0.03502383828163147, -0.03418837860226631, -0.033352915197610855, -0.0325174517929554, -0.03168199211359024, -0.030846528708934784, -0.030011067166924477, -0.02917560562491417, -0.028340144082903862, -0.027504680678248405, -0.026669219136238098, -0.02583375759422779, -0.024998296052217484, -0.024162832647562027, -0.02332737110555172, -0.022491907700896263, -0.021656446158885956, -0.0208209827542305, -0.019985521212220192, -0.019150059670209885, -0.018314596265554428, -0.01747913472354412, -0.016643673181533813, -0.015808209776878357, -0.014972747303545475, -0.014137285761535168, -0.013301823288202286, -0.012466361746191978, -0.011630899272859097, -0.010795436799526215, -0.009959975257515907, -0.00912451185286045, -0.008289049379527569, -0.0074535878375172615, -0.00661812536418438, -0.005782663356512785, -0.00494720134884119, -0.004111738875508308, -0.003276276867836714, -0.002440815791487694, -0.0016053536674007773, -0.0007698915433138609, 6.557069718837738e-05, 0.000901032704859972, 0.0017364947125315666, 0.0025719571858644485, 0.003407419193536043, 0.004242882132530212, 0.005078344140201807, 0.005913806147873402, 0.006749268621206284, 0.007584730628877878, 0.008420192636549473, 0.009255655109882355, 0.010091116651892662, 0.010926579125225544, 0.011762041598558426, 0.012597503140568733, 0.013432965613901615, 0.014268428087234497, 0.015103889629244804, 0.01593935117125511, 0.016774814575910568, 0.017610276117920876]}, "gradients/b3.bias": {"_type": "histogram", "values": [1.0, 0.0, 0.0, 0.0, 0.0, 0.0, 0.0, 0.0, 0.0, 0.0, 0.0, 0.0, 0.0, 0.0, 0.0, 0.0, 0.0, 0.0, 0.0, 0.0, 0.0, 0.0, 0.0, 0.0, 0.0, 0.0, 0.0, 0.0, 0.0, 0.0, 0.0, 0.0, 0.0, 0.0, 0.0, 0.0, 0.0, 0.0, 0.0, 0.0, 0.0, 0.0, 0.0, 0.0, 0.0, 0.0, 0.0, 0.0, 0.0, 0.0, 0.0, 1.0, 0.0, 0.0, 0.0, 0.0, 0.0, 0.0, 0.0, 0.0, 0.0, 0.0, 0.0, 2.0], "bins": [-0.051640309393405914, -0.050833430141210556, -0.0500265508890152, -0.04921966791152954, -0.04841278865933418, -0.047605909407138824, -0.046799030154943466, -0.04599215090274811, -0.04518527165055275, -0.04437839239835739, -0.04357151314616203, -0.042764633893966675, -0.04195775091648102, -0.04115087166428566, -0.0403439924120903, -0.03953711315989494, -0.038730230182409286, -0.03792335093021393, -0.03711647167801857, -0.03630959242582321, -0.035502709448337555, -0.0346958301961422, -0.03388895094394684, -0.03308207169175148, -0.03227519243955612, -0.031468313187360764, -0.030661432072520256, -0.029854552820324898, -0.02904767356812954, -0.028240792453289032, -0.027433913201093674, -0.026627033948898315, -0.02582015097141266, -0.0250132717192173, -0.024206390604376793, -0.023399511352181435, -0.022592632099986076, -0.02178575098514557, -0.02097887173295021, -0.020171992480754852, -0.019365111365914345, -0.018558232113718987, -0.01775135099887848, -0.01694447174668312, -0.016137592494487762, -0.015330711379647255, -0.014523832127451897, -0.013716951943933964, -0.01291007362306118, -0.012103193439543247, -0.011296314187347889, -0.010489434003829956, -0.009682553820312023, -0.00887567363679409, -0.008068794384598732, -0.007261914201080799, -0.006455034017562866, -0.005648154299706221, -0.004841274116188288, -0.004034394398331642, -0.003227514447644353, -0.0024206344969570637, -0.001613754779100418, -0.0008068745955824852, 4.934002539869198e-09]}, "gradients/fc3.bias": {"_type": "histogram", "values": [1.0, 0.0, 0.0, 0.0, 0.0, 0.0, 0.0, 0.0, 0.0, 0.0, 0.0, 0.0, 0.0, 0.0, 0.0, 0.0, 0.0, 0.0, 0.0, 0.0, 0.0, 0.0, 0.0, 0.0, 0.0, 0.0, 0.0, 0.0, 0.0, 0.0, 0.0, 0.0, 0.0, 0.0, 0.0, 0.0, 0.0, 0.0, 0.0, 0.0, 0.0, 0.0, 0.0, 0.0, 0.0, 0.0, 0.0, 0.0, 0.0, 0.0, 0.0, 0.0, 0.0, 0.0, 0.0, 0.0, 0.0, 0.0, 0.0, 0.0, 0.0, 0.0, 0.0, 3.0], "bins": [-0.023981772363185883, -0.023605793714523315, -0.02322981506586075, -0.02285383641719818, -0.022477857768535614, -0.022101879119873047, -0.02172590047121048, -0.021349921822547913, -0.020973943173885345, -0.02059796452522278, -0.02022198587656021, -0.019846007227897644, -0.019470028579235077, -0.01909404993057251, -0.018718071281909943, -0.018342092633247375, -0.01796611398458481, -0.01759013533592224, -0.017214156687259674, -0.016838178038597107, -0.01646219938993454, -0.016086220741271973, -0.015710242092609406, -0.015334263443946838, -0.014958285726606846, -0.014582307077944279, -0.014206328429281712, -0.013830349780619144, -0.013454371131956577, -0.01307839248329401, -0.012702413834631443, -0.012326435185968876, -0.011950457468628883, -0.011574478819966316, -0.011198500171303749, -0.010822521522641182, -0.010446542873978615, -0.010070564225316048, -0.00969458557665348, -0.009318606927990913, -0.008942628279328346, -0.008566649630665779, -0.008190670982003212, -0.007814692333340645, -0.007438713684678078, -0.0070627350360155106, -0.006686756387352943, -0.006310777738690376, -0.005934799090027809, -0.005558820441365242, -0.005182841792702675, -0.004806863144040108, -0.004430884495377541, -0.0040549058467149734, -0.00367892743088305, -0.003302948782220483, -0.0029269701335579157, -0.0025509914848953485, -0.0021750128362327814, -0.001799034303985536, -0.001423055655322969, -0.0010470770066604018, -0.0006710984744131565, -0.00029511982575058937, 8.085879380814731e-05]}, "gradients/fc3.weight": {"_type": "histogram", "values": [1.0, 0.0, 0.0, 0.0, 0.0, 0.0, 0.0, 0.0, 0.0, 0.0, 0.0, 0.0, 0.0, 0.0, 0.0, 0.0, 0.0, 0.0, 0.0, 0.0, 0.0, 0.0, 0.0, 0.0, 0.0, 1.0, 0.0, 0.0, 0.0, 0.0, 0.0, 0.0, 0.0, 0.0, 0.0, 0.0, 0.0, 0.0, 0.0, 0.0, 0.0, 0.0, 0.0, 0.0, 0.0, 0.0, 0.0, 0.0, 0.0, 0.0, 0.0, 0.0, 0.0, 0.0, 1.0, 0.0, 0.0, 0.0, 0.0, 1.0, 0.0, 1.0, 26.0, 1.0], "bins": [-0.12026955187320709, -0.11834226548671722, -0.11641497164964676, -0.11448768526315689, -0.11256039887666702, -0.11063311249017715, -0.10870581865310669, -0.10677853226661682, -0.10485124588012695, -0.10292395949363708, -0.10099666565656662, -0.09906937927007675, -0.09714209288358688, -0.09521480649709702, -0.09328751266002655, -0.09136022627353668, -0.08943293988704681, -0.08750565350055695, -0.08557835966348648, -0.08365107327699661, -0.08172378689050674, -0.07979650050401688, -0.07786920666694641, -0.07594192028045654, -0.07401463389396667, -0.0720873475074768, -0.07016005367040634, -0.06823276728391647, -0.0663054808974266, -0.06437819451093674, -0.06245090439915657, -0.060523614287376404, -0.05859632417559624, -0.05666903406381607, -0.0547417476773262, -0.052814457565546036, -0.05088717117905617, -0.048959881067276, -0.04703259468078613, -0.045105304569005966, -0.0431780181825161, -0.04125072807073593, -0.03932344168424606, -0.0373961515724659, -0.03546886518597603, -0.03354157507419586, -0.031614288687705994, -0.029686998575925827, -0.02775970846414566, -0.025832420215010643, -0.023905131965875626, -0.021977843716740608, -0.02005055546760559, -0.018123265355825424, -0.016195978969335556, -0.014268689788877964, -0.012341401539742947, -0.01041411329060793, -0.008486825041472912, -0.006559536326676607, -0.00463224807754159, -0.002704959362745285, -0.0007776711136102676, 0.0011496171355247498, 0.0030769051518291235]}, "gradients/b2.weight": {"_type": "histogram", "values": [1.0, 0.0, 0.0, 0.0, 0.0, 0.0, 0.0, 0.0, 0.0, 0.0, 0.0, 0.0, 0.0, 0.0, 0.0, 0.0, 0.0, 0.0, 0.0, 0.0, 0.0, 0.0, 0.0, 0.0, 0.0, 0.0, 0.0, 6.0, 0.0, 0.0, 0.0, 0.0, 0.0, 0.0, 0.0, 0.0, 0.0, 0.0, 0.0, 0.0, 0.0, 0.0, 0.0, 0.0, 0.0, 0.0, 0.0, 0.0, 0.0, 0.0, 0.0, 0.0, 0.0, 0.0, 0.0, 0.0, 0.0, 0.0, 0.0, 0.0, 0.0, 0.0, 0.0, 1.0], "bins": [-0.08012701570987701, -0.07717935740947723, -0.07423169165849686, -0.07128402590751648, -0.0683363676071167, -0.06538870930671692, -0.06244104355573654, -0.05949338153004646, -0.056545719504356384, -0.053598057478666306, -0.05065039545297623, -0.04770273342728615, -0.04475507140159607, -0.04180740937590599, -0.03885974735021591, -0.03591208532452583, -0.032964423298835754, -0.030016761273145676, -0.027069099247455597, -0.024121437221765518, -0.02117377519607544, -0.01822611317038536, -0.015278451144695282, -0.012330789119005203, -0.009383127093315125, -0.006435465067625046, -0.003487803041934967, -0.0005401410162448883, 0.0024075210094451904, 0.005355183035135269, 0.008302845060825348, 0.011250507086515427, 0.014198169112205505, 0.017145831137895584, 0.020093493163585663, 0.02304115518927574, 0.02598881721496582, 0.0289364792406559, 0.03188414126634598, 0.034831803292036057, 0.037779465317726135, 0.040727127343416214, 0.04367478936910629, 0.04662245139479637, 0.04957011342048645, 0.05251777544617653, 0.05546543747186661, 0.058413099497556686, 0.061360761523246765, 0.06430841982364655, 0.06725608557462692, 0.0702037513256073, 0.07315140962600708, 0.07609906792640686, 0.07904673367738724, 0.08199439942836761, 0.0849420577287674, 0.08788971602916718, 0.09083738178014755, 0.09378504753112793, 0.09673270583152771, 0.09968036413192749, 0.10262802988290787, 0.10557569563388824, 0.10852335393428802]}, "gradients/b2.bias": {"_type": "histogram", "values": [1.0, 0.0, 0.0, 0.0, 0.0, 0.0, 0.0, 0.0, 0.0, 0.0, 0.0, 0.0, 0.0, 0.0, 0.0, 0.0, 0.0, 0.0, 0.0, 0.0, 0.0, 0.0, 0.0, 0.0, 0.0, 0.0, 0.0, 0.0, 0.0, 0.0, 0.0, 0.0, 0.0, 0.0, 0.0, 0.0, 5.0, 0.0, 1.0, 0.0, 0.0, 0.0, 0.0, 0.0, 0.0, 0.0, 0.0, 0.0, 0.0, 0.0, 0.0, 0.0, 0.0, 0.0, 0.0, 0.0, 0.0, 0.0, 0.0, 0.0, 0.0, 0.0, 0.0, 1.0], "bins": [-0.023903019726276398, -0.023256734013557434, -0.02261045016348362, -0.021964164450764656, -0.02131788060069084, -0.020671594887971878, -0.020025311037898064, -0.0193790253251791, -0.018732741475105286, -0.018086455762386322, -0.017440171912312508, -0.016793886199593544, -0.01614760234951973, -0.015501316636800766, -0.014855031855404377, -0.014208747074007988, -0.013562461361289024, -0.012916176579892635, -0.012269891798496246, -0.011623607017099857, -0.010977322235703468, -0.010331036522984505, -0.009684751741588116, -0.009038466960191727, -0.008392182178795338, -0.007745897397398949, -0.00709961261600256, -0.006453327368944883, -0.005807042587548494, -0.005160757806152105, -0.004514472559094429, -0.00386818777769804, -0.0032219048589468002, -0.0025756200775504112, -0.0019293350633233786, -0.0012830501655116677, -0.0006367652676999569, 9.519513696432114e-06, 0.0006558045279234648, 0.0013020895421504974, 0.0019483743235468864, 0.0025946591049432755, 0.003240944119170308, 0.0038872291333973408, 0.00453351391479373, 0.005179798696190119, 0.005826083943247795, 0.006472368724644184, 0.007118653506040573, 0.007764938287436962, 0.008411223068833351, 0.00905750785022974, 0.00970379263162613, 0.010350078344345093, 0.010996363125741482, 0.01164264790713787, 0.01228893268853426, 0.012935217469930649, 0.013581502251327038, 0.014227787032723427, 0.01487407274544239, 0.015520356595516205, 0.01616664230823517, 0.016812928020954132, 0.017459211871027946]}, "gradients/fc2.bias": {"_type": "histogram", "values": [6.0, 0.0, 0.0, 0.0, 0.0, 0.0, 0.0, 0.0, 1.0, 0.0, 0.0, 0.0, 0.0, 0.0, 0.0, 0.0, 0.0, 0.0, 0.0, 0.0, 0.0, 0.0, 0.0, 0.0, 0.0, 0.0, 0.0, 0.0, 0.0, 0.0, 0.0, 0.0, 0.0, 0.0, 0.0, 0.0, 0.0, 0.0, 0.0, 0.0, 0.0, 0.0, 0.0, 0.0, 0.0, 0.0, 0.0, 0.0, 0.0, 0.0, 0.0, 0.0, 0.0, 0.0, 0.0, 0.0, 0.0, 0.0, 0.0, 0.0, 0.0, 0.0, 0.0, 1.0], "bins": [-5.2583927754312754e-05, 0.0006371877971105278, 0.0013269595801830292, 0.0020167313050478697, 0.00270650302991271, 0.0033962747547775507, 0.004086046479642391, 0.004775817971676588, 0.005465589929372072, 0.006155361421406269, 0.006845133379101753, 0.007534905336797237, 0.008224677294492722, 0.008914448320865631, 0.009604220278561115, 0.0102939922362566, 0.010983763262629509, 0.011673535220324993, 0.012363307178020477, 0.013053078204393387, 0.013742850162088871, 0.014432622119784355, 0.015122393146157265, 0.015812166035175323, 0.016501937061548233, 0.017191708087921143, 0.0178814809769392, 0.01857125200331211, 0.01926102489233017, 0.01995079591870308, 0.02064056694507599, 0.0213303379714489, 0.022020112723112106, 0.022709883749485016, 0.023399656638503075, 0.024089427664875984, 0.024779200553894043, 0.025468971580266953, 0.026158742606639862, 0.02684851363301277, 0.02753828652203083, 0.02822805754840374, 0.0289178304374218, 0.029607601463794708, 0.030297372490167618, 0.030987145379185677, 0.031676918268203735, 0.032366689294576645, 0.033056460320949554, 0.033746231347322464, 0.034436002373695374, 0.03512577712535858, 0.03581554815173149, 0.0365053191781044, 0.03719509020447731, 0.03788486123085022, 0.03857463598251343, 0.03926440700888634, 0.03995417803525925, 0.040643952786922455, 0.041333723813295364, 0.042023494839668274, 0.042713265866041183, 0.04340303689241409, 0.044092807918787]}, "gradients/fc2.weight": {"_type": "histogram", "values": [1.0, 1.0, 0.0, 0.0, 0.0, 1.0, 2.0, 4.0, 8.0, 101.0, 2.0, 2.0, 0.0, 1.0, 0.0, 1.0, 0.0, 0.0, 0.0, 0.0, 0.0, 1.0, 0.0, 0.0, 0.0, 0.0, 0.0, 0.0, 0.0, 0.0, 0.0, 0.0, 0.0, 0.0, 0.0, 0.0, 0.0, 1.0, 0.0, 0.0, 0.0, 0.0, 0.0, 0.0, 0.0, 1.0, 0.0, 0.0, 0.0, 0.0, 0.0, 0.0, 0.0, 0.0, 0.0, 0.0, 0.0, 0.0, 0.0, 0.0, 0.0, 0.0, 0.0, 1.0], "bins": [-0.04862646386027336, -0.04324167221784592, -0.03785688057541847, -0.03247208893299103, -0.027087295427918434, -0.02170250378549099, -0.016317710280418396, -0.010932918637990952, -0.005548126995563507, -0.00016333488747477531, 0.0052214572206139565, 0.010606249794363976, 0.01599104143679142, 0.021375833079218864, 0.026760626584291458, 0.0321454182267189, 0.03753020986914635, 0.04291500151157379, 0.048299793154001236, 0.05368458479642868, 0.05906938016414642, 0.06445416808128357, 0.06983896344900131, 0.07522375881671906, 0.0806085467338562, 0.08599334210157394, 0.09137813001871109, 0.09676292538642883, 0.10214771330356598, 0.10753250867128372, 0.11291730403900146, 0.11830209195613861, 0.12368689477443695, 0.1290716826915741, 0.13445648550987244, 0.13984127342700958, 0.14522606134414673, 0.15061084926128387, 0.15599565207958221, 0.16138043999671936, 0.1667652279138565, 0.17215001583099365, 0.177534818649292, 0.18291960656642914, 0.18830439448356628, 0.19368918240070343, 0.19907398521900177, 0.20445877313613892, 0.20984357595443726, 0.2152283638715744, 0.22061316668987274, 0.2259979546070099, 0.23138274252414703, 0.23676753044128418, 0.24215233325958252, 0.24753712117671967, 0.2529219090938568, 0.25830671191215515, 0.2636914849281311, 0.26907628774642944, 0.2744610905647278, 0.27984586358070374, 0.2852306663990021, 0.290615439414978, 0.29600024223327637]}, "gradients/b1.weight": {"_type": "histogram", "values": [1.0, 0.0, 0.0, 0.0, 0.0, 0.0, 0.0, 0.0, 0.0, 0.0, 0.0, 0.0, 0.0, 0.0, 0.0, 0.0, 0.0, 0.0, 0.0, 1.0, 0.0, 0.0, 1.0, 1.0, 0.0, 1.0, 1.0, 6.0, 0.0, 1.0, 2.0, 0.0, 0.0, 0.0, 0.0, 0.0, 0.0, 0.0, 0.0, 0.0, 0.0, 0.0, 0.0, 0.0, 0.0, 0.0, 0.0, 0.0, 0.0, 0.0, 0.0, 0.0, 0.0, 0.0, 0.0, 0.0, 0.0, 0.0, 0.0, 0.0, 0.0, 0.0, 0.0, 1.0], "bins": [-0.14773917198181152, -0.1424407660961151, -0.1371423602104187, -0.1318439394235611, -0.12654553353786469, -0.12124712765216827, -0.11594871431589127, -0.11065030097961426, -0.10535189509391785, -0.10005348920822144, -0.09475507587194443, -0.08945666253566742, -0.08415825664997101, -0.0788598507642746, -0.07356143742799759, -0.06826302409172058, -0.06296461820602417, -0.05766620859503746, -0.05236779898405075, -0.04706938937306404, -0.04177097976207733, -0.03647257015109062, -0.031174160540103912, -0.025875750929117203, -0.020577341318130493, -0.015278931707143784, -0.009980522096157074, -0.004682112485170364, 0.0006162971258163452, 0.005914706736803055, 0.011213116347789764, 0.016511525958776474, 0.021809935569763184, 0.027108345180749893, 0.0324067547917366, 0.03770516440272331, 0.04300357401371002, 0.04830198362469673, 0.05360039323568344, 0.05889880284667015, 0.06419721245765686, 0.06949561834335327, 0.07479403167963028, 0.08009244501590729, 0.0853908509016037, 0.09068925678730011, 0.09598767012357712, 0.10128608345985413, 0.10658448934555054, 0.11188289523124695, 0.11718130856752396, 0.12247972190380096, 0.12777812778949738, 0.1330765336751938, 0.1383749544620514, 0.1436733603477478, 0.1489717662334442, 0.15427017211914062, 0.15956857800483704, 0.16486699879169464, 0.17016540467739105, 0.17546381056308746, 0.18076223134994507, 0.18606063723564148, 0.1913590431213379]}, "gradients/b1.bias": {"_type": "histogram", "values": [1.0, 0.0, 0.0, 0.0, 0.0, 0.0, 0.0, 0.0, 0.0, 0.0, 0.0, 0.0, 1.0, 0.0, 0.0, 0.0, 0.0, 0.0, 0.0, 0.0, 0.0, 0.0, 0.0, 2.0, 0.0, 0.0, 0.0, 0.0, 1.0, 0.0, 0.0, 0.0, 0.0, 0.0, 0.0, 0.0, 0.0, 0.0, 0.0, 0.0, 0.0, 1.0, 0.0, 1.0, 0.0, 0.0, 6.0, 0.0, 0.0, 0.0, 0.0, 1.0, 0.0, 0.0, 0.0, 0.0, 0.0, 0.0, 0.0, 0.0, 0.0, 0.0, 0.0, 2.0], "bins": [-0.04187098145484924, -0.04096592962741852, -0.04006087779998779, -0.03915582597255707, -0.03825077414512634, -0.03734572231769562, -0.03644067049026489, -0.03553561866283417, -0.03463056683540344, -0.03372551500797272, -0.03282046318054199, -0.03191541135311127, -0.031010359525680542, -0.030105307698249817, -0.029200255870819092, -0.028295204043388367, -0.02739015221595764, -0.026485100388526917, -0.02558004856109619, -0.024674996733665466, -0.02376994490623474, -0.022864893078804016, -0.02195984125137329, -0.021054789423942566, -0.02014973759651184, -0.019244685769081116, -0.01833963394165039, -0.017434582114219666, -0.01652953028678894, -0.015624478459358215, -0.01471942663192749, -0.013814374804496765, -0.01290932111442089, -0.012004269286990166, -0.01109921745955944, -0.010194165632128716, -0.00928911380469799, -0.008384061977267265, -0.00747901014983654, -0.006573958322405815, -0.00566890649497509, -0.004763854667544365, -0.00385880284011364, -0.0029537510126829147, -0.0020486991852521896, -0.0011436473578214645, -0.00023859553039073944, 0.0006664562970399857, 0.0015715081244707108, 0.002476559951901436, 0.003381611779332161, 0.004286663606762886, 0.005191715434193611, 0.006096767261624336, 0.007001819089055061, 0.007906870916485786, 0.008811922743916512, 0.009716974571347237, 0.010622026398777962, 0.011527078226208687, 0.012432130053639412, 0.013337181881070137, 0.014242233708500862, 0.015147285535931587, 0.016052337363362312]}, "gradients/fc1.bias": {"_type": "histogram", "values": [1.0, 0.0, 0.0, 0.0, 0.0, 0.0, 0.0, 0.0, 0.0, 0.0, 0.0, 0.0, 0.0, 0.0, 0.0, 1.0, 0.0, 0.0, 0.0, 0.0, 0.0, 0.0, 0.0, 6.0, 0.0, 2.0, 0.0, 0.0, 1.0, 0.0, 1.0, 0.0, 0.0, 0.0, 1.0, 0.0, 0.0, 0.0, 0.0, 0.0, 0.0, 0.0, 0.0, 0.0, 0.0, 0.0, 0.0, 0.0, 0.0, 0.0, 0.0, 0.0, 1.0, 0.0, 0.0, 0.0, 1.0, 0.0, 0.0, 0.0, 0.0, 0.0, 0.0, 1.0], "bins": [-0.02456248179078102, -0.023515867069363594, -0.022469250485301018, -0.02142263576388359, -0.020376019179821014, -0.019329404458403587, -0.01828278973698616, -0.017236173152923584, -0.016189558431506157, -0.015142942778766155, -0.014096327126026154, -0.013049712404608727, -0.012003096751868725, -0.010956481099128723, -0.009909866377711296, -0.008863250724971294, -0.007816635072231293, -0.006770019419491291, -0.005723404232412577, -0.004676789045333862, -0.0036301733925938606, -0.002583557739853859, -0.0015369425527751446, -0.0004903273656964302, 0.0005562882870435715, 0.0016029037069529295, 0.0026495191268622875, 0.0036961345467716455, 0.004742749966681004, 0.005789365619421005, 0.00683598080649972, 0.007882595993578434, 0.008929211646318436, 0.009975827299058437, 0.011022442951798439, 0.012069057673215866, 0.013115673325955868, 0.01416228897869587, 0.015208903700113297, 0.016255520284175873, 0.0173021350055933, 0.018348749727010727, 0.019395366311073303, 0.02044198103249073, 0.021488595753908157, 0.022535212337970734, 0.02358182705938816, 0.024628441780805588, 0.025675058364868164, 0.02672167308628559, 0.027768289670348167, 0.028814904391765594, 0.02986152097582817, 0.030908135697245598, 0.031954750418663025, 0.0330013670027256, 0.03404798358678818, 0.035094600170850754, 0.03614121302962303, 0.03718782961368561, 0.038234446197748184, 0.03928106278181076, 0.04032767564058304, 0.041374292224645615, 0.04242090508341789]}, "gradients/fc1.weight": {"_type": "histogram", "values": [1.0, 1.0, 0.0, 0.0, 0.0, 1.0, 0.0, 0.0, 3.0, 2.0, 3.0, 2.0, 3.0, 7.0, 3.0, 9.0, 12.0, 8.0, 14.0, 8.0, 17.0, 176.0, 42.0, 26.0, 13.0, 13.0, 7.0, 12.0, 11.0, 6.0, 4.0, 1.0, 2.0, 2.0, 0.0, 1.0, 2.0, 0.0, 0.0, 0.0, 1.0, 1.0, 0.0, 0.0, 0.0, 0.0, 0.0, 0.0, 0.0, 0.0, 0.0, 0.0, 1.0, 0.0, 0.0, 0.0, 0.0, 0.0, 0.0, 0.0, 0.0, 0.0, 0.0, 1.0], "bins": [-0.10409296303987503, -0.09935719519853592, -0.0946214348077774, -0.0898856669664383, -0.08514990657567978, -0.08041413873434067, -0.07567837834358215, -0.07094261050224304, -0.06620684266090393, -0.06147107854485512, -0.056735314428806305, -0.051999546587467194, -0.04726378619670868, -0.04252801835536957, -0.037792254239320755, -0.03305649012327194, -0.028320729732513428, -0.023584965616464615, -0.018849201500415802, -0.01411343552172184, -0.009377671405673027, -0.004641907289624214, 9.385868906974792e-05, 0.004829622805118561, 0.009565390646457672, 0.014301154762506485, 0.019036918878555298, 0.02377268485724926, 0.028508448973298073, 0.033244214951992035, 0.03797997906804085, 0.04271574318408966, 0.04745151102542877, 0.052187275141477585, 0.0569230392575264, 0.06165880709886551, 0.06639456748962402, 0.07113033533096313, 0.07586610317230225, 0.08060186356306076, 0.08533762395381927, 0.09007339179515839, 0.0948091521859169, 0.09954492002725601, 0.10428068041801453, 0.10901644825935364, 0.11375221610069275, 0.11848797649145126, 0.12322374433279037, 0.1279595047235489, 0.132695272564888, 0.1374310404062271, 0.14216680824756622, 0.14690256118774414, 0.15163832902908325, 0.15637409687042236, 0.16110986471176147, 0.16584563255310059, 0.1705814003944397, 0.17531715333461761, 0.18005292117595673, 0.18478868901729584, 0.18952445685863495, 0.19426020979881287, 0.19899597764015198]}, "train_accuracy": 0.8966480446927374, "_runtime": 123, "_timestamp": 1641481552, "_step": 1799, "train_loss": 4.815519082942046, "scheduled_learning_rate_train": 0.01, "test_accuracy": 0.8094462540716613, "test_loss": 3.681696116924286, "learning_rate_test": 0.01, "_wandb": {"runtime": 122}}