{"parameters/fc1.weight": {"_type": "histogram", "values": [4.0, 1.0, 3.0, 6.0, 4.0, 1.0, 2.0, 3.0, 1.0, 6.0, 2.0, 1.0, 5.0, 4.0, 3.0, 4.0, 10.0, 9.0, 4.0, 6.0, 9.0, 4.0, 6.0, 6.0, 8.0, 7.0, 7.0, 147.0, 9.0, 11.0, 5.0, 11.0, 6.0, 8.0, 9.0, 12.0, 8.0, 9.0, 5.0, 5.0, 2.0, 7.0, 7.0, 2.0, 3.0, 3.0, 0.0, 4.0, 6.0, 2.0, 2.0, 0.0, 1.0, 2.0, 0.0, 1.0, 0.0, 0.0, 2.0, 0.0, 0.0, 0.0, 0.0, 1.0], "bins": [-0.5831137299537659, -0.5617710947990417, -0.5404285192489624, -0.5190858840942383, -0.49774330854415894, -0.4764007031917572, -0.45505809783935547, -0.43371546268463135, -0.412372887134552, -0.39103028178215027, -0.36968767642974854, -0.3483450710773468, -0.32700246572494507, -0.30565986037254333, -0.2843172550201416, -0.2629746198654175, -0.24163201451301575, -0.220289409160614, -0.19894680380821228, -0.17760419845581055, -0.1562615931034088, -0.13491898775100708, -0.11357636749744415, -0.09223376214504242, -0.07089114189147949, -0.04954853653907776, -0.028205927461385727, -0.006863318383693695, 0.014479286968708038, 0.03582189232110977, 0.0571645051240921, 0.07850711047649384, 0.09984970092773438, 0.12119230628013611, 0.14253491163253784, 0.16387751698493958, 0.1852201223373413, 0.20656272768974304, 0.22790534794330597, 0.2492479532957077, 0.27059054374694824, 0.29193314909935, 0.3132757544517517, 0.33461835980415344, 0.3559609651565552, 0.3773035705089569, 0.39864617586135864, 0.41998881101608276, 0.4413314163684845, 0.46267402172088623, 0.48401662707328796, 0.5053592324256897, 0.5267018675804138, 0.5480444431304932, 0.5693870782852173, 0.5907296538352966, 0.6120722889900208, 0.6334149241447449, 0.6547574996948242, 0.6761001348495483, 0.6974427103996277, 0.7187853455543518, 0.7401279211044312, 0.7614705562591553, 0.7828131318092346]}, "parameters/fc1.bias": {"_type": "histogram", "values": [1.0, 0.0, 0.0, 0.0, 0.0, 0.0, 0.0, 0.0, 0.0, 0.0, 0.0, 0.0, 0.0, 0.0, 0.0, 2.0, 0.0, 1.0, 0.0, 0.0, 1.0, 0.0, 0.0, 1.0, 1.0, 0.0, 0.0, 0.0, 0.0, 0.0, 1.0, 1.0, 0.0, 0.0, 0.0, 0.0, 0.0, 0.0, 0.0, 0.0, 0.0, 0.0, 0.0, 0.0, 0.0, 0.0, 1.0, 0.0, 0.0, 0.0, 0.0, 0.0, 0.0, 0.0, 0.0, 0.0, 0.0, 0.0, 0.0, 0.0, 0.0, 0.0, 0.0, 6.0], "bins": [-1.1741265058517456, -1.1556928157806396, -1.1372591257095337, -1.1188254356384277, -1.1003917455673218, -1.0819580554962158, -1.0635243654251099, -1.045090675354004, -1.026656985282898, -1.008223295211792, -0.989789605140686, -0.9713559150695801, -0.9529222249984741, -0.9344885349273682, -0.9160548448562622, -0.8976211547851562, -0.8791874647140503, -0.8607537746429443, -0.8423200845718384, -0.8238863945007324, -0.8054527044296265, -0.7870190143585205, -0.7685853242874146, -0.7501516342163086, -0.7317179441452026, -0.7132842540740967, -0.6948505640029907, -0.6764168739318848, -0.6579831838607788, -0.6395494937896729, -0.6211158037185669, -0.6026821136474609, -0.5842483639717102, -0.5658146739006042, -0.5473809838294983, -0.5289472937583923, -0.5105136036872864, -0.4920799136161804, -0.47364622354507446, -0.4552125334739685, -0.43677887320518494, -0.418345183134079, -0.399911493062973, -0.38147780299186707, -0.3630441129207611, -0.34461042284965515, -0.3261767327785492, -0.30774304270744324, -0.2893093526363373, -0.2708756625652313, -0.25244197249412537, -0.2340082824230194, -0.21557459235191345, -0.1971409022808075, -0.17870721220970154, -0.16027352213859558, -0.14183981716632843, -0.12340612709522247, -0.10497243702411652, -0.08653874695301056, -0.0681050568819046, -0.049671366810798645, -0.031237676739692688, -0.012803986668586731, 0.005629699677228928]}, "parameters/b1.weight": {"_type": "histogram", "values": [5.0, 0.0, 0.0, 0.0, 0.0, 0.0, 0.0, 0.0, 0.0, 0.0, 0.0, 0.0, 0.0, 0.0, 0.0, 0.0, 0.0, 0.0, 0.0, 0.0, 0.0, 0.0, 0.0, 0.0, 0.0, 0.0, 0.0, 0.0, 0.0, 0.0, 0.0, 0.0, 0.0, 1.0, 0.0, 0.0, 0.0, 0.0, 0.0, 1.0, 0.0, 1.0, 1.0, 1.0, 0.0, 1.0, 0.0, 0.0, 0.0, 1.0, 0.0, 0.0, 0.0, 0.0, 0.0, 0.0, 1.0, 0.0, 0.0, 1.0, 0.0, 0.0, 0.0, 2.0], "bins": [4.533817940553031e-32, 0.009920629672706127, 0.019841259345412254, 0.029761888086795807, 0.03968251869082451, 0.04960314929485321, 0.059523776173591614, 0.06944441050291061, 0.07936503738164902, 0.08928566426038742, 0.09920629858970642, 0.10912692546844482, 0.11904755234718323, 0.12896817922592163, 0.13888880610466003, 0.14880944788455963, 0.15873007476329803, 0.16865070164203644, 0.17857132852077484, 0.18849197030067444, 0.19841259717941284, 0.20833322405815125, 0.21825385093688965, 0.22817447781562805, 0.23809510469436646, 0.24801573157310486, 0.25793635845184326, 0.26785698533058167, 0.27777761220932007, 0.28769826889038086, 0.2976188659667969, 0.30753952264785767, 0.31746014952659607, 0.3273807764053345, 0.3373014032840729, 0.3472220301628113, 0.3571426570415497, 0.3670632839202881, 0.3769839406013489, 0.3869045674800873, 0.3968251943588257, 0.4067458212375641, 0.4166664481163025, 0.4265870749950409, 0.4365077018737793, 0.4464283585548401, 0.4563489556312561, 0.4662696123123169, 0.4761902093887329, 0.4861108362674713, 0.4960314631462097, 0.5059521198272705, 0.5158727169036865, 0.5257933735847473, 0.5357139706611633, 0.5456346273422241, 0.5555552840232849, 0.5654759407043457, 0.5753965377807617, 0.5853171944618225, 0.5952377915382385, 0.6051584482192993, 0.6150790452957153, 0.6249997019767761, 0.6349202990531921]}, "parameters/b1.bias": {"_type": "histogram", "values": [1.0, 0.0, 0.0, 0.0, 0.0, 0.0, 0.0, 1.0, 0.0, 0.0, 0.0, 1.0, 0.0, 0.0, 0.0, 0.0, 0.0, 0.0, 0.0, 0.0, 0.0, 0.0, 0.0, 0.0, 0.0, 0.0, 0.0, 1.0, 0.0, 0.0, 0.0, 0.0, 5.0, 0.0, 0.0, 0.0, 0.0, 0.0, 0.0, 0.0, 0.0, 0.0, 0.0, 0.0, 0.0, 0.0, 1.0, 0.0, 1.0, 1.0, 1.0, 0.0, 0.0, 0.0, 0.0, 0.0, 0.0, 0.0, 0.0, 0.0, 0.0, 0.0, 1.0, 2.0], "bins": [-0.21178250014781952, -0.20533184707164764, -0.19888120889663696, -0.1924305558204651, -0.1859799027442932, -0.17952924966812134, -0.17307859659194946, -0.16662795841693878, -0.1601773053407669, -0.15372665226459503, -0.14727601408958435, -0.14082536101341248, -0.1343747079372406, -0.12792405486106873, -0.12147340923547745, -0.11502276360988617, -0.1085721105337143, -0.10212145745754242, -0.09567081183195114, -0.08922016620635986, -0.08276951313018799, -0.07631886005401611, -0.06986821442842484, -0.06341756880283356, -0.05696691572666168, -0.050516266375780106, -0.04406561702489853, -0.03761496767401695, -0.031164318323135376, -0.0247136689722538, -0.018263019621372223, -0.011812370270490646, -0.005361735820770264, 0.0010889135301113129, 0.007539562880992889, 0.013990212231874466, 0.020440861582756042, 0.02689151093363762, 0.033342160284519196, 0.03979280963540077, 0.04624345898628235, 0.052694108337163925, 0.0591447576880455, 0.06559540331363678, 0.07204605638980865, 0.07849670946598053, 0.08494735509157181, 0.09139800071716309, 0.09784865379333496, 0.10429930686950684, 0.11074995249509811, 0.11720059812068939, 0.12365125119686127, 0.13010190427303314, 0.13655254244804382, 0.1430031955242157, 0.14945384860038757, 0.15590450167655945, 0.16235515475273132, 0.168805792927742, 0.17525644600391388, 0.18170709908008575, 0.18815773725509644, 0.1946083903312683, 0.20105904340744019]}, "parameters/fc2.weight": {"_type": "histogram", "values": [1.0, 0.0, 1.0, 3.0, 0.0, 1.0, 0.0, 0.0, 0.0, 0.0, 0.0, 0.0, 2.0, 0.0, 0.0, 0.0, 1.0, 1.0, 0.0, 0.0, 0.0, 2.0, 2.0, 0.0, 2.0, 0.0, 2.0, 1.0, 0.0, 3.0, 0.0, 0.0, 2.0, 76.0, 4.0, 1.0, 0.0, 2.0, 4.0, 1.0, 3.0, 0.0, 3.0, 2.0, 0.0, 1.0, 0.0, 2.0, 2.0, 0.0, 0.0, 0.0, 0.0, 0.0, 0.0, 0.0, 1.0, 1.0, 0.0, 0.0, 0.0, 0.0, 0.0, 1.0], "bins": [-0.6058045625686646, -0.5876567959785461, -0.569508969783783, -0.5513612031936646, -0.5332133769989014, -0.515065610408783, -0.49691784381866455, -0.47877004742622375, -0.46062225103378296, -0.44247445464134216, -0.42432665824890137, -0.40617889165878296, -0.38803109526634216, -0.36988329887390137, -0.35173553228378296, -0.33358773589134216, -0.31543993949890137, -0.29729214310646057, -0.2791443467140198, -0.26099658012390137, -0.24284878373146057, -0.22470098733901978, -0.20655320584774017, -0.18840542435646057, -0.17025762796401978, -0.15210983157157898, -0.13396205008029938, -0.11581426113843918, -0.09766647219657898, -0.07951868325471878, -0.06137089431285858, -0.04322311282157898, -0.025075256824493408, -0.006927467882633209, 0.01122032105922699, 0.02936811000108719, 0.04751589894294739, 0.06566368788480759, 0.08381147682666779, 0.10195925831794739, 0.12010705471038818, 0.13825485110282898, 0.15640263259410858, 0.17455041408538818, 0.19269821047782898, 0.21084600687026978, 0.22899378836154938, 0.24714156985282898, 0.2652893662452698, 0.28343716263771057, 0.30158495903015137, 0.3197327256202698, 0.33788052201271057, 0.35602831840515137, 0.3741760849952698, 0.39232388138771057, 0.41047167778015137, 0.42861947417259216, 0.44676727056503296, 0.46491503715515137, 0.48306283354759216, 0.501210629940033, 0.5193583965301514, 0.5375062227249146, 0.555653989315033]}, "parameters/fc2.bias": {"_type": "histogram", "values": [1.0, 0.0, 0.0, 0.0, 0.0, 0.0, 0.0, 0.0, 0.0, 0.0, 0.0, 0.0, 0.0, 0.0, 0.0, 0.0, 0.0, 0.0, 0.0, 0.0, 0.0, 0.0, 0.0, 0.0, 0.0, 0.0, 0.0, 0.0, 0.0, 0.0, 1.0, 0.0, 0.0, 0.0, 0.0, 0.0, 0.0, 0.0, 0.0, 0.0, 0.0, 0.0, 0.0, 0.0, 0.0, 0.0, 0.0, 0.0, 0.0, 0.0, 0.0, 0.0, 0.0, 0.0, 0.0, 0.0, 0.0, 0.0, 0.0, 0.0, 1.0, 0.0, 1.0, 4.0], "bins": [-0.35373249650001526, -0.34820541739463806, -0.34267836809158325, -0.33715128898620605, -0.33162420988082886, -0.32609713077545166, -0.32057008147239685, -0.31504300236701965, -0.30951592326164246, -0.30398884415626526, -0.29846179485321045, -0.29293471574783325, -0.28740763664245605, -0.28188055753707886, -0.27635350823402405, -0.27082642912864685, -0.26529937982559204, -0.25977230072021484, -0.25424525141716003, -0.24871817231178284, -0.24319109320640564, -0.23766402900218964, -0.23213696479797363, -0.22660988569259644, -0.22108280658721924, -0.21555574238300323, -0.21002866327762604, -0.20450159907341003, -0.19897451996803284, -0.19344745576381683, -0.18792039155960083, -0.18239331245422363, -0.17686624825000763, -0.17133918404579163, -0.16581210494041443, -0.16028504073619843, -0.15475796163082123, -0.14923089742660522, -0.14370381832122803, -0.13817675411701202, -0.13264968991279602, -0.12712262570858002, -0.12159554660320282, -0.11606848239898682, -0.11054141074419022, -0.10501433908939362, -0.09948726743459702, -0.09396019577980042, -0.08843312412500381, -0.08290605247020721, -0.07737898081541061, -0.07185190916061401, -0.06632484495639801, -0.06079777330160141, -0.05527070164680481, -0.04974363371729851, -0.04421656206250191, -0.03868949040770531, -0.033162422478199005, -0.027635350823402405, -0.022108281031250954, -0.016581211239099503, -0.011054139584302902, -0.0055270716547966, -2.423510825618556e-32]}, "parameters/b2.weight": {"_type": "histogram", "values": [3.0, 0.0, 0.0, 0.0, 0.0, 0.0, 0.0, 0.0, 0.0, 0.0, 0.0, 0.0, 0.0, 0.0, 0.0, 0.0, 0.0, 0.0, 0.0, 0.0, 0.0, 3.0, 0.0, 0.0, 0.0, 0.0, 0.0, 0.0, 0.0, 0.0, 0.0, 0.0, 0.0, 0.0, 0.0, 0.0, 0.0, 0.0, 0.0, 0.0, 0.0, 0.0, 0.0, 0.0, 0.0, 0.0, 0.0, 1.0, 0.0, 0.0, 0.0, 0.0, 0.0, 0.0, 0.0, 0.0, 0.0, 0.0, 0.0, 0.0, 0.0, 0.0, 0.0, 1.0], "bins": [6.521663589345175e-18, 0.009390415623784065, 0.01878083124756813, 0.028171246871352196, 0.03756166249513626, 0.04695207625627518, 0.05634249374270439, 0.0657329112291336, 0.07512332499027252, 0.08451373875141144, 0.09390415251255035, 0.10329457372426987, 0.11268498748540878, 0.1220754012465477, 0.1314658224582672, 0.14085623621940613, 0.15024664998054504, 0.15963706374168396, 0.16902747750282288, 0.1784178912639618, 0.1878083050251007, 0.19719871878623962, 0.20658914744853973, 0.21597956120967865, 0.22536997497081757, 0.23476038873195648, 0.2441508024930954, 0.2535412311553955, 0.2629316449165344, 0.27232205867767334, 0.28171247243881226, 0.29110288619995117, 0.3004932999610901, 0.309883713722229, 0.3192741274833679, 0.32866454124450684, 0.33805495500564575, 0.34744536876678467, 0.3568357825279236, 0.3662261962890625, 0.3756166100502014, 0.38500702381134033, 0.39439743757247925, 0.40378785133361816, 0.4131782650947571, 0.422568678855896, 0.4319590926170349, 0.44134950637817383, 0.45073994994163513, 0.46013036370277405, 0.46952077746391296, 0.4789111912250519, 0.4883016049861908, 0.4976920187473297, 0.507082462310791, 0.5164728760719299, 0.5258632898330688, 0.5352537035942078, 0.5446441173553467, 0.5540345311164856, 0.5634249448776245, 0.5728153586387634, 0.5822057723999023, 0.5915961861610413, 0.6009865999221802]}, "parameters/b2.bias": {"_type": "histogram", "values": [1.0, 0.0, 0.0, 0.0, 0.0, 0.0, 0.0, 0.0, 0.0, 0.0, 0.0, 0.0, 0.0, 0.0, 0.0, 0.0, 0.0, 0.0, 1.0, 0.0, 0.0, 0.0, 0.0, 0.0, 0.0, 1.0, 0.0, 0.0, 0.0, 0.0, 0.0, 0.0, 0.0, 0.0, 0.0, 0.0, 0.0, 0.0, 0.0, 0.0, 0.0, 0.0, 0.0, 0.0, 3.0, 0.0, 0.0, 0.0, 0.0, 0.0, 0.0, 0.0, 0.0, 0.0, 0.0, 0.0, 1.0, 0.0, 0.0, 0.0, 0.0, 0.0, 0.0, 1.0], "bins": [-0.36117982864379883, -0.35309967398643494, -0.34501954913139343, -0.33693939447402954, -0.32885923981666565, -0.32077908515930176, -0.31269896030426025, -0.30461880564689636, -0.29653865098953247, -0.2884584963321686, -0.2803783714771271, -0.2722982168197632, -0.2642180621623993, -0.2561379075050354, -0.2480577826499939, -0.23997762799263, -0.2318974882364273, -0.2238173484802246, -0.21573719382286072, -0.20765705406665802, -0.19957689940929413, -0.19149675965309143, -0.18341660499572754, -0.17533646523952484, -0.16725632548332214, -0.15917618572711945, -0.15109603106975555, -0.14301589131355286, -0.13493573665618896, -0.12685559689998627, -0.11877544969320297, -0.11069530248641968, -0.10261513292789459, -0.0945349857211113, -0.086454838514328, -0.0783746987581253, -0.07029454410076141, -0.06221440061926842, -0.05413425713777542, -0.046054109930992126, -0.037973955273628235, -0.02989380806684494, -0.021813662722706795, -0.01373351737856865, -0.005653370171785355, 0.00242677703499794, 0.010506920516490936, 0.01858706772327423, 0.02666720747947693, 0.03474735468626022, 0.04282750189304352, 0.050907645374536514, 0.05898779258131981, 0.0670679360628128, 0.0751480832695961, 0.0832282304763794, 0.09130837768316269, 0.09938852488994598, 0.10746867209672928, 0.11554881930351257, 0.12362895905971527, 0.13170911371707916, 0.13978925347328186, 0.14786940813064575, 0.15594954788684845]}, "parameters/fc3.weight": {"_type": "histogram", "values": [1.0, 0.0, 0.0, 0.0, 0.0, 0.0, 0.0, 0.0, 0.0, 1.0, 1.0, 0.0, 0.0, 0.0, 1.0, 0.0, 0.0, 1.0, 0.0, 0.0, 0.0, 22.0, 0.0, 0.0, 0.0, 0.0, 0.0, 0.0, 1.0, 0.0, 1.0, 0.0, 0.0, 0.0, 1.0, 0.0, 0.0, 0.0, 0.0, 0.0, 0.0, 0.0, 0.0, 0.0, 1.0, 0.0, 0.0, 0.0, 0.0, 0.0, 0.0, 0.0, 0.0, 0.0, 0.0, 0.0, 0.0, 0.0, 0.0, 0.0, 0.0, 0.0, 0.0, 1.0], "bins": [-0.3502919375896454, -0.33371207118034363, -0.31713220477104187, -0.3005523383617401, -0.28397247195243835, -0.2673926055431366, -0.25081270933151245, -0.2342328578233719, -0.21765299141407013, -0.20107312500476837, -0.1844932585954666, -0.16791337728500366, -0.1513335108757019, -0.13475364446640015, -0.11817377805709839, -0.10159391164779663, -0.08501404523849487, -0.06843417882919312, -0.05185430869460106, -0.035274438560009, -0.018694572150707245, -0.002114705741405487, 0.014465168118476868, 0.031045034527778625, 0.04762491583824158, 0.06420478224754333, 0.08078464865684509, 0.09736452251672745, 0.1139443889260292, 0.13052424788475037, 0.14710412919521332, 0.16368399560451508, 0.18026387691497803, 0.19684374332427979, 0.21342360973358154, 0.2300034761428833, 0.24658334255218506, 0.2631632089614868, 0.2797430753707886, 0.29632294178009033, 0.3129028081893921, 0.32948267459869385, 0.3460625410079956, 0.36264240741729736, 0.3792222738265991, 0.3958021402359009, 0.41238200664520264, 0.4289618730545044, 0.44554176926612854, 0.4621216356754303, 0.47870150208473206, 0.4952813684940338, 0.511861264705658, 0.5284411311149597, 0.5450209975242615, 0.5616008639335632, 0.578180730342865, 0.5947605967521667, 0.6113404631614685, 0.6279203295707703, 0.644500195980072, 0.6610800623893738, 0.6776599287986755, 0.6942397952079773, 0.710819661617279]}, "parameters/fc3.bias": {"_type": "histogram", "values": [1.0, 0.0, 0.0, 0.0, 0.0, 0.0, 0.0, 0.0, 0.0, 0.0, 0.0, 0.0, 0.0, 0.0, 0.0, 0.0, 0.0, 0.0, 0.0, 0.0, 0.0, 0.0, 0.0, 0.0, 0.0, 0.0, 0.0, 0.0, 0.0, 0.0, 0.0, 0.0, 0.0, 0.0, 0.0, 0.0, 0.0, 0.0, 0.0, 0.0, 0.0, 0.0, 0.0, 0.0, 0.0, 0.0, 0.0, 0.0, 0.0, 0.0, 0.0, 0.0, 0.0, 0.0, 0.0, 0.0, 0.0, 0.0, 2.0, 0.0, 0.0, 0.0, 0.0, 1.0], "bins": [-0.5733234286308289, -0.5634503960609436, -0.5535773634910583, -0.5437043309211731, -0.5338312983512878, -0.5239582061767578, -0.5140851736068726, -0.5042121410369873, -0.49433910846710205, -0.4844660758972168, -0.47459304332733154, -0.4647199809551239, -0.45484694838523865, -0.4449739158153534, -0.43510088324546814, -0.4252278506755829, -0.41535481810569763, -0.4054817855358124, -0.3956087529659271, -0.3857356905937195, -0.37586265802383423, -0.365989625453949, -0.3561165928840637, -0.34624356031417847, -0.3363705277442932, -0.32649749517440796, -0.3166244626045227, -0.30675140023231506, -0.2968783676624298, -0.28700533509254456, -0.2771323025226593, -0.26725926995277405, -0.2573862075805664, -0.24751317501068115, -0.2376401275396347, -0.22776709496974945, -0.217894047498703, -0.20802101492881775, -0.1981479823589325, -0.18827494978904724, -0.1784018874168396, -0.16852885484695435, -0.1586558073759079, -0.14878277480602264, -0.1389097273349762, -0.12903669476509094, -0.11916366219520569, -0.10929062217473984, -0.09941758960485458, -0.08954454958438873, -0.07967151701450348, -0.06979847699403763, -0.05992543697357178, -0.050052396953105927, -0.040179360657930374, -0.030306324362754822, -0.02043328434228897, -0.01056024618446827, -0.0006872080266475677, 0.009185830131173134, 0.019058868288993835, 0.028931908309459686, 0.03880494460463524, 0.04867798089981079, 0.05855102092027664]}, "parameters/b3.weight": {"_type": "histogram", "values": [2.0, 0.0, 0.0, 0.0, 0.0, 0.0, 0.0, 0.0, 0.0, 0.0, 0.0, 0.0, 0.0, 0.0, 0.0, 0.0, 0.0, 0.0, 0.0, 0.0, 0.0, 0.0, 0.0, 0.0, 0.0, 0.0, 0.0, 0.0, 0.0, 0.0, 0.0, 0.0, 0.0, 0.0, 1.0, 0.0, 0.0, 0.0, 0.0, 0.0, 0.0, 0.0, 0.0, 0.0, 0.0, 0.0, 0.0, 0.0, 0.0, 0.0, 0.0, 0.0, 0.0, 0.0, 0.0, 0.0, 0.0, 0.0, 0.0, 0.0, 0.0, 0.0, 0.0, 1.0], "bins": [1.0343960063496915e-11, 0.010359052568674088, 0.020718105137348175, 0.031077157706022263, 0.04143621027469635, 0.05179526284337044, 0.062154315412044525, 0.07251337170600891, 0.0828724205493927, 0.09323146939277649, 0.10359052568674088, 0.11394958198070526, 0.12430863082408905, 0.13466767966747284, 0.14502674341201782, 0.1553857922554016, 0.1657448410987854, 0.1761038899421692, 0.18646293878555298, 0.19682200253009796, 0.20718105137348175, 0.21754010021686554, 0.22789916396141052, 0.2382582128047943, 0.2486172616481781, 0.2589763104915619, 0.2693353593349457, 0.27969440817832947, 0.29005348682403564, 0.30041253566741943, 0.3107715845108032, 0.321130633354187, 0.3314896821975708, 0.3418487310409546, 0.3522077798843384, 0.36256682872772217, 0.37292587757110596, 0.38328495621681213, 0.3936440050601959, 0.4040030539035797, 0.4143621027469635, 0.4247211515903473, 0.4350802004337311, 0.44543924927711487, 0.45579832792282104, 0.46615737676620483, 0.4765164256095886, 0.4868754744529724, 0.4972345232963562, 0.50759357213974, 0.5179526209831238, 0.5283116698265076, 0.5386707186698914, 0.5490297675132751, 0.5593888163566589, 0.5697479248046875, 0.5801069736480713, 0.5904660224914551, 0.6008250713348389, 0.6111841201782227, 0.6215431690216064, 0.6319022178649902, 0.642261266708374, 0.6526203155517578, 0.6629793643951416]}, "parameters/b3.bias": {"_type": "histogram", "values": [1.0, 0.0, 0.0, 0.0, 0.0, 0.0, 0.0, 0.0, 0.0, 0.0, 0.0, 0.0, 0.0, 0.0, 0.0, 0.0, 0.0, 0.0, 0.0, 0.0, 0.0, 0.0, 0.0, 0.0, 0.0, 0.0, 0.0, 0.0, 0.0, 0.0, 0.0, 0.0, 0.0, 0.0, 0.0, 0.0, 0.0, 0.0, 0.0, 0.0, 0.0, 0.0, 2.0, 0.0, 0.0, 0.0, 0.0, 0.0, 0.0, 0.0, 0.0, 0.0, 0.0, 0.0, 0.0, 0.0, 0.0, 0.0, 0.0, 0.0, 0.0, 0.0, 0.0, 1.0], "bins": [-0.2409570962190628, -0.23534001410007477, -0.22972291707992554, -0.2241058349609375, -0.21848875284194946, -0.21287167072296143, -0.2072545737028122, -0.20163749158382416, -0.19602040946483612, -0.19040332734584808, -0.18478623032569885, -0.17916914820671082, -0.17355206608772278, -0.16793498396873474, -0.1623178869485855, -0.15670080482959747, -0.15108370780944824, -0.1454666256904602, -0.13984952867031097, -0.13423244655132294, -0.1286153644323349, -0.12299827486276627, -0.11738118529319763, -0.1117641031742096, -0.10614702105522156, -0.10052993148565292, -0.09491284936666489, -0.08929575979709625, -0.08367867767810822, -0.07806158810853958, -0.07244449853897095, -0.06682741641998291, -0.06121033430099487, -0.05559324845671654, -0.0499761626124382, -0.04435907304286957, -0.03874199092388153, -0.0331249013543129, -0.02750781551003456, -0.021890729665756226, -0.01627364754676819, -0.010656561702489853, -0.005039474926888943, 0.0005776118487119675, 0.006194697692990303, 0.011811783537268639, 0.017428871244192123, 0.02304595708847046, 0.028663046658039093, 0.03428013250231743, 0.039897218346595764, 0.0455143079161644, 0.051131390035152435, 0.05674847960472107, 0.062365565448999405, 0.06798265129327774, 0.07359974086284637, 0.07921683043241501, 0.08483391255140305, 0.09045100212097168, 0.09606808423995972, 0.10168517380952835, 0.10730226337909698, 0.11291934549808502, 0.11853642761707306]}, "parameters/fc4.weight": {"_type": "histogram", "values": [1.0, 0.0, 0.0, 0.0, 0.0, 0.0, 0.0, 0.0, 0.0, 0.0, 0.0, 0.0, 0.0, 0.0, 0.0, 0.0, 0.0, 0.0, 0.0, 0.0, 0.0, 0.0, 0.0, 0.0, 0.0, 0.0, 0.0, 0.0, 0.0, 0.0, 0.0, 0.0, 0.0, 0.0, 0.0, 0.0, 0.0, 0.0, 0.0, 0.0, 0.0, 0.0, 0.0, 0.0, 0.0, 2.0, 0.0, 0.0, 0.0, 0.0, 0.0, 0.0, 0.0, 0.0, 0.0, 0.0, 0.0, 0.0, 0.0, 0.0, 0.0, 0.0, 0.0, 1.0], "bins": [-0.5553600192070007, -0.5430682301521301, -0.5307764410972595, -0.5184846520423889, -0.5061928629875183, -0.4939010739326477, -0.4816092848777771, -0.4693174958229065, -0.4570257067680359, -0.4447339177131653, -0.4324421286582947, -0.4201503396034241, -0.40785855054855347, -0.39556676149368286, -0.38327497243881226, -0.37098318338394165, -0.35869142413139343, -0.3463996350765228, -0.3341078460216522, -0.3218160569667816, -0.309524267911911, -0.2972324788570404, -0.2849407196044922, -0.2726489305496216, -0.260357141494751, -0.24806535243988037, -0.23577356338500977, -0.22348177433013916, -0.21118998527526855, -0.19889819622039795, -0.18660642206668854, -0.17431463301181793, -0.16202285885810852, -0.14973106980323792, -0.1374392807483673, -0.1251474916934967, -0.1128557100892067, -0.10056392103433609, -0.08827213943004608, -0.07598035037517548, -0.06368854641914368, -0.05139675736427307, -0.039104972034692764, -0.026813186705112457, -0.014521397650241852, -0.0022296085953712463, 0.010062173008918762, 0.022353962063789368, 0.03464573621749878, 0.046937525272369385, 0.05922931060194969, 0.07152109593153, 0.0838128849864006, 0.09610467404127121, 0.10839645564556122, 0.12068824470043182, 0.13298003375530243, 0.14527182281017303, 0.15756361186504364, 0.16985538601875305, 0.18214717507362366, 0.19443896412849426, 0.20673075318336487, 0.21902254223823547, 0.23131433129310608]}, "parameters/fc4.bias": {"_type": "histogram", "values": [0.0, 0.0, 0.0, 0.0, 0.0, 0.0, 0.0, 0.0, 0.0, 0.0, 0.0, 0.0, 0.0, 0.0, 0.0, 0.0, 0.0, 0.0, 0.0, 0.0, 0.0, 0.0, 0.0, 0.0, 0.0, 0.0, 0.0, 0.0, 0.0, 0.0, 0.0, 0.0, 1.0, 0.0, 0.0, 0.0, 0.0, 0.0, 0.0, 0.0, 0.0, 0.0, 0.0, 0.0, 0.0, 0.0, 0.0, 0.0, 0.0, 0.0, 0.0, 0.0, 0.0, 0.0, 0.0, 0.0, 0.0, 0.0, 0.0, 0.0, 0.0, 0.0, 0.0, 0.0], "bins": [0.6281784772872925, 0.6281784772872925, 0.6281784772872925, 0.6281784772872925, 0.6281784772872925, 0.6281784772872925, 0.6281784772872925, 0.6281784772872925, 0.6281784772872925, 0.6281784772872925, 0.6281784772872925, 0.6281784772872925, 0.6281784772872925, 0.6281784772872925, 0.6281784772872925, 0.6281784772872925, 0.6281784772872925, 0.6281784772872925, 0.6281784772872925, 0.6281784772872925, 0.6281784772872925, 0.6281784772872925, 0.6281784772872925, 0.6281784772872925, 0.6281784772872925, 0.6281784772872925, 0.6281784772872925, 0.6281784772872925, 0.6281784772872925, 0.6281784772872925, 0.6281784772872925, 0.6281784772872925, 0.6281784772872925, 0.6281784772872925, 0.6281784772872925, 0.6281784772872925, 0.6281784772872925, 0.6281784772872925, 0.6281784772872925, 0.6281784772872925, 0.6281784772872925, 0.6281784772872925, 0.6281784772872925, 0.6281784772872925, 0.6281784772872925, 0.6281784772872925, 0.6281784772872925, 0.6281784772872925, 0.6281784772872925, 0.6281784772872925, 0.6281784772872925, 0.6281784772872925, 0.6281784772872925, 0.6281784772872925, 0.6281784772872925, 0.6281784772872925, 0.6281784772872925, 0.6281784772872925, 0.6281784772872925, 0.6281784772872925, 0.6281784772872925, 0.6281784772872925, 0.6281784772872925, 0.6281784772872925, 0.6281784772872925]}, "gradients/fc4.bias": {"_type": "histogram", "values": [0.0, 0.0, 0.0, 0.0, 0.0, 0.0, 0.0, 0.0, 0.0, 0.0, 0.0, 0.0, 0.0, 0.0, 0.0, 0.0, 0.0, 0.0, 0.0, 0.0, 0.0, 0.0, 0.0, 0.0, 0.0, 0.0, 0.0, 0.0, 0.0, 0.0, 0.0, 0.0, 1.0, 0.0, 0.0, 0.0, 0.0, 0.0, 0.0, 0.0, 0.0, 0.0, 0.0, 0.0, 0.0, 0.0, 0.0, 0.0, 0.0, 0.0, 0.0, 0.0, 0.0, 0.0, 0.0, 0.0, 0.0, 0.0, 0.0, 0.0, 0.0, 0.0, 0.0, 0.0], "bins": [-0.016379464417696, -0.016379464417696, -0.016379464417696, -0.016379464417696, -0.016379464417696, -0.016379464417696, -0.016379464417696, -0.016379464417696, -0.016379464417696, -0.016379464417696, -0.016379464417696, -0.016379464417696, -0.016379464417696, -0.016379464417696, -0.016379464417696, -0.016379464417696, -0.016379464417696, -0.016379464417696, -0.016379464417696, -0.016379464417696, -0.016379464417696, -0.016379464417696, -0.016379464417696, -0.016379464417696, -0.016379464417696, -0.016379464417696, -0.016379464417696, -0.016379464417696, -0.016379464417696, -0.016379464417696, -0.016379464417696, -0.016379464417696, -0.016379464417696, -0.016379464417696, -0.016379464417696, -0.016379464417696, -0.016379464417696, -0.016379464417696, -0.016379464417696, -0.016379464417696, -0.016379464417696, -0.016379464417696, -0.016379464417696, -0.016379464417696, -0.016379464417696, -0.016379464417696, -0.016379464417696, -0.016379464417696, -0.016379464417696, -0.016379464417696, -0.016379464417696, -0.016379464417696, -0.016379464417696, -0.016379464417696, -0.016379464417696, -0.016379464417696, -0.016379464417696, -0.016379464417696, -0.016379464417696, -0.016379464417696, -0.016379464417696, -0.016379464417696, -0.016379464417696, -0.016379464417696, -0.016379464417696]}, "gradients/fc4.weight": {"_type": "histogram", "values": [2.0, 0.0, 0.0, 0.0, 0.0, 0.0, 0.0, 0.0, 1.0, 0.0, 0.0, 0.0, 0.0, 0.0, 0.0, 0.0, 0.0, 0.0, 0.0, 0.0, 0.0, 0.0, 0.0, 0.0, 0.0, 0.0, 0.0, 0.0, 0.0, 0.0, 0.0, 0.0, 0.0, 0.0, 0.0, 0.0, 0.0, 0.0, 0.0, 0.0, 0.0, 0.0, 0.0, 0.0, 0.0, 0.0, 0.0, 0.0, 0.0, 0.0, 0.0, 0.0, 0.0, 0.0, 0.0, 0.0, 0.0, 0.0, 0.0, 0.0, 0.0, 0.0, 0.0, 1.0], "bins": [-7.366890986126862e-10, 0.00024021990248002112, 0.0004804405616596341, 0.0007206611917354167, 0.0009608818218111992, 0.0012011025100946426, 0.001441323198378086, 0.0016815437702462077, 0.0019217644585296512, 0.002161985030397773, 0.0024022057186812162, 0.0026424264069646597, 0.002882647095248103, 0.003122867550700903, 0.0033630882389843464, 0.00360330892726779, 0.0038435296155512333, 0.004083750303834677, 0.00432397099211812, 0.004564191680401564, 0.004804412368685007, 0.005044632591307163, 0.005284853279590607, 0.00552507396787405, 0.005765294656157494, 0.006005515344440937, 0.0062457360327243805, 0.006485956721007824, 0.006726177409291267, 0.006966398097574711, 0.007206618785858154, 0.0074468390084803104, 0.007687059696763754, 0.00792727991938591, 0.008167500607669353, 0.008407721295952797, 0.00864794198423624, 0.008888162672519684, 0.009128383360803127, 0.00936860404908657, 0.009608824737370014, 0.009849045425653458, 0.010089266113936901, 0.010329486802220345, 0.010569707490503788, 0.010809928178787231, 0.011050148867070675, 0.011290369555354118, 0.011530590243637562, 0.011770810931921005, 0.012011031620204449, 0.012251252308487892, 0.012491472996771336, 0.012731693685054779, 0.012971914373338223, 0.013212135061621666, 0.013452354818582535, 0.013692575506865978, 0.013932796195149422, 0.014173016883432865, 0.014413237571716309, 0.014653458259999752, 0.014893678948283195, 0.015133899636566639, 0.015374120324850082]}, "gradients/b3.weight": {"_type": "histogram", "values": [1.0, 0.0, 0.0, 0.0, 0.0, 0.0, 0.0, 0.0, 0.0, 0.0, 0.0, 0.0, 0.0, 0.0, 0.0, 0.0, 0.0, 0.0, 0.0, 0.0, 0.0, 0.0, 0.0, 0.0, 0.0, 0.0, 0.0, 0.0, 0.0, 0.0, 0.0, 0.0, 0.0, 0.0, 0.0, 0.0, 0.0, 0.0, 0.0, 0.0, 0.0, 0.0, 0.0, 0.0, 0.0, 0.0, 0.0, 0.0, 0.0, 0.0, 2.0, 0.0, 0.0, 0.0, 0.0, 0.0, 0.0, 0.0, 0.0, 0.0, 0.0, 0.0, 0.0, 1.0], "bins": [-0.009577135555446148, -0.009387698024511337, -0.009198261424899101, -0.00900882389396429, -0.008819387294352055, -0.008629949763417244, -0.008440513163805008, -0.008251075632870197, -0.008061639033257961, -0.00787220150232315, -0.007682764902710915, -0.007493327837437391, -0.007303890772163868, -0.007114453706890345, -0.006925016641616821, -0.006735579576343298, -0.006546142511069775, -0.006356705445796251, -0.006167268380522728, -0.005977831315249205, -0.005788394249975681, -0.005598957184702158, -0.005409520119428635, -0.005220083054155111, -0.005030645523220301, -0.004841208457946777, -0.004651771392673254, -0.004462334327399731, -0.004272897262126207, -0.004083460196852684, -0.0038940231315791607, -0.0037045860663056374, -0.003515149001032114, -0.0033257119357585907, -0.0031362748704850674, -0.002946837805211544, -0.0027574007399380207, -0.0025679636746644974, -0.002378526609390974, -0.0021890895441174507, -0.0019996524788439274, -0.001810215413570404, -0.0016207783482968807, -0.0014313412830233574, -0.001241904217749834, -0.0010524671524763107, -0.0008630299707874656, -0.0006735929055139422, -0.0004841557238250971, -0.00029471865855157375, -0.00010528156417421997, 8.415553020313382e-05, 0.00027359259547665715, 0.0004630296607501805, 0.0006524667842313647, 0.0008419038495048881, 0.0010313409147784114, 0.0012207779800519347, 0.001410215045325458, 0.0015996522270143032, 0.0017890892922878265, 0.00197852635756135, 0.002167963422834873, 0.0023574004881083965, 0.00254683755338192]}, "gradients/b3.bias": {"_type": "histogram", "values": [1.0, 0.0, 0.0, 0.0, 0.0, 0.0, 0.0, 0.0, 0.0, 0.0, 0.0, 0.0, 0.0, 0.0, 0.0, 0.0, 0.0, 0.0, 2.0, 0.0, 0.0, 0.0, 0.0, 0.0, 0.0, 0.0, 0.0, 0.0, 0.0, 0.0, 0.0, 0.0, 0.0, 0.0, 0.0, 0.0, 0.0, 0.0, 0.0, 0.0, 0.0, 0.0, 0.0, 0.0, 0.0, 0.0, 0.0, 0.0, 0.0, 0.0, 0.0, 0.0, 0.0, 0.0, 0.0, 0.0, 0.0, 0.0, 0.0, 0.0, 0.0, 0.0, 0.0, 1.0], "bins": [-0.0037917979061603546, -0.0035903933458030224, -0.0033889885526150465, -0.0031875837594270706, -0.0029861791990697384, -0.002784774638712406, -0.0025833698455244303, -0.0023819650523364544, -0.002180560491979122, -0.00197915593162179, -0.001777751138433814, -0.00157634646166116, -0.001374941784888506, -0.0011735371081158519, -0.0009721324313431978, -0.0007707277545705438, -0.0005693230777978897, -0.00036791840102523565, -0.0001665137242525816, 3.489095252007246e-05, 0.00023629562929272652, 0.0004377003060653806, 0.0006391049828380346, 0.0008405096596106887, 0.0010419143363833427, 0.0012433190131559968, 0.0014447236899286509, 0.001646128366701305, 0.001847533043473959, 0.002048937603831291, 0.002250342397019267, 0.002451747190207243, 0.002653151750564575, 0.0028545563109219074, 0.0030559611041098833, 0.003257365897297859, 0.0034587704576551914, 0.0036601750180125237, 0.0038615798112004995, 0.004062984604388475, 0.004264389164745808, 0.00446579372510314, 0.004667198285460472, 0.004868603311479092, 0.005070007871836424, 0.005271412432193756, 0.005472817458212376, 0.005674222018569708, 0.00587562657892704, 0.006077031139284372, 0.0062784356996417046, 0.006479840725660324, 0.006681245286017656, 0.0068826498463749886, 0.007084054872393608, 0.00728545943275094, 0.0074868639931082726, 0.007688268553465605, 0.007889673113822937, 0.008091078139841557, 0.008292483165860176, 0.008493887260556221, 0.00869529228657484, 0.008896696381270885, 0.009098101407289505]}, "gradients/fc3.bias": {"_type": "histogram", "values": [1.0, 2.0, 0.0, 0.0, 0.0, 0.0, 0.0, 0.0, 0.0, 0.0, 0.0, 0.0, 0.0, 0.0, 0.0, 0.0, 0.0, 0.0, 0.0, 0.0, 0.0, 0.0, 0.0, 0.0, 0.0, 0.0, 0.0, 0.0, 0.0, 0.0, 0.0, 0.0, 0.0, 0.0, 0.0, 0.0, 0.0, 0.0, 0.0, 0.0, 0.0, 0.0, 0.0, 0.0, 0.0, 0.0, 0.0, 0.0, 0.0, 0.0, 0.0, 0.0, 0.0, 0.0, 0.0, 0.0, 0.0, 0.0, 0.0, 0.0, 0.0, 0.0, 0.0, 1.0], "bins": [-0.0001885626115836203, -1.7335551092401147e-05, 0.00015389150939881802, 0.00032511859899386764, 0.0004963456303812563, 0.000667572661768645, 0.0008387998095713556, 0.0010100267827510834, 0.001181253930553794, 0.0013524809619411826, 0.0015237079933285713, 0.0016949351411312819, 0.0018661621725186706, 0.0020373892039060593, 0.00220861635170877, 0.0023798434995114803, 0.002551070414483547, 0.0027222975622862577, 0.0028935244772583246, 0.003064751625061035, 0.003235978540033102, 0.0034072056878358126, 0.003578432835638523, 0.00374965975061059, 0.003920887131243944, 0.004092114046216011, 0.004263341426849365, 0.004434568341821432, 0.004605795256793499, 0.004777022637426853, 0.00494824955239892, 0.005119476467370987, 0.0052907029166817665, 0.005461929831653833, 0.005633157212287188, 0.0058043841272592545, 0.005975611042231321, 0.006146837957203388, 0.006318065337836742, 0.006489292252808809, 0.006660519167780876, 0.006831746082752943, 0.007002973463386297, 0.007174200378358364, 0.007345427293330431, 0.007516654208302498, 0.007687881588935852, 0.007859108969569206, 0.00803033635020256, 0.008201563730835915, 0.008372790180146694, 0.008544017560780048, 0.008715244941413403, 0.008886471390724182, 0.009057698771357536, 0.00922892615199089, 0.00940015260130167, 0.009571379981935024, 0.009742606431245804, 0.009913833811879158, 0.010085061192512512, 0.010256287641823292, 0.010427515022456646, 0.01059874240309, 0.01076996885240078]}, "gradients/fc3.weight": {"_type": "histogram", "values": [1.0, 0.0, 0.0, 0.0, 0.0, 0.0, 0.0, 0.0, 0.0, 0.0, 0.0, 0.0, 0.0, 0.0, 0.0, 0.0, 0.0, 0.0, 0.0, 0.0, 0.0, 0.0, 0.0, 0.0, 0.0, 0.0, 0.0, 0.0, 0.0, 0.0, 1.0, 0.0, 0.0, 0.0, 0.0, 0.0, 1.0, 0.0, 0.0, 0.0, 0.0, 0.0, 0.0, 0.0, 0.0, 0.0, 1.0, 1.0, 0.0, 0.0, 23.0, 0.0, 0.0, 0.0, 0.0, 0.0, 0.0, 1.0, 0.0, 0.0, 1.0, 1.0, 0.0, 1.0], "bins": [-0.00857631303369999, -0.00840695109218359, -0.00823758915066719, -0.008068227209150791, -0.007898865267634392, -0.007729503326117992, -0.007560141384601593, -0.007390779443085194, -0.007221417501568794, -0.007052055560052395, -0.0068826936185359955, -0.006713331677019596, -0.006543969735503197, -0.006374607793986797, -0.006205245852470398, -0.0060358839109539986, -0.005866521503776312, -0.0056971595622599125, -0.005527797620743513, -0.005358435679227114, -0.005189073737710714, -0.005019711796194315, -0.004850349389016628, -0.004680987447500229, -0.0045116255059838295, -0.00434226356446743, -0.004172901622951031, -0.004003539681434631, -0.003834177739918232, -0.0036648157984018326, -0.0034954536240547895, -0.00332609168253839, -0.0031567304395139217, -0.0029873684979975224, -0.002818006556481123, -0.0026486446149647236, -0.002479282673448324, -0.002309920731931925, -0.0021405585575848818, -0.0019711966160684824, -0.0018018349073827267, -0.0016324729658663273, -0.001463111024349928, -0.0012937489664182067, -0.0011243870249018073, -0.0009550250833854079, -0.0007856630254536867, -0.0006163010839372873, -0.0004469389095902443, -0.00027757693897001445, -0.00010821496834978461, 6.114703137427568e-05, 0.00023050897289067507, 0.00039987091440707445, 0.0005692329723387957, 0.000738594913855195, 0.0009079568553715944, 0.0010773187968879938, 0.0012466807384043932, 0.0014160427963361144, 0.0015854047378525138, 0.0017547666793689132, 0.0019241287373006344, 0.0020934906788170338, 0.002262852620333433]}, "gradients/b2.weight": {"_type": "histogram", "values": [1.0, 0.0, 0.0, 0.0, 0.0, 0.0, 0.0, 0.0, 0.0, 0.0, 0.0, 0.0, 0.0, 0.0, 0.0, 0.0, 0.0, 0.0, 0.0, 0.0, 0.0, 0.0, 0.0, 0.0, 0.0, 0.0, 0.0, 0.0, 1.0, 0.0, 0.0, 0.0, 0.0, 0.0, 0.0, 0.0, 0.0, 0.0, 0.0, 0.0, 1.0, 0.0, 0.0, 0.0, 3.0, 0.0, 0.0, 0.0, 0.0, 0.0, 0.0, 0.0, 0.0, 0.0, 0.0, 1.0, 0.0, 0.0, 0.0, 0.0, 0.0, 0.0, 0.0, 1.0], "bins": [-0.005757778882980347, -0.005627526436001062, -0.005497273989021778, -0.005367021542042494, -0.0052367690950632095, -0.0051065171137452126, -0.004976264666765928, -0.004846012219786644, -0.00471575977280736, -0.004585507325828075, -0.004455254878848791, -0.004325002431869507, -0.00419475045055151, -0.004064498003572226, -0.003934245556592941, -0.003803993109613657, -0.0036737406626343727, -0.0035434882156550884, -0.003413235768675804, -0.0032829835545271635, -0.0031527311075478792, -0.003022478660568595, -0.0028922264464199543, -0.00276197399944067, -0.0026317215524613857, -0.0025014691054821014, -0.002371216658502817, -0.0022409644443541765, -0.0021107119973748922, -0.001980459550395608, -0.0018502072198316455, -0.001719954889267683, -0.001589702209457755, -0.0014594497624784708, -0.0013291974319145083, -0.0011989451013505459, -0.0010686926543712616, -0.0009384402655996382, -0.0008081878768280149, -0.0006779354880563915, -0.0005476830992847681, -0.00041743071051314473, -0.00028717832174152136, -0.00015692593296989799, -2.6673544198274612e-05, 0.00010357884457334876, 0.00023383123334497213, 0.0003640836221165955, 0.0004943360108882189, 0.0006245883996598423, 0.0007548407884314656, 0.000885093177203089, 0.0010153455659747124, 0.0011455980129539967, 0.0012758503435179591, 0.0014061026740819216, 0.0015363551210612059, 0.0016666075680404902, 0.0017968598986044526, 0.001927112229168415, 0.0020573646761476994, 0.0021876171231269836, 0.002317869570106268, 0.0024481217842549086, 0.002578374231234193]}, "gradients/b2.bias": {"_type": "histogram", "values": [1.0, 0.0, 0.0, 0.0, 0.0, 1.0, 0.0, 0.0, 0.0, 0.0, 0.0, 0.0, 0.0, 3.0, 0.0, 0.0, 0.0, 0.0, 0.0, 0.0, 0.0, 0.0, 0.0, 0.0, 0.0, 0.0, 0.0, 0.0, 0.0, 1.0, 0.0, 0.0, 0.0, 0.0, 0.0, 0.0, 0.0, 0.0, 0.0, 0.0, 0.0, 1.0, 0.0, 0.0, 0.0, 0.0, 0.0, 0.0, 0.0, 0.0, 0.0, 0.0, 0.0, 0.0, 0.0, 0.0, 0.0, 0.0, 0.0, 0.0, 0.0, 0.0, 0.0, 1.0], "bins": [-0.0020737152080982924, -0.001922493800520897, -0.0017712725093588233, -0.0016200511017814279, -0.0014688298106193542, -0.0013176084030419588, -0.0011663869954645634, -0.0010151657043024898, -0.0008639442967250943, -0.0007127229473553598, -0.0005615015979856253, -0.00041028019040822983, -0.0002590588410384953, -0.00010783749166876078, 4.338391590863466e-05, 0.00019460520707070827, 0.0003458266146481037, 0.0004970479640178382, 0.0006482693133875728, 0.0007994907209649682, 0.0009507120703347027, 0.0011019334197044373, 0.0012531548272818327, 0.0014043761184439063, 0.0015555976424366236, 0.001706819050014019, 0.0018580403411760926, 0.00200926186516881, 0.0021604830399155617, 0.002311704447492957, 0.0024629258550703526, 0.0026141470298171043, 0.002765368204563856, 0.0029165896121412516, 0.003067811019718647, 0.003219032194465399, 0.0033702536020427942, 0.0035214750096201897, 0.003672696417197585, 0.0038239178247749805, 0.003975138999521732, 0.004126360174268484, 0.004277581814676523, 0.004428802989423275, 0.004580024629831314, 0.004731245804578066, 0.004882466979324818, 0.005033688619732857, 0.005184910260140896, 0.005336131434887648, 0.005487353075295687, 0.0056385742500424385, 0.005789795890450478, 0.005941017065197229, 0.006092238239943981, 0.00624345988035202, 0.006394681055098772, 0.006545902229845524, 0.006697123870253563, 0.006848345045000315, 0.006999566685408354, 0.007150787860155106, 0.007302009500563145, 0.0074532306753098965, 0.007604451850056648]}, "gradients/fc2.bias": {"_type": "histogram", "values": [4.0, 2.0, 0.0, 0.0, 0.0, 0.0, 0.0, 0.0, 0.0, 0.0, 0.0, 0.0, 0.0, 0.0, 0.0, 0.0, 0.0, 0.0, 0.0, 0.0, 0.0, 0.0, 0.0, 0.0, 0.0, 1.0, 0.0, 0.0, 0.0, 0.0, 0.0, 0.0, 0.0, 0.0, 0.0, 0.0, 0.0, 0.0, 0.0, 0.0, 0.0, 0.0, 0.0, 0.0, 0.0, 0.0, 0.0, 0.0, 0.0, 0.0, 0.0, 0.0, 0.0, 0.0, 0.0, 0.0, 0.0, 0.0, 0.0, 0.0, 0.0, 0.0, 0.0, 1.0], "bins": [-6.194872548803687e-05, 2.332024450879544e-06, 6.661277438979596e-05, 0.00013089351705275476, 0.0001951742742676288, 0.0002594550314825028, 0.0003237357595935464, 0.0003880165168084204, 0.00045229727402329445, 0.0005165780312381685, 0.0005808587884530425, 0.0006451394874602556, 0.0007094203028827906, 0.0007737010018900037, 0.0008379817591048777, 0.0009022625163197517, 0.0009665432735346258, 0.0010308240307494998, 0.001095104729756713, 0.0011593855451792479, 0.001223666244186461, 0.001287947059608996, 0.001352227758616209, 0.001416508574038744, 0.0014807891566306353, 0.0015450698556378484, 0.0016093506710603833, 0.0016736313700675964, 0.0017379121854901314, 0.0018021928844973445, 0.0018664735835045576, 0.0019307543989270926, 0.0019950352143496275, 0.0020593160297721624, 0.0021235966123640537, 0.0021878774277865887, 0.0022521582432091236, 0.0023164390586316586, 0.00238071964122355, 0.002445000456646085, 0.0025092812720686197, 0.0025735620874911547, 0.002637842670083046, 0.002702123485505581, 0.002766404300928116, 0.002830685116350651, 0.002894965698942542, 0.002959246514365077, 0.0030235270969569683, 0.0030878079123795033, 0.0031520884949713945, 0.0032163693103939295, 0.0032806501258164644, 0.0033449309412389994, 0.0034092115238308907, 0.0034734923392534256, 0.0035377731546759605, 0.0036020539700984955, 0.0036663345526903868, 0.0037306153681129217, 0.0037948961835354567, 0.0038591769989579916, 0.003923457581549883, 0.003987738396972418, 0.004052019212394953]}, "gradients/fc2.weight": {"_type": "histogram", "values": [1.0, 0.0, 0.0, 0.0, 1.0, 0.0, 0.0, 0.0, 0.0, 0.0, 0.0, 0.0, 0.0, 0.0, 0.0, 0.0, 0.0, 0.0, 1.0, 0.0, 2.0, 0.0, 1.0, 1.0, 1.0, 2.0, 2.0, 3.0, 1.0, 2.0, 3.0, 3.0, 3.0, 3.0, 78.0, 4.0, 3.0, 3.0, 4.0, 2.0, 0.0, 1.0, 0.0, 0.0, 0.0, 0.0, 0.0, 0.0, 0.0, 1.0, 0.0, 0.0, 0.0, 0.0, 0.0, 0.0, 0.0, 0.0, 0.0, 1.0, 0.0, 0.0, 0.0, 1.0], "bins": [-0.00622680876404047, -0.0060460446402430534, -0.005865280516445637, -0.00568451639264822, -0.005503752734512091, -0.005322988610714674, -0.005142224486917257, -0.004961460363119841, -0.004780696704983711, -0.0045999325811862946, -0.004419168457388878, -0.004238404333591461, -0.004057640675455332, -0.003876876551657915, -0.0036961124278604984, -0.0035153483040630817, -0.003334584180265665, -0.0031538200564682484, -0.0029730561655014753, -0.0027922920417040586, -0.0026115281507372856, -0.002430764026939869, -0.0022499999031424522, -0.0020692357793450356, -0.0018884716555476189, -0.001707707648165524, -0.0015269436407834291, -0.0013461795169860125, -0.0011654155096039176, -0.0009846515022218227, -0.000803887378424406, -0.0006231233710423112, -0.0004423591308295727, -0.00026159509434364736, -8.083105785772204e-05, 9.993300773203373e-05, 0.0002806970151141286, 0.00046146102249622345, 0.0006422251462936401, 0.000822989153675735, 0.0010037529282271862, 0.001184516935609281, 0.001365280942991376, 0.0015460450667887926, 0.0017268090741708875, 0.0019075730815529823, 0.002088337205350399, 0.0022691013291478157, 0.0024498654529452324, 0.002630629576742649, 0.002811393467709422, 0.002992157591506839, 0.003172921482473612, 0.0033536856062710285, 0.003534449730068445, 0.003715213853865862, 0.003895977744832635, 0.004076741635799408, 0.004257505759596825, 0.004438269883394241, 0.004619034007191658, 0.004799798130989075, 0.004980562254786491, 0.005161325912922621, 0.0053420900367200375]}, "gradients/b1.weight": {"_type": "histogram", "values": [1.0, 0.0, 0.0, 0.0, 0.0, 0.0, 0.0, 0.0, 0.0, 0.0, 1.0, 1.0, 1.0, 0.0, 1.0, 0.0, 0.0, 0.0, 0.0, 0.0, 0.0, 0.0, 0.0, 0.0, 0.0, 0.0, 0.0, 0.0, 0.0, 0.0, 5.0, 0.0, 0.0, 1.0, 0.0, 0.0, 1.0, 1.0, 0.0, 0.0, 0.0, 0.0, 1.0, 1.0, 0.0, 0.0, 0.0, 0.0, 0.0, 0.0, 0.0, 0.0, 0.0, 0.0, 0.0, 0.0, 0.0, 0.0, 0.0, 0.0, 0.0, 0.0, 0.0, 1.0], "bins": [-0.004957050550729036, -0.004796742461621761, -0.004636433906853199, -0.004476125817745924, -0.004315817728638649, -0.004155509639531374, -0.003995201084762812, -0.0038348929956555367, -0.0036745849065482616, -0.003514276584610343, -0.003353968495503068, -0.0031936601735651493, -0.0030333520844578743, -0.0028730437625199556, -0.002712735440582037, -0.002552427351474762, -0.0023921190295368433, -0.0022318107075989246, -0.0020715026184916496, -0.001911194296553731, -0.001750886207446456, -0.0015905778855085373, -0.0014302696799859405, -0.0012699614744633436, -0.001109653152525425, -0.0009493449470028281, -0.0007890367414802313, -0.0006287284777499735, -0.0004684202722273767, -0.00030811206670477986, -0.00014780380297452211, 1.2504402548074722e-05, 0.00017281249165534973, 0.00033312069717794657, 0.0004934289027005434, 0.0006537371664308012, 0.000814045371953398, 0.0009743535774759948, 0.0011346618412062526, 0.0012949700467288494, 0.0014552781358361244, 0.0016155863413587213, 0.001775894546881318, 0.0019362028688192368, 0.0020965109579265118, 0.0022568192798644304, 0.002417127601802349, 0.002577435690909624, 0.0027377440128475428, 0.0028980523347854614, 0.0030583604238927364, 0.003218668745830655, 0.00337897683493793, 0.0035392851568758488, 0.0036995932459831238, 0.0038599015679210424, 0.004020209889858961, 0.004180517978966236, 0.004340826533734798, 0.0045011346228420734, 0.0046614427119493484, 0.0048217508010566235, 0.004982059355825186, 0.005142367444932461, 0.005302675534039736]}, "gradients/b1.bias": {"_type": "histogram", "values": [1.0, 1.0, 0.0, 0.0, 0.0, 1.0, 0.0, 0.0, 0.0, 0.0, 1.0, 1.0, 0.0, 1.0, 0.0, 0.0, 0.0, 0.0, 0.0, 0.0, 0.0, 0.0, 0.0, 0.0, 0.0, 0.0, 0.0, 0.0, 0.0, 0.0, 0.0, 0.0, 0.0, 0.0, 0.0, 0.0, 0.0, 0.0, 6.0, 0.0, 0.0, 0.0, 0.0, 0.0, 0.0, 0.0, 0.0, 0.0, 0.0, 0.0, 0.0, 0.0, 0.0, 0.0, 0.0, 0.0, 1.0, 2.0, 0.0, 0.0, 0.0, 0.0, 0.0, 1.0], "bins": [-0.002915024757385254, -0.0028387815691530704, -0.0027625381480902433, -0.0026862947270274162, -0.0026100515387952328, -0.0025338083505630493, -0.002457564929500222, -0.002381321508437395, -0.0023050783202052116, -0.002228835131973028, -0.002152591710910201, -0.002076348289847374, -0.0020001051016151905, -0.0019238617969676852, -0.00184761849232018, -0.0017713751876726747, -0.0016951318830251694, -0.001618888578377664, -0.0015426452737301588, -0.0014664019690826535, -0.0013901586644351482, -0.001313915359787643, -0.0012376720551401377, -0.0011614287504926324, -0.001085185445845127, -0.0010089421411976218, -0.0009326988365501165, -0.0008564555319026113, -0.000780212227255106, -0.0007039689226076007, -0.0006277256179600954, -0.0005514823133125901, -0.00047523900866508484, -0.00039899570401757956, -0.00032275239937007427, -0.000246509094722569, -0.0001702657900750637, -9.402248542755842e-05, -1.777918078005314e-05, 5.8464123867452145e-05, 0.00013470742851495743, 0.0002109507331624627, 0.000287194037809968, 0.0003634373424574733, 0.00043968064710497856, 0.0005159239517524838, 0.0005921672563999891, 0.0006684105610474944, 0.0007446538656949997, 0.000820897170342505, 0.0008971404749900103, 0.0009733837796375155, 0.0010496270842850208, 0.0011258703889325261, 0.0012021136935800314, 0.0012783569982275367, 0.001354600302875042, 0.0014308436075225472, 0.0015070869121700525, 0.0015833302168175578, 0.001659573521465063, 0.0017358168261125684, 0.0018120601307600737, 0.001888303435407579, 0.0019645467400550842]}, "gradients/fc1.bias": {"_type": "histogram", "values": [1.0, 1.0, 0.0, 0.0, 0.0, 0.0, 0.0, 0.0, 0.0, 0.0, 0.0, 1.0, 0.0, 0.0, 0.0, 0.0, 1.0, 0.0, 1.0, 0.0, 1.0, 1.0, 5.0, 1.0, 0.0, 0.0, 1.0, 1.0, 0.0, 0.0, 0.0, 0.0, 0.0, 0.0, 0.0, 0.0, 0.0, 0.0, 0.0, 0.0, 0.0, 0.0, 0.0, 0.0, 0.0, 0.0, 0.0, 0.0, 0.0, 0.0, 0.0, 0.0, 0.0, 0.0, 0.0, 0.0, 0.0, 0.0, 0.0, 0.0, 0.0, 0.0, 0.0, 1.0], "bins": [-0.0046359761618077755, -0.004430125467479229, -0.004224274307489395, -0.004018423613160849, -0.003812572918832302, -0.0036067222245037556, -0.0034008712973445654, -0.003195020370185375, -0.0029891696758568287, -0.002783318981528282, -0.002577468054369092, -0.002371617127209902, -0.0021657664328813553, -0.0019599157385528088, -0.0017540648113936186, -0.0015482140006497502, -0.0013423631899058819, -0.0011365123791620135, -0.0009306615684181452, -0.0007248107576742768, -0.0005189599469304085, -0.0003131091361865401, -0.00010725832544267178, 9.859248530119658e-05, 0.0003044432960450649, 0.0005102941067889333, 0.0007161449175328016, 0.00092199572827667, 0.0011278465390205383, 0.0013336973497644067, 0.001539548160508275, 0.0017453989712521434, 0.0019512493163347244, 0.002157100010663271, 0.002362950937822461, 0.0025688018649816513, 0.002774652559310198, 0.0029805032536387444, 0.0031863541807979345, 0.0033922051079571247, 0.0035980558022856712, 0.0038039064966142178, 0.004009757190942764, 0.004215608350932598, 0.004421459045261145, 0.004627309739589691, 0.004833160899579525, 0.0050390115939080715, 0.005244862288236618, 0.0054507129825651646, 0.005656563676893711, 0.005862414836883545, 0.0060682655312120914, 0.006274116225540638, 0.006479967385530472, 0.006685818079859018, 0.006891668774187565, 0.007097519468516111, 0.007303370162844658, 0.007509221322834492, 0.007715072017163038, 0.007920922711491585, 0.008126773871481419, 0.008332624100148678, 0.008538475260138512]}, "gradients/fc1.weight": {"_type": "histogram", "values": [1.0, 0.0, 0.0, 0.0, 0.0, 0.0, 0.0, 0.0, 0.0, 0.0, 0.0, 2.0, 1.0, 0.0, 1.0, 4.0, 6.0, 1.0, 4.0, 3.0, 7.0, 10.0, 10.0, 13.0, 12.0, 14.0, 21.0, 26.0, 148.0, 16.0, 17.0, 18.0, 12.0, 11.0, 15.0, 5.0, 5.0, 4.0, 4.0, 2.0, 6.0, 3.0, 2.0, 0.0, 0.0, 3.0, 2.0, 1.0, 1.0, 0.0, 0.0, 1.0, 1.0, 1.0, 0.0, 1.0, 0.0, 0.0, 0.0, 0.0, 0.0, 0.0, 0.0, 1.0], "bins": [-0.01859833300113678, -0.01795487105846405, -0.01731140911579132, -0.01666794903576374, -0.01602448709309101, -0.015381025150418282, -0.014737563207745552, -0.014094102196395397, -0.013450641185045242, -0.012807179242372513, -0.012163718231022358, -0.011520256288349628, -0.010876795276999474, -0.010233333334326744, -0.009589871391654015, -0.00894641038030386, -0.00830294843763113, -0.007659486960619688, -0.007016025483608246, -0.006372563540935516, -0.0057291025295853615, -0.005085640586912632, -0.00444217910990119, -0.0037987176328897476, -0.003155255690217018, -0.002511794213205576, -0.001868332619778812, -0.001224871026352048, -0.0005814095493406057, 6.205192767083645e-05, 0.0007055136375129223, 0.0013489751145243645, 0.0019924361258745193, 0.0026358976028859615, 0.0032793590798974037, 0.003922821022570133, 0.004566282033920288, 0.005209743976593018, 0.00585320545360446, 0.006496666930615902, 0.007140127941966057, 0.007783589418977499, 0.008427050895988941, 0.00907051283866167, 0.009713973850011826, 0.010357435792684555, 0.011000897735357285, 0.01164435874670744, 0.012287820689380169, 0.012931282632052898, 0.013574743643403053, 0.014218205586075783, 0.014861666597425938, 0.015505128540098667, 0.016148589551448822, 0.01679205149412155, 0.01743551343679428, 0.01807897537946701, 0.01872243732213974, 0.01936589740216732, 0.02000935934484005, 0.02065282128751278, 0.02129628323018551, 0.02193974331021309, 0.02258320525288582]}, "train_accuracy": 0.8847765363128491, "_runtime": 105, "_timestamp": 1641570593, "_step": 1278, "train_loss": 5.270634998567402, "scheduled_learning_rate_train": 0.01, "test_accuracy": 0.8094462540716613, "test_loss": 3.5969706303440034, "learning_rate_test": 0.01, "_wandb": {"runtime": 105}}